SVM-light Version V6.02
0 # kernel type
3 # kernel parameter -d 
1 # kernel parameter -g 
1 # kernel parameter -s 
1 # kernel parameter -r 
empty# kernel parameter -u 
4 # highest feature index 
8422 # number of training documents 
1651 # number of support vectors plus 1 
1.0054994 # threshold b, each following line is a SV (starting with alpha*y)
-0.00059270935104009019132181856903685 1:0.14102565 2:13.087197 3:0.14102565 4:27.441715 #SRS045049.7461
0.00059270935104009019132181856903685 1:0.41025642 2:18.574612 3:0.41025642 4:320.16608 #Q97Q48
-0.00059270935104009019132181856903685 1:0.11538462 2:9.8486128 3:0.11538462 4:16.644224 #SRS052874.28681
0.00059270935104009019132181856903685 1:0.012820513 2:0.25462529 3:0.012820513 4:2.7338765 #Q9AGW0
-0.00059270935104009019132181856903685 1:0.14102565 2:17.257107 3:0.14102565 4:107.89299 #SRS016039.12097
0.00059270935104009019132181856903685 1:0.70512819 2:18.724154 3:0.70512819 4:471.37012 #Q04I59
-0.00059270935104009019132181856903685 1:0.12820514 2:12.506553 3:0.12820514 4:24.97192 #SRS050628.4032
-0.00059270935104009019132181856903685 1:0.03846154 2:15.582152 3:0.03846154 4:484.48792 #SRS020336.4036
-0.00059270935104009019132181856903685 1:0.38461539 2:12.246865 3:0.38461539 4:22.830534 #SRS017215.16986
0.00059270935104009019132181856903685 1:0.012820513 2:5.9336572 3:0.012820513 4:445.89706 #Q8DRR1
0.00059270935104009019132181856903685 1:0.012820513 2:5.5493827 3:0.012820513 4:41.212337 #Q03EZ6
0.00059270935104009019132181856903685 1:0.35897437 2:15.238958 3:0.35897437 4:40.87434 #P43832
-0.00059270935104009019132181856903685 1:0.11538462 2:6.4943523 3:0.11538462 4:10.436571 #SRS050029.29856
-0.00059270935104009019132181856903685 1:0.051282052 2:16.558655 3:0.051282052 4:701.89215 #SRS011247.13334
-0.00059270935104009019132181856903685 1:0.089743592 2:3.5532625 3:0.089743592 4:6.8257589 #SRS015154.13288
0.00059270935104009019132181856903685 1:0.012820513 2:5.9334178 3:0.012820513 4:431.66412 #Q3K2S4
0.00059270935104009019132181856903685 1:0.012820513 2:0.37452322 3:0.012820513 4:3.0238924 #A6LFP0
-0.00059270935104009019132181856903685 1:0.089743592 2:1.8754337 3:0.089743592 4:4.9433913 #SRS018149.35979
0.00059270935104009019132181856903685 1:0.69230771 2:18.717445 3:0.69230771 4:435.0723 #O69076
0.00059270935104009019132181856903685 1:0.53846157 2:16.896381 3:0.53846157 4:67.287369 #P43742
0.00059270935104009019132181856903685 1:0.012820513 2:0.53074753 3:0.012820513 4:3.3449543 #P52357
0.00059270935104009019132181856903685 1:0.52564102 2:18.657036 3:0.52564102 4:412.51877 #Q97N51
0.00059270935104009019132181856903685 1:0.012820513 2:5.8707533 3:0.012820513 4:132.96028 #Q57293
0.00059270935104009019132181856903685 1:0.012820513 2:5.9309592 3:0.012820513 4:347.15628 #Q24QE3
0.00059270935104009019132181856903685 1:0.012820513 2:0.57804948 3:0.012820513 4:3.4295981 #Q8R678
-0.00059270935104009019132181856903685 1:0.11538462 2:10.546579 3:0.11538462 4:18.479166 #SRS019329.10353
-0.00013032412076153859423199854461473 1:0.064102568 2:1.2546086 3:0.064102568 4:4.264554 #SRS013239.22747
-0.00059270935104009019132181856903685 1:0.051282052 2:16.558443 3:0.051282052 4:668.84088 #SRS019872.14710
0.00059270935104009019132181856903685 1:0.012820513 2:5.8834076 3:0.012820513 4:150.30051 #A2RMI2
-0.00059270935104009019132181856903685 1:0.12820514 2:9.9804087 3:0.12820514 4:16.890633 #SRS019329.38990
0.00059270935104009019132181856903685 1:0.012820513 2:0.82299423 3:0.012820513 4:3.8401897 #C1DCC1
-0.00059270935104009019132181856903685 1:0.11538462 2:9.0773029 3:0.11538462 4:14.886845 #SRS045049.41485
-0.00059270935104009019132181856903685 1:0.15384616 2:14.973408 3:0.15384616 4:41.182426 #SRS022532.7921
0.00059270935104009019132181856903685 1:0.012820513 2:5.8760056 3:0.012820513 4:139.52623 #Q9L7Q5
-0.00059270935104009019132181856903685 1:0.1923077 2:14.804606 3:0.1923077 4:38.42918 #SRS063272.27347
-0.00059270935104009019132181856903685 1:0.1025641 2:7.2217946 3:0.1025641 4:11.534608 #SRS056892.50813
-4.5111746306742989826021883459362e-05 1:0.025641026 2:12.662779 3:0.025641026 4:223.52086 #SRS011090.797
0.00059270935104009019132181856903685 1:0.012820513 2:0.88685054 3:0.012820513 4:3.9399137 #Q8RII8
0.00059270935104009019132181856903685 1:0.64102566 2:18.699579 3:0.64102566 4:407.55966 #Q97SR1
0.00059270935104009019132181856903685 1:0.025641026 2:0.90059859 3:0.025641026 4:3.8586843 #C4ZBL1
-0.00010299274141433931162303849760065 1:0.1025641 2:8.4291849 3:0.1025641 4:13.623878 #SRS019587.11190
0.00059270935104009019132181856903685 1:0.012820513 2:5.9186506 3:0.012820513 4:239.79768 #Q9CDZ7
-0.00059270935104009019132181856903685 1:0.025641026 2:12.752851 3:0.025641026 4:556.4082 #SRS016088.7201
-0.00059270935104009019132181856903685 1:0.025641026 2:12.751395 3:0.025641026 4:490.59311 #SRS045254.15138
0.00059270935104009019132181856903685 1:0.82051283 2:18.728783 3:0.82051283 4:403.92947 #P67595
0.00059270935104009019132181856903685 1:0.48717949 2:17.642044 3:0.48717949 4:98.033394 #P44834
-0.00059270935104009019132181856903685 1:0.025641026 2:12.709435 3:0.025641026 4:274.08063 #SRS022145.1934
-0.00059270935104009019132181856903685 1:0.07692308 2:3.0092926 3:0.07692308 4:6.199141 #SRS015436.49735
0.00059270935104009019132181856903685 1:0.012820513 2:0.92244709 3:0.012820513 4:3.9931793 #Q8RGE3
-0.00059270935104009019132181856903685 1:0.12820514 2:9.9929886 3:0.12820514 4:16.921585 #SRS023987.32462
0.00059270935104009019132181856903685 1:0.65384614 2:18.701441 3:0.65384614 4:397.9205 #Q04HV7
0.00059270935104009019132181856903685 1:0.012820513 2:1.0080792 3:0.012820513 4:4.123807 #A6VNB3
-0.00053115081141097419958896352909505 1:0.025641026 2:12.670006 3:0.025641026 4:230.22136 #SRS015040.6207
0.00059270935104009019132181856903685 1:0.012820513 2:1.1185832 3:0.012820513 4:4.2895694 #Q93GW2
-4.8991275116982979653812435572036e-06 1:0.089743592 2:7.1598587 3:0.089743592 4:11.477857 #SRS050029.21480
-0.00059270935104009019132181856903685 1:0.089743592 2:2.105701 3:0.089743592 4:5.191915 #SRS018149.77770
-0.00059270935104009019132181856903685 1:0.012820513 2:5.9339566 3:0.012820513 4:480.86469 #SRS023534.4423
0.00059270935104009019132181856903685 1:0.012820513 2:1.2179308 3:0.012820513 4:4.440567 #A4W1V9
-0.00059270935104009019132181856903685 1:0.12820514 2:10.134396 3:0.12820514 4:17.273779 #SRS013711.46159
0.00059270935104009019132181856903685 1:0.012820513 2:1.2832283 3:0.012820513 4:4.5372219 #Q8DS57
-0.00059270935104009019132181856903685 1:0.15384616 2:13.841438 3:0.15384616 4:31.645803 #SRS015436.56050
0.00059270935104009019132181856903685 1:0.025641026 2:1.3431723 3:0.025641026 4:4.4114795 #Q65TI2
-0.00059270935104009019132181856903685 1:0.11538462 2:9.3248253 3:0.11538462 4:15.423836 #SRS019329.6218
0.00059270935104009019132181856903685 1:0.012820513 2:5.9137697 3:0.012820513 4:219.96794 #P72481
0.00059270935104009019132181856903685 1:0.012820513 2:1.3478329 3:0.012820513 4:4.6363878 #A9M0K2
-4.0451489601543710872277870294056e-08 1:0.11538462 2:14.013583 3:0.11538462 4:34.069256 #SRS024017.19574
0.00059270935104009019132181856903685 1:0.012820513 2:1.3850054 3:0.012820513 4:4.690115 #P57925
-0.00059270935104009019132181856903685 1:0.12820514 2:10.251184 3:0.12820514 4:17.579037 #SRS023987.27758
0.00059270935104009019132181856903685 1:0.025641026 2:1.4426373 3:0.025641026 4:4.5269804 #B8F6L5
-5.6689589074121471412581740878522e-06 1:0.064102568 2:1.9517767 3:0.064102568 4:5.0356078 #SRS019587.33531
0.00059270935104009019132181856903685 1:0.012820513 2:1.7635005 3:0.012820513 4:5.2953777 #A7GT08
-0.00059270935104009019132181856903685 1:0.1025641 2:6.7943783 3:0.1025641 4:10.890861 #SRS045049.49787
0.00059270935104009019132181856903685 1:0.012820513 2:1.8012266 3:0.012820513 4:5.3578744 #Q8REH1
-0.00059270935104009019132181856903685 1:0.089743592 2:2.9158683 3:0.089743592 4:6.0895481 #SRS018149.25952
0.00059270935104009019132181856903685 1:0.012820513 2:1.8682115 3:0.012820513 4:5.4694557 #A8Z6M1
-7.9708654942497320083916179100925e-05 1:0.07692308 2:3.0975697 3:0.07692308 4:6.3009048 #SRS022625.57976
0.00059270935104009019132181856903685 1:0.012820513 2:1.9267583 3:0.012820513 4:5.5709777 #A6LDG8
-0.00059270935104009019132181856903685 1:0.12820514 2:12.113227 3:0.12820514 4:23.338833 #SRS019329.11608
0.00059270935104009019132181856903685 1:0.012820513 2:1.9400253 3:0.012820513 4:5.5932527 #C0QYF1
-0.00059270935104009019132181856903685 1:0.1923077 2:8.5127659 3:0.1923077 4:13.541555 #SRS017810.40885
0.00059270935104009019132181856903685 1:0.012820513 2:2.0775344 3:0.012820513 4:5.8494601 #P0A2V4
-0.00059270935104009019132181856903685 1:0.14102565 2:12.592567 3:0.14102565 4:25.147898 #SRS045049.50871
0.00059270935104009019132181856903685 1:0.012820513 2:2.1818233 3:0.012820513 4:6.0528116 #Q7MVE5
-0.00059270935104009019132181856903685 1:0.07692308 2:2.3653371 3:0.07692308 4:5.4797492 #SRS015745.26390
0.00059270935104009019132181856903685 1:0.012820513 2:2.2244575 3:0.012820513 4:6.136652 #A6VL81
-0.00059270935104009019132181856903685 1:0.12820514 2:5.6239381 3:0.12820514 4:9.2680798 #SRS050628.68449
0.00059270935104009019132181856903685 1:0.025641026 2:2.2751067 3:0.025641026 4:5.5039287 #Q7VLL3
-0.00059270935104009019132181856903685 1:0.064102568 2:1.1544122 3:0.064102568 4:4.1516032 #SRS050628.82686
0.00059270935104009019132181856903685 1:0.012820513 2:2.544312 3:0.012820513 4:6.8259792 #Q487R0
-0.00059270935104009019132181856903685 1:0.12820514 2:10.44908 3:0.12820514 4:18.112217 #SRS023987.35542
0.00059270935104009019132181856903685 1:0.012820513 2:2.5892591 3:0.012820513 4:6.9289269 #Q9JXR2
-0.00059270935104009019132181856903685 1:0.21794872 2:13.943817 3:0.21794872 4:31.431587 #SRS022625.24151
0.00059270935104009019132181856903685 1:0.37179488 2:18.583155 3:0.37179488 4:387.10895 #Q03727
0.00059270935104009019132181856903685 1:0.012820513 2:2.6001031 3:0.012820513 4:6.9544039 #Q7VKR6
-0.00059270935104009019132181856903685 1:0.11538462 2:10.757398 3:0.11538462 4:19.064194 #SRS013506.37446
0.00059270935104009019132181856903685 1:0.051282052 2:2.655308 3:0.051282052 4:5.8203673 #Q8REJ7
0.00059270935104009019132181856903685 1:0.012820513 2:5.8255873 3:0.012820513 4:96.685226 #Q3K1V5
-0.00059270935104009019132181856903685 1:0.21794872 2:14.809685 3:0.21794872 4:38.039677 #SRS015154.5225
0.00059270935104009019132181856903685 1:0.012820513 2:2.6504223 3:0.012820513 4:7.0719786 #Q6NJ38
-0.00059270935104009019132181856903685 1:0.23076923 2:14.155909 3:0.23076923 4:32.715466 #SRS017810.15245
0.00059270935104009019132181856903685 1:0.012820513 2:2.6582122 3:0.012820513 4:7.0896082 #Q02TL3
-0.00015385118835961608674267608876107 1:0.07692308 2:3.5996408 3:0.07692308 4:6.890265 #SRS023987.27491
0.00059270935104009019132181856903685 1:0.012820513 2:2.761951 3:0.012820513 4:7.3333983 #Q8DU24
0.00059270935104009019132181856903685 1:0.012820513 2:5.8188138 3:0.012820513 4:92.928276 #Q8E064
0.00059270935104009019132181856903685 1:0.064102568 2:2.9029119 3:0.064102568 4:6.0909452 #Q8R6C8
-0.00059270935104009019132181856903685 1:0.025641026 2:12.721987 3:0.025641026 4:297.10892 #SRS011090.934
0.00059270935104009019132181856903685 1:0.012820513 2:2.8168988 3:0.012820513 4:7.4733968 #Q9CJU5
-0.00059270935104009019132181856903685 1:0.025641026 2:12.724081 3:0.025641026 4:301.25754 #SRS014126.4164
0.00059270935104009019132181856903685 1:0.012820513 2:2.9315221 3:0.012820513 4:7.7640224 #Q3K368
-0.00059270935104009019132181856903685 1:0.1025641 2:7.8146048 3:0.1025641 4:12.518681 #SRS015436.53553
-0.00059270935104009019132181856903685 1:0.07692308 2:2.2333579 3:0.07692308 4:5.338809 #SRS013239.29646
0.00059270935104009019132181856903685 1:0.012820513 2:2.9630578 3:0.012820513 4:7.8482533 #Q8GJ01
-0.00025457272901859007152580716137891 1:0.07692308 2:3.7690413 3:0.07692308 4:7.0886774 #SRS021473.25938
0.00059270935104009019132181856903685 1:0.012820513 2:2.9766316 3:0.012820513 4:7.8842373 #B8F773
-0.00059270935104009019132181856903685 1:0.11538462 2:2.4039583 3:0.11538462 4:5.5098577 #SRS019587.6061
0.00059270935104009019132181856903685 1:0.012820513 2:3.0195374 3:0.012820513 4:8.0018778 #Q9K118
-0.00059270935104009019132181856903685 1:0.23076923 2:14.513311 3:0.23076923 4:35.333691 #SRS052874.24666
0.00059270935104009019132181856903685 1:0.025641026 2:3.0414181 3:0.025641026 4:6.4789948 #A0LZH8
0.00059270935104009019132181856903685 1:0.012820513 2:3.0323284 3:0.012820513 4:8.0364637 #Q7VNF0
-1.5104955173456113826091495866422e-07 1:0.025641026 2:12.681415 3:0.025641026 4:240.63242 #SRS023837.192
-0.00059270935104009019132181856903685 1:0.14102565 2:14.184628 3:0.14102565 4:34.423943 #SRS063272.13393
0.00059270935104009019132181856903685 1:0.012820513 2:3.0974348 3:0.012820513 4:8.215498 #P57090
-0.00059270935104009019132181856903685 1:0.07692308 2:2.3996925 3:0.07692308 4:5.5162706 #SRS013239.33107
0.00059270935104009019132181856903685 1:0.012820513 2:3.114362 3:0.012820513 4:8.2653666 #B8F5E2
0.00059270935104009019132181856903685 1:0.025641026 2:3.158128 3:0.025641026 4:6.6296687 #P37518
-0.00059270935104009019132181856903685 1:0.1025641 2:7.7795019 3:0.1025641 4:12.459147 #SRS019329.14349
0.00059270935104009019132181856903685 1:0.012820513 2:3.126425 3:0.012820513 4:8.299367 #B0UUA1
-0.00059270935104009019132181856903685 1:0.1025641 2:6.3897028 3:0.1025641 4:10.312833 #SRS013711.13221
0.00059270935104009019132181856903685 1:0.012820513 2:3.171505 3:0.012820513 4:8.4365559 #Q5F7G4
-0.00059270935104009019132181856903685 1:0.12820514 2:10.593426 3:0.12820514 4:18.504446 #SRS015745.32092
-0.00059270935104009019132181856903685 1:0.025641026 2:12.710723 3:0.025641026 4:275.93997 #SRS011090.2655
0.00059270935104009019132181856903685 1:0.012820513 2:3.2445815 3:0.012820513 4:8.6490765 #C4Z3R4
-0.00059270935104009019132181856903685 1:0.07692308 2:2.1071784 3:0.07692308 4:5.1969385 #SRS011310.38248
0.00059270935104009019132181856903685 1:0.03846154 2:3.2585235 3:0.03846154 4:6.5707955 #A3MZ05
0.00059270935104009019132181856903685 1:0.012820513 2:3.2542026 3:0.012820513 4:8.6792288 #P44088
-0.00059270935104009019132181856903685 1:0.025641026 2:12.694539 3:0.025641026 4:253.53616 #SRS024017.9325
-0.00059270935104009019132181856903685 1:0.14102565 2:10.570476 3:0.14102565 4:18.348818 #SRS019587.6640
0.00059270935104009019132181856903685 1:0.012820513 2:3.3173156 3:0.012820513 4:8.8711319 #Q47WQ9
-0.00059270935104009019132181856903685 1:0.064102568 2:1.1302044 3:0.064102568 4:4.1203899 #SRS017127.20575
0.00059270935104009019132181856903685 1:0.025641026 2:3.2957573 3:0.025641026 4:6.8192997 #Q65T71
0.00059270935104009019132181856903685 1:0.012820513 2:3.3772721 3:0.012820513 4:9.0633211 #B7J7X9
-0.00059270935104009019132181856903685 1:0.16666667 2:14.613484 3:0.16666667 4:37.298859 #SRS019329.12830
-0.00059270935104009019132181856903685 1:0.16666667 2:13.058937 3:0.16666667 4:26.942831 #SRS022145.672
0.00059270935104009019132181856903685 1:0.16666667 2:9.335741 3:0.16666667 4:15.246311 #Q9AET6
0.00059270935104009019132181856903685 1:0.025641026 2:3.4448943 3:0.025641026 4:7.0216012 #P57859
-0.00059270935104009019132181856903685 1:0.53846157 2:15.560288 3:0.53846157 4:43.760494 #SRS024377.4648
-0.00059270935104009019132181856903685 1:0.58974361 2:16.076981 3:0.58974361 4:50.388985 #SRS019329.32726
-0.00059270935104009019132181856903685 1:0.57692307 2:15.382077 3:0.57692307 4:41.692638 #SRS023987.4839
0.00059270935104009019132181856903685 1:0.03846154 2:8.1021347 3:0.03846154 4:14.056361 #P57923
0.00059270935104009019132181856903685 1:0.025641026 2:3.5110087 3:0.025641026 4:7.1094971 #A3MYN0
-0.00059270935104009019132181856903685 1:0.58974361 2:17.544352 3:0.58974361 4:90.206551 #SRS015374.435
0.00059270935104009019132181856903685 1:0.012820513 2:5.9062219 3:0.012820513 4:196.83769 #P0AES7
-0.00059270935104009019132181856903685 1:0.44871795 2:14.312201 3:0.44871795 4:32.891567 #SRS019221.10972
0.00059270935104009019132181856903685 1:0.012820513 2:5.8629818 3:0.012820513 4:125.13868 #Q3K326
0.00059270935104009019132181856903685 1:0.025641026 2:7.7643294 3:0.025641026 4:15.604343 #A7ZDK1
-0.00059270935104009019132181856903685 1:0.16666667 2:18.136564 3:0.16666667 4:281.73074 #SRS016503.2621
0.00059270935104009019132181856903685 1:0.012820513 2:3.4930961 3:0.012820513 4:9.4411469 #Q8Y4F6
-0.00059270935104009019132181856903685 1:0.62820512 2:16.712517 3:0.62820512 4:62.09285 #SRS022532.20092
-0.00059270935104009019132181856903685 1:0.46153846 2:13.711802 3:0.46153846 4:29.178774 #SRS015154.5173
0.00059270935104009019132181856903685 1:0.012820513 2:5.8428068 3:0.012820513 4:107.54375 #Q5M011
-0.00059270935104009019132181856903685 1:0.5 2:15.279094 3:0.5 4:40.810978 #SRS019329.35699
-0.00059270935104009019132181856903685 1:0.14102565 2:11.876556 3:0.14102565 4:22.336857 #SRS052874.14056
0.00059270935104009019132181856903685 1:0.03846154 2:10.028339 3:0.03846154 4:19.562948 #A8Z6G1
0.00059270935104009019132181856903685 1:0.025641026 2:3.5509381 3:0.025641026 4:7.1593881 #B8F8G9
-0.00059270935104009019132181856903685 1:0.52564102 2:15.350088 3:0.52564102 4:41.48328 #SRS023987.34200
0.00059270935104009019132181856903685 1:0.012820513 2:5.8399091 3:0.012820513 4:105.5299 #A0KQX8
0.00059270935104009019132181856903685 1:0.012820513 2:5.8385439 3:0.012820513 4:104.72596 #Q65TH4
-0.00059270935104009019132181856903685 1:0.46153846 2:14.480192 3:0.46153846 4:34.035686 #SRS019976.15757
0.00059270935104009019132181856903685 1:0.012820513 2:5.833797 3:0.012820513 4:101.75332 #Q8A8R5
0.00059270935104009019132181856903685 1:0.012820513 2:5.8187551 3:0.012820513 4:92.899063 #Q831U2
-0.00059270935104009019132181856903685 1:0.37179488 2:14.207031 3:0.37179488 4:32.350571 #SRS017810.17049
0.00059270935104009019132181856903685 1:0.012820513 2:5.8172531 3:0.012820513 4:92.126205 #Q834E2
-0.00059270935104009019132181856903685 1:0.32051283 2:13.122197 3:0.32051283 4:26.439453 #SRS011247.10161
0.00059270935104009019132181856903685 1:0.012820513 2:5.8151226 3:0.012820513 4:91.024376 #P0A3J0
-0.00059270935104009019132181856903685 1:0.33333334 2:12.489318 3:0.33333334 4:23.766615 #SRS015154.10265
0.00059270935104009019132181856903685 1:0.012820513 2:5.8130126 3:0.012820513 4:90.016205 #A4W351
-0.00059270935104009019132181856903685 1:0.35897437 2:12.31214 3:0.35897437 4:23.085093 #SRS022532.7667
0.00059270935104009019132181856903685 1:0.051282052 2:3.729893 3:0.051282052 4:7.0892801 #Q8RGE1
-0.00059270935104009019132181856903685 1:0.2820513 2:11.370198 3:0.2820513 4:20.173542 #SRS019976.15595
0.00059270935104009019132181856903685 1:0.012820513 2:5.8127346 3:0.012820513 4:89.895027 #Q9CME6
-0.00059270935104009019132181856903685 1:0.24358974 2:10.992033 3:0.24358974 4:19.143423 #SRS052874.11342
-0.00059270935104009019132181856903685 1:0.025641026 2:12.749988 3:0.025641026 4:453.58728 #SRS018661.3040
0.00059270935104009019132181856903685 1:0.012820513 2:5.7956157 3:0.012820513 4:82.521194 #Q3K051
-0.00059270935104009019132181856903685 1:0.24358974 2:11.161401 3:0.24358974 4:19.622307 #SRS045049.53066
0.00059270935104009019132181856903685 1:0.012820513 2:5.7884617 3:0.012820513 4:79.974312 #A3N2Q0
-0.00059270935104009019132181856903685 1:0.15384616 2:10.842545 3:0.15384616 4:19.017347 #SRS017215.44717
0.00059270935104009019132181856903685 1:0.012820513 2:5.7766542 3:0.012820513 4:76.132164 #Q1QZX3
0.00059270935104009019132181856903685 1:0.012820513 2:5.7745891 3:0.012820513 4:75.498955 #A6KZM1
-0.00059270935104009019132181856903685 1:0.25641027 2:13.064275 3:0.25641027 4:26.375011 #SRS063287.18715
-0.00059270935104009019132181856903685 1:0.14102565 2:11.817407 3:0.14102565 4:22.138308 #SRS063272.9823
0.00059270935104009019132181856903685 1:0.012820513 2:5.7041178 3:0.012820513 4:59.451786 #Q8RET9
-1.6172466948960462218565226066858e-08 1:0.064102568 2:2.1905355 3:0.064102568 4:5.2993307 #SRS018149.35575
0.00059270935104009019132181856903685 1:0.012820513 2:5.700459 3:0.012820513 4:58.77549 #Q8DT23
0.00059270935104009019132181856903685 1:0.03846154 2:4.2181301 3:0.03846154 4:7.7567458 #P57031
-0.00059270935104009019132181856903685 1:0.25641027 2:14.36918 3:0.25641027 4:33.983463 #SRS017810.17048
0.00059270935104009019132181856903685 1:0.012820513 2:5.6949358 3:0.012820513 4:57.840969 #Q89ZJ0
-0.00059270935104009019132181856903685 1:0.025641026 2:12.749234 3:0.025641026 4:439.95834 #SRS050007.1728
-0.00059270935104009019132181856903685 1:0.20512821 2:11.078522 3:0.20512821 4:19.488621 #SRS063287.38452
0.00059270935104009019132181856903685 1:0.012820513 2:5.693964 3:0.012820513 4:57.671967 #P43847
-0.00059270935104009019132181856903685 1:0.089743592 2:5.2960801 3:0.089743592 4:8.9058094 #SRS017810.18052
0.00059270935104009019132181856903685 1:0.012820513 2:5.6608152 3:0.012820513 4:52.822334 #Q8A753
0.00059270935104009019132181856903685 1:0.012820513 2:5.6579008 3:0.012820513 4:52.412514 #P44541
-0.00059270935104009019132181856903685 1:0.14102565 2:10.898659 3:0.14102565 4:19.265713 #SRS019329.39167
-0.00059270935104009019132181856903685 1:0.46153846 2:17.1661 3:0.46153846 4:75.893089 #SRS017080.37010
0.00059270935104009019132181856903685 1:0.012820513 2:3.4989483 3:0.012820513 4:9.4598026 #P46399
0.00059270935104009019132181856903685 1:0.83333331 2:18.247139 3:0.83333331 4:150.66589 #P45127
-0.00059270935104009019132181856903685 1:0.30769232 2:17.086586 3:0.30769232 4:76.101715 #SRS024017.7021
-0.00059270935104009019132181856903685 1:0.1923077 2:16.892248 3:0.1923077 4:76.224609 #SRS021473.7314
0.00059270935104009019132181856903685 1:0.012820513 2:3.5017226 3:0.012820513 4:9.4701862 #C1D5G2
-0.00059270935104009019132181856903685 1:0.14102565 2:10.480536 3:0.14102565 4:18.110592 #SRS018149.21026
0.00059270935104009019132181856903685 1:0.25641027 2:10.823874 3:0.25641027 4:18.671043 #Q8RDZ8
0.00059270935104009019132181856903685 1:0.012820513 2:5.6392956 3:0.012820513 4:50.00095 #Q6CYJ3
0.00059270935104009019132181856903685 1:0.012820513 2:5.6370625 3:0.012820513 4:49.747707 #A3N121
-0.00059270935104009019132181856903685 1:0.12820514 2:10.827554 3:0.12820514 4:19.153431 #SRS017127.16501
-0.00059270935104009019132181856903685 1:0.32051283 2:16.460913 3:0.32051283 4:59.049137 #SRS015154.30194
0.00059270935104009019132181856903685 1:0.88461536 2:18.256704 3:0.88461536 4:151.99631 #P44505
0.00059270935104009019132181856903685 1:0.012820513 2:3.5717356 3:0.012820513 4:9.7204647 #Q332W9
0.00059270935104009019132181856903685 1:0.32051283 2:8.9340525 3:0.32051283 4:14.24157 #Q8RH57
0.00059270935104009019132181856903685 1:0.82051283 2:18.210356 3:0.82051283 4:145.19716 #Q4QM77
0.00059270935104009019132181856903685 1:0.012820513 2:5.5824823 3:0.012820513 4:44.03363 #P95787
0.00059270935104009019132181856903685 1:0.012820513 2:5.5518417 3:0.012820513 4:41.404789 #Q332R7
-0.00059270935104009019132181856903685 1:0.15384616 2:12.295715 3:0.15384616 4:23.751135 #SRS011310.24001
-0.00059270935104009019132181856903685 1:0.29487181 2:14.63998 3:0.29487181 4:35.796658 #SRS045262.3740
0.00059270935104009019132181856903685 1:0.012820513 2:5.5269332 3:0.012820513 4:39.550648 #A6KXF7
-0.00058419652865482341042024927446619 1:0.051282052 2:0.19522576 3:0.051282052 4:2.5470235 #SRS017215.30351
0.00059270935104009019132181856903685 1:0.012820513 2:5.5200748 3:0.012820513 4:39.047394 #P08973
0.00059270935104009019132181856903685 1:0.07692308 2:4.49718 3:0.07692308 4:7.9509168 #Q8RGE5
0.00059270935104009019132181856903685 1:0.012820513 2:5.5188842 3:0.012820513 4:38.971695 #Q99YI7
-0.00059270935104009019132181856903685 1:0.12820514 2:10.834414 3:0.12820514 4:19.174648 #SRS018149.24513
0.00059270935104009019132181856903685 1:0.012820513 2:5.5125675 3:0.012820513 4:38.514442 #A8Z6P5
-0.00059270935104009019132181856903685 1:0.12820514 2:10.856916 3:0.12820514 4:19.240574 #SRS011247.53111
-0.00059270935104009019132181856903685 1:0.11538462 2:10.83066 3:0.11538462 4:19.285162 #SRS015646.14087
0.00059270935104009019132181856903685 1:0.025641026 2:10.661281 3:0.025641026 4:34.105412 #A8Z6L3
0.00059270935104009019132181856903685 1:0.012820513 2:5.4834113 3:0.012820513 4:36.668411 #A6L686
0.00059270935104009019132181856903685 1:0.15384616 2:6.5281324 3:0.15384616 4:10.430635 #Q8RFV0
-0.00059270935104009019132181856903685 1:0.12820514 2:10.858847 3:0.12820514 4:19.2488 #SRS019329.39174
0.00059270935104009019132181856903685 1:0.025641026 2:10.57085 3:0.025641026 4:32.948109 #P57906
-0.00059270935104009019132181856903685 1:0.11538462 2:9.7188034 3:0.11538462 4:16.328611 #SRS017127.14097
0.00059270935104009019132181856903685 1:0.025641026 2:10.251151 3:0.025641026 4:29.352482 #A7ZD35
-0.00059270935104009019132181856903685 1:0.12820514 2:7.0282745 3:0.12820514 4:11.183095 #SRS019587.38227
0.00059270935104009019132181856903685 1:0.24358974 2:10.780342 3:0.24358974 4:18.574718 #A3CNU0
-0.00059270935104009019132181856903685 1:0.15384616 2:12.02552 3:0.15384616 4:22.741291 #SRS023987.35507
0.00059270935104009019132181856903685 1:0.12820514 2:10.839808 3:0.12820514 4:19.189739 #A3CP33
-0.00059270935104009019132181856903685 1:0.14102565 2:13.083003 3:0.14102565 4:27.421465 #SRS019587.12168
0.00059270935104009019132181856903685 1:0.1025641 2:10.841645 3:0.1025641 4:19.453768 #P48374
-0.00059270935104009019132181856903685 1:0.14102565 2:9.2707157 3:0.14102565 4:15.18697 #SRS017013.1641
0.00059270935104009019132181856903685 1:0.1923077 2:10.719301 3:0.1923077 4:18.538633 #A8AU71
-0.00059270935104009019132181856903685 1:0.03846154 2:15.55795 3:0.03846154 4:337.74292 #SRS011144.7153
0.00059270935104009019132181856903685 1:0.051282052 2:10.721165 3:0.051282052 4:20.603151 #P77866
-0.00059270935104009019132181856903685 1:0.15384616 2:11.886125 3:0.15384616 4:22.254696 #SRS022625.59848
0.00059270935104009019132181856903685 1:0.17948718 2:10.585576 3:0.17948718 4:18.21908 #A3CLS3
-0.00059270935104009019132181856903685 1:0.14102565 2:9.022891 3:0.14102565 4:14.665827 #SRS063272.38234
0.00059270935104009019132181856903685 1:0.07692308 2:10.620187 3:0.07692308 4:19.218096 #Q8RGH4
-0.00059270935104009019132181856903685 1:0.14102565 2:10.934525 3:0.14102565 4:19.365559 #SRS023987.35517
-0.00059270935104009019132181856903685 1:0.16666667 2:14.910294 3:0.16666667 4:40.095383 #SRS063287.17662
0.00059270935104009019132181856903685 1:0.07692308 2:10.587631 3:0.07692308 4:19.115505 #A3N1A1
-0.00059270935104009019132181856903685 1:0.1025641 2:3.0074916 3:0.1025641 4:6.1845665 #SRS050628.80813
0.00059270935104009019132181856903685 1:0.03846154 2:10.624225 3:0.03846154 4:21.836248 #Q5MK06
-0.00059270935104009019132181856903685 1:0.16666667 2:14.875584 3:0.16666667 4:39.739361 #SRS015040.18231
0.00059270935104009019132181856903685 1:0.16666667 2:10.468718 3:0.16666667 4:17.951056 #Q8RE31
-0.00059270935104009019132181856903685 1:0.14102565 2:12.829963 3:0.14102565 4:26.213573 #SRS045049.49296
0.00059270935104009019132181856903685 1:0.1923077 2:10.401911 3:0.1923077 4:17.689314 #Q8RG87
-0.00059270935104009019132181856903685 1:0.16666667 2:14.824486 3:0.16666667 4:39.241825 #SRS016503.7692
0.00059270935104009019132181856903685 1:0.25641027 2:10.339917 3:0.25641027 4:17.399952 #Q8RHJ9
-0.00059270935104009019132181856903685 1:0.15384616 2:12.417668 3:0.15384616 4:24.245226 #SRS045254.19059
0.00059270935104009019132181856903685 1:0.1025641 2:10.427217 3:0.1025641 4:18.270407 #B8F3B8
-0.00059270935104009019132181856903685 1:0.16666667 2:14.810363 3:0.16666667 4:39.101665 #SRS015745.48978
0.00059270935104009019132181856903685 1:0.21794872 2:10.300585 3:0.21794872 4:17.369844 #P32016
-0.00059270935104009019132181856903685 1:0.1923077 2:13.960264 3:0.1923077 4:31.828712 #SRS019329.12575
0.00059270935104009019132181856903685 1:0.14102565 2:10.343467 3:0.14102565 4:17.736506 #P42360
-0.00059270935104009019132181856903685 1:0.14102565 2:8.4202166 3:0.14102565 4:13.462746 #SRS015646.12986
0.00059270935104009019132181856903685 1:0.11538462 2:10.318898 3:0.11538462 4:17.856045 #Q8RDQ4
-0.00059270935104009019132181856903685 1:0.16666667 2:14.428684 3:0.16666667 4:35.670048 #SRS018329.7511
0.00059270935104009019132181856903685 1:0.1025641 2:10.241548 3:0.1025641 4:17.75843 #A3CM36
-0.00059270935104009019132181856903685 1:0.089743592 2:1.7407976 3:0.089743592 4:4.7968502 #SRS017127.34453
0.00059270935104009019132181856903685 1:0.20512821 2:10.184554 3:0.20512821 4:17.106483 #A8AWX1
-0.00059270935104009019132181856903685 1:0.089743592 2:2.6445024 3:0.089743592 4:5.7795868 #SRS011310.26101
0.00059270935104009019132181856903685 1:0.089743592 2:10.200264 3:0.089743592 4:17.797504 #Q8RHD0
-0.00059270935104009019132181856903685 1:0.14102565 2:7.7158904 3:0.14102565 4:12.237864 #SRS018149.13629
0.00059270935104009019132181856903685 1:0.21794872 2:10.140023 3:0.21794872 4:16.974405 #Q8RH47
-0.00059270935104009019132181856903685 1:0.16666667 2:13.659413 3:0.16666667 4:30.248909 #SRS017810.45332
0.00059270935104009019132181856903685 1:0.07692308 2:10.166838 3:0.07692308 4:17.915203 #Q8RH44
-0.00059270935104009019132181856903685 1:0.12820514 2:10.110594 3:0.12820514 4:17.215492 #SRS017127.2095
0.00059270935104009019132181856903685 1:0.03846154 2:10.176583 3:0.03846154 4:20.113468 #A7ZD16
-0.00059270935104009019132181856903685 1:0.16666667 2:13.586641 3:0.16666667 4:29.811672 #SRS017013.111
0.00059270935104009019132181856903685 1:0.07692308 2:10.101767 3:0.07692308 4:17.726717 #Q8R5N8
-0.00059270935104009019132181856903685 1:0.15384616 2:9.8980722 3:0.15384616 4:16.56134 #SRS018329.6327
0.00059270935104009019132181856903685 1:0.1923077 2:10.0542 3:0.1923077 4:16.824347 #Q8RG99
-0.00059270935104009019132181856903685 1:0.12820514 2:8.4100084 3:0.12820514 4:13.485219 #SRS015895.24721
0.00059270935104009019132181856903685 1:0.11538462 2:10.076108 3:0.11538462 4:17.215439 #Q8R680
-0.00059270935104009019132181856903685 1:0.12820514 2:8.0204153 3:0.12820514 4:12.786685 #SRS018359.8792
-0.00059270935104009019132181856903685 1:0.15384616 2:9.7520266 3:0.15384616 4:16.214605 #SRS015745.1774
0.00059270935104009019132181856903685 1:0.20512821 2:9.958559 3:0.20512821 4:16.566334 #A3CPL6
-0.00059270935104009019132181856903685 1:0.11538462 2:4.6625628 3:0.11538462 4:8.1046743 #SRS017013.27315
0.00059270935104009019132181856903685 1:0.051282052 2:9.9992056 3:0.051282052 4:18.249332 #Q8RHK9
-0.00059270935104009019132181856903685 1:0.17948718 2:14.50268 3:0.17948718 4:36.017529 #SRS019221.2771
0.00059270935104009019132181856903685 1:0.17948718 2:9.9563427 3:0.17948718 4:16.617998 #A8AY29
-0.00059270935104009019132181856903685 1:0.15384616 2:13.985263 3:0.15384616 4:32.614342 #SRS045049.55203
0.00059270935104009019132181856903685 1:0.03846154 2:9.9894056 3:0.03846154 4:19.429224 #A7ZC36
-0.00059270935104009019132181856903685 1:0.14102565 2:8.7871027 3:0.14102565 4:14.176617 #SRS014126.9994
0.00059270935104009019132181856903685 1:0.03846154 2:9.8932695 3:0.03846154 4:19.093636 #Q7VMA0
-0.00059270935104009019132181856903685 1:0.17948718 2:14.337252 3:0.17948718 4:34.694885 #SRS017810.16960
0.00059270935104009019132181856903685 1:0.1923077 2:9.8366089 3:0.1923077 4:16.303282 #A8AYI5
-0.00059270935104009019132181856903685 1:0.12820514 2:10.932871 3:0.12820514 4:19.459761 #SRS056892.20498
-0.00059270935104009019132181856903685 1:0.15384616 2:9.4675837 3:0.15384616 4:15.567307 #SRS011310.16741
0.00059270935104009019132181856903685 1:0.03846154 2:9.8220997 3:0.03846154 4:18.866467 #A7ZEY4
-0.00059270935104009019132181856903685 1:0.17948718 2:14.23955 3:0.17948718 4:33.942043 #SRS045254.19897
0.00059270935104009019132181856903685 1:0.20512821 2:9.7661152 3:0.20512821 4:16.112009 #Q8RFS6
-0.00059270935104009019132181856903685 1:0.089743592 2:1.5826933 3:0.089743592 4:4.6331615 #SRS013945.28373
0.00059270935104009019132181856903685 1:0.051282052 2:9.695734 3:0.051282052 4:17.35709 #Q9K089
-0.00059270935104009019132181856903685 1:0.16666667 2:9.4969854 3:0.16666667 4:15.600963 #SRS015745.21569
0.00059270935104009019132181856903685 1:0.11538462 2:9.6469259 3:0.11538462 4:16.16124 #Q8RGX1
-0.00059270935104009019132181856903685 1:0.1923077 2:14.908433 3:0.1923077 4:39.456009 #SRS018149.12080
0.00059270935104009019132181856903685 1:0.20512821 2:9.6293354 3:0.20512821 4:15.805769 #Q8RFN2
-0.00059270935104009019132181856903685 1:0.14102565 2:10.343535 3:0.14102565 4:17.736616 #SRS023987.35272
0.00059270935104009019132181856903685 1:0.16666667 2:8.4836445 3:0.16666667 4:13.526176 #Q8RED7
0.00059270935104009019132181856903685 1:0.07692308 2:9.5974588 3:0.07692308 4:16.407713 #Q70WY6
-0.00059270935104009019132181856903685 1:0.12820514 2:13.938107 3:0.12820514 4:33.023518 #SRS045254.6671
0.00059270935104009019132181856903685 1:0.025641026 2:9.5657721 3:0.025641026 4:23.824903 #P57860
-0.00041054563237703789457810898966272 1:0.025641026 2:12.688468 3:0.025641026 4:247.70741 #SRS016600.3402
0.00059270935104009019132181856903685 1:0.025641026 2:9.5000677 3:0.025641026 4:23.395498 #Q65VV2
0.00059270935104009019132181856903685 1:0.025641026 2:9.283411 3:0.025641026 4:22.134418 #Q48VJ7
-0.00059270935104009019132181856903685 1:0.12820514 2:14.653322 3:0.12820514 4:39.092518 #SRS022625.623
0.00059270935104009019132181856903685 1:0.03846154 2:9.5508528 3:0.03846154 4:17.979713 #A3MYR6
-0.00059270935104009019132181856903685 1:0.12820514 2:13.696313 3:0.12820514 4:31.351393 #SRS050029.15574
0.00059270935104009019132181856903685 1:0.025641026 2:9.0739117 3:0.025641026 4:21.043573 #A7ZE62
-0.00059270935104009019132181856903685 1:0.1923077 2:14.791681 3:0.1923077 4:38.312389 #SRS017013.25719
-0.00059270935104009019132181856903685 1:0.1025641 2:10.920465 3:0.1025641 4:19.693083 #SRS050628.36570
0.00059270935104009019132181856903685 1:0.089743592 2:9.5280371 3:0.089743592 4:16.076275 #Q8RHL0
-0.00059270935104009019132181856903685 1:0.11538462 2:10.951605 3:0.11538462 4:19.636351 #SRS017127.36276
-0.00059270935104009019132181856903685 1:0.14102565 2:12.243887 3:0.14102565 4:23.689819 #SRS011310.17748
0.00059270935104009019132181856903685 1:0.14102565 2:9.4913645 3:0.14102565 4:15.674627 #A8AW75
-0.00059270935104009019132181856903685 1:0.16666667 2:9.3634758 3:0.16666667 4:15.30469 #SRS045049.49613
0.00059270935104009019132181856903685 1:0.14102565 2:9.4717684 3:0.14102565 4:15.629246 #P29842
-0.00059270935104009019132181856903685 1:0.07692308 2:2.1669497 3:0.07692308 4:5.2688899 #SRS050628.74423
0.00059270935104009019132181856903685 1:0.1025641 2:9.4705477 3:0.1025641 4:15.830184 #A8AWT5
-0.00059270935104009019132181856903685 1:0.20512821 2:14.804708 3:0.20512821 4:38.197834 #SRS017687.22400
0.00059270935104009019132181856903685 1:0.15384616 2:9.3792458 3:0.15384616 4:15.378124 #Q8R605
-0.00059270935104009019132181856903685 1:0.1025641 2:4.4057808 3:0.1025641 4:7.8119454 #SRS050029.41098
0.00059270935104009019132181856903685 1:0.25641027 2:9.368247 3:0.25641027 4:15.175466 #Q8R6G5
-0.00059270935104009019132181856903685 1:0.17948718 2:15.010098 3:0.17948718 4:40.770237 #SRS024377.7781
0.00059270935104009019132181856903685 1:0.03846154 2:9.2254591 3:0.03846154 4:16.975222 #Q5F5M1
-0.00059270935104009019132181856903685 1:0.11538462 2:9.0223475 3:0.11538462 4:14.77031 #SRS015745.42668
-0.00059270935104009019132181856903685 1:0.1025641 2:6.2336888 3:0.1025641 4:10.090142 #SRS063272.28820
0.00059270935104009019132181856903685 1:0.12820514 2:9.2566175 3:0.12820514 4:15.209565 #A3CKI0
-0.00059270935104009019132181856903685 1:0.12820514 2:11.025146 3:0.12820514 4:19.736055 #SRS021473.3665
-0.00059270935104009019132181856903685 1:0.15384616 2:14.629737 3:0.15384616 4:37.771603 #SRS013825.16040
0.00059270935104009019132181856903685 1:0.11538462 2:9.2351837 3:0.11538462 4:15.225314 #Q8REA7
-0.00059270935104009019132181856903685 1:0.14102565 2:12.224009 3:0.14102565 4:23.613344 #SRS011310.24137
-0.00059270935104009019132181856903685 1:0.20512821 2:14.747368 3:0.20512821 4:37.68206 #SRS015646.944
0.00059270935104009019132181856903685 1:0.16666667 2:9.2081642 3:0.16666667 4:14.976607 #A3CL56
-0.00059270935104009019132181856903685 1:0.11538462 2:4.6172333 3:0.11538462 4:8.05299 #SRS050628.72230
0.00059270935104009019132181856903685 1:0.051282052 2:9.175909 3:0.051282052 4:15.964378 #Q8RGM4
-0.00059270935104009019132181856903685 1:0.14102565 2:7.0314946 3:0.14102565 4:11.165642 #SRS015646.15494
0.00059270935104009019132181856903685 1:0.03846154 2:9.1620026 3:0.03846154 4:16.793484 #Q9JYZ9
-0.00059270935104009019132181856903685 1:0.20512821 2:14.732744 3:0.20512821 4:37.555019 #SRS019221.10787
0.00059270935104009019132181856903685 1:0.15384616 2:9.1494551 3:0.15384616 4:14.88595 #A8AVL4
-0.00059270935104009019132181856903685 1:0.21794872 2:14.487307 3:0.21794872 4:35.291721 #SRS015040.9474
0.00059270935104009019132181856903685 1:0.12820514 2:9.1280222 3:0.12820514 4:14.932976 #Q8REV1
-0.00059270935104009019132181856903685 1:0.11538462 2:4.4700041 3:0.11538462 4:7.8766031 #SRS015436.52259
0.00059270935104009019132181856903685 1:0.20512821 2:9.0631838 3:0.20512821 4:14.604688 #A3CRB9
-0.00059270935104009019132181856903685 1:0.1025641 2:3.9026387 3:0.1025641 4:7.2204604 #SRS017810.21140
0.00059270935104009019132181856903685 1:0.24358974 2:9.0501661 3:0.24358974 4:14.528329 #Q8RHM2
-0.00059270935104009019132181856903685 1:0.14102565 2:12.6008 3:0.14102565 4:25.178917 #SRS017127.2888
0.00059270935104009019132181856903685 1:0.064102568 2:9.0237188 3:0.064102568 4:15.25427 #A7ZC35
-0.00059270935104009019132181856903685 1:0.14102565 2:7.6186538 3:0.14102565 4:12.076243 #SRS063272.3595
0.00059270935104009019132181856903685 1:0.03846154 2:9.0244284 3:0.03846154 4:16.395967 #Q9F1T6
-0.00059270935104009019132181856903685 1:0.12820514 2:7.9518938 3:0.12820514 4:12.672905 #SRS017127.16925
0.00059270935104009019132181856903685 1:0.26923078 2:9.0089741 3:0.26923078 4:14.426574 #Q8RHI9
-0.00059270935104009019132181856903685 1:0.07692308 2:2.1453435 3:0.07692308 4:5.2421708 #SRS045262.26469
0.00059270935104009019132181856903685 1:0.17948718 2:8.9927874 3:0.17948718 4:14.501464 #Q9JZ80
0.00059270935104009019132181856903685 1:0.03846154 2:8.8899584 3:0.03846154 4:16.015909 #A8Z6J5
-0.00059270935104009019132181856903685 1:0.12820514 2:8.1065874 3:0.12820514 4:12.936354 #SRS017810.42202
-0.00059270935104009019132181856903685 1:0.1025641 2:4.3277588 3:0.1025641 4:7.7149148 #SRS017215.23344
0.00059270935104009019132181856903685 1:0.11538462 2:8.8279037 3:0.11538462 4:14.364756 #A8AXJ8
0.00059270935104009019132181856903685 1:0.025641026 2:8.5163794 3:0.025641026 4:18.43214 #Q9K085
-0.00059270935104009019132181856903685 1:0.14102565 2:12.181527 3:0.14102565 4:23.441545 #SRS045049.54291
0.00059270935104009019132181856903685 1:0.20512821 2:8.7828808 3:0.20512821 4:14.039737 #Q8RFY0
0.00059270935104009019132181856903685 1:0.16666667 2:8.7773056 3:0.16666667 4:14.092451 #Q8RE97
-0.00059270935104009019132181856903685 1:0.11538462 2:5.0721793 3:0.11538462 4:8.6000042 #SRS045262.37040
-0.00059270935104009019132181856903685 1:0.15384616 2:14.794399 3:0.15384616 4:39.350391 #SRS017127.27837
0.00059270935104009019132181856903685 1:0.17948718 2:8.7712708 3:0.17948718 4:14.05585 #A8AYF8
-0.00059270935104009019132181856903685 1:0.15384616 2:13.946056 3:0.15384616 4:32.3531 #SRS017537.4888
0.00059270935104009019132181856903685 1:0.03846154 2:8.6563644 3:0.03846154 4:15.412105 #Q9JXS7
-0.00059270935104009019132181856903685 1:0.14102565 2:9.9040346 3:0.14102565 4:16.626835 #SRS015154.29052
0.00059270935104009019132181856903685 1:0.20512821 2:8.639308 3:0.20512821 4:13.758655 #Q8RGC8
-0.00059270935104009019132181856903685 1:0.025641026 2:12.740809 3:0.025641026 4:364.27301 #SRS015646.4962
0.00059270935104009019132181856903685 1:0.03846154 2:8.640729 3:0.03846154 4:15.371818 #Q9K0I1
-0.00059270935104009019132181856903685 1:0.15384616 2:13.055397 3:0.15384616 4:27.074265 #SRS017215.46719
0.00059270935104009019132181856903685 1:0.11538462 2:8.63097 3:0.11538462 4:13.951865 #A8AY22
-0.00059270935104009019132181856903685 1:0.15384616 2:13.052907 3:0.15384616 4:27.058125 #SRS045049.53196
0.00059270935104009019132181856903685 1:0.03846154 2:8.5668755 3:0.03846154 4:15.182897 #A8Z6P6
-0.00059270935104009019132181856903685 1:0.14102565 2:9.8352861 3:0.14102565 4:16.466192 #SRS019329.8422
0.00059270935104009019132181856903685 1:0.03846154 2:8.5092573 3:0.03846154 4:15.039793 #B0UU42
-0.00059270935104009019132181856903685 1:0.15384616 2:12.966681 3:0.15384616 4:26.656822 #SRS017537.9596
0.00059270935104009019132181856903685 1:0.025641026 2:8.5154619 3:0.025641026 4:18.428423 #P57462
0.00059270935104009019132181856903685 1:0.025641026 2:8.508337 3:0.025641026 4:18.395868 #P44578
-0.00059270935104009019132181856903685 1:0.14102565 2:12.132071 3:0.14102565 4:23.25099 #SRS018149.74117
0.00059270935104009019132181856903685 1:0.025641026 2:8.355154 3:0.025641026 4:17.761162 #Q5M575
-0.00059270935104009019132181856903685 1:0.14102565 2:14.256825 3:0.14102565 4:34.995808 #SRS022145.17289
-0.00059270935104009019132181856903685 1:0.15384616 2:12.831325 3:0.15384616 4:26.050783 #SRS019329.12849
0.00059270935104009019132181856903685 1:0.12820514 2:8.4960032 3:0.12820514 4:13.644656 #P47848
-0.00059270935104009019132181856903685 1:0.12820514 2:7.2785826 3:0.12820514 4:11.561926 #SRS018359.25074
-0.00059270935104009019132181856903685 1:0.15384616 2:14.96959 3:0.15384616 4:41.142963 #SRS024377.5207
-0.00059270935104009019132181856903685 1:0.15384616 2:12.556135 3:0.15384616 4:24.826416 #SRS045049.54518
0.00059270935104009019132181856903685 1:0.07692308 2:8.4686623 3:0.07692308 4:13.865474 #Q9JZ88
0.00059270935104009019132181856903685 1:0.03846154 2:8.4298553 3:0.03846154 4:14.840088 #P0DH59
-0.00059270935104009019132181856903685 1:0.12820514 2:8.066741 3:0.12820514 4:12.870091 #SRS045262.35942
0.00059270935104009019132181856903685 1:0.025641026 2:8.2286539 3:0.025641026 4:17.256407 #A7ZDQ1
-0.00059270935104009019132181856903685 1:0.15384616 2:12.195583 3:0.15384616 4:23.350012 #SRS020858.4802
0.00059270935104009019132181856903685 1:0.1025641 2:8.2119541 3:0.1025641 4:13.210888 #A9M198
-0.00059270935104009019132181856903685 1:0.15384616 2:12.391714 3:0.15384616 4:24.139069 #SRS045049.53174
0.00059270935104009019132181856903685 1:0.025641026 2:8.2038879 3:0.025641026 4:17.165712 #Q48QS8
-0.00059270935104009019132181856903685 1:0.14102565 2:11.300693 3:0.14102565 4:20.482618 #SRS018149.12797
-0.00059270935104009019132181856903685 1:0.12820514 2:14.725075 3:0.12820514 4:39.816216 #SRS063287.39635
0.00059270935104009019132181856903685 1:0.025641026 2:8.1285353 3:0.025641026 4:16.88307 #Q9JWE5
0.00059270935104009019132181856903685 1:0.025641026 2:7.5511441 3:0.025641026 4:14.918915 #Q8DT12
-0.00059270935104009019132181856903685 1:0.14102565 2:12.047064 3:0.14102565 4:22.9585 #SRS013881.24393
0.00059270935104009019132181856903685 1:0.20512821 2:7.9949751 3:0.20512821 4:12.625854 #Q8GJ00
-0.00059270935104009019132181856903685 1:0.15384616 2:14.604987 3:0.15384616 4:37.5508 #SRS013239.433
-0.00059270935104009019132181856903685 1:0.11538462 2:11.032578 3:0.11538462 4:19.882263 #SRS015646.18683
-0.00059270935104009019132181856903685 1:0.15384616 2:12.372695 3:0.15384616 4:24.060911 #SRS023987.6109
0.00059270935104009019132181856903685 1:0.14102565 2:7.9412594 3:0.14102565 4:12.62483 #A3CMQ4
0.00059270935104009019132181856903685 1:0.21794872 2:7.9402862 3:0.21794872 4:12.523615 #Q8R679
0.00059270935104009019132181856903685 1:0.064102568 2:7.9375844 3:0.064102568 4:12.983347 #Q8DSG6
-0.00059270935104009019132181856903685 1:0.15384616 2:13.089047 3:0.15384616 4:27.250839 #SRS017127.7567
0.00059270935104009019132181856903685 1:0.14102565 2:7.9055839 3:0.14102565 4:12.56489 #A3CMP3
0.00059270935104009019132181856903685 1:0.11538462 2:7.9024229 3:0.11538462 4:12.625799 #Q9JRV8
0.00059270935104009019132181856903685 1:0.03846154 2:7.6377206 3:0.03846154 4:13.051102 #P00552
0.00059270935104009019132181856903685 1:0.12820514 2:7.6081066 3:0.12820514 4:12.086962 #P44401
0.00059270935104009019132181856903685 1:0.025641026 2:5.8159308 3:0.025641026 4:10.714354 #B0BNR1
-0.00059270935104009019132181856903685 1:0.16666667 2:8.5604944 3:0.16666667 4:13.66681 #SRS019329.12123
0.00059270935104009019132181856903685 1:0.51282054 2:18.647089 3:0.51282054 4:386.15891 #Q04HV1
-0.00059270935104009019132181856903685 1:0.025641026 2:12.750089 3:0.025641026 4:457.0882 #SRS015745.1303
0.00059270935104009019132181856903685 1:0.48717949 2:15.279694 3:0.48717949 4:40.848469 #P45101
0.00059270935104009019132181856903685 1:0.84615386 2:17.860071 3:0.84615386 4:107.54888 #Q4QL45
0.00059270935104009019132181856903685 1:0.12820514 2:6.9943042 3:0.12820514 4:11.128929 #Q8REV7
0.00059270935104009019132181856903685 1:0.29487181 2:13.725832 3:0.29487181 4:29.614775 #A9LZH0
-0.00059270935104009019132181856903685 1:0.12820514 2:12.482234 3:0.12820514 4:24.868906 #SRS018359.28621
0.00059270935104009019132181856903685 1:0.61538464 2:16.066404 3:0.61538464 4:50.133564 #P44691
0.00059270935104009019132181856903685 1:0.84615386 2:18.37035 3:0.84615386 4:173.42639 #Q02322
0.00059270935104009019132181856903685 1:0.75641024 2:17.830795 3:0.75641024 4:105.86033 #Q4QMV2
0.00059270935104009019132181856903685 1:0.48717949 2:14.256186 3:0.48717949 4:32.454422 #Q9JVA3
0.00059270935104009019132181856903685 1:0.57692307 2:15.732204 3:0.57692307 4:45.684841 #P45275
-0.0005705191319762548118887934833765 1:0.051282052 2:0.40940136 3:0.051282052 4:3.0624309 #SRS050628.68052
0.00059270935104009019132181856903685 1:0.37179488 2:13.976226 3:0.37179488 4:30.863487 #A9LZS9
0.00059270935104009019132181856903685 1:0.75641024 2:17.799259 3:0.75641024 4:103.61703 #P45171
0.00059270935104009019132181856903685 1:0.42307693 2:14.443804 3:0.42307693 4:33.836002 #Q9K1R6
0.00059270935104009019132181856903685 1:0.42307693 2:15.03545 3:0.42307693 4:38.665245 #A8AUB8
-0.00059270935104009019132181856903685 1:0.012820513 2:5.9184346 3:0.012820513 4:238.9489 #SRS015274.9713
0.00059270935104009019132181856903685 1:0.71794873 2:17.390484 3:0.71794873 4:81.511436 #P45262
-0.00056548924269800293629373300063889 1:0.064102568 2:1.9251609 3:0.064102568 4:5.0073509 #SRS013239.34095
0.00059270935104009019132181856903685 1:0.51282054 2:15.479111 3:0.51282054 4:42.940746 #P45158
0.00059270935104009019132181856903685 1:0.73076922 2:17.902533 3:0.73076922 4:111.86194 #P71355
0.00059270935104009019132181856903685 1:0.62820512 2:16.576366 3:0.62820512 4:59.016666 #Q4QJY5
-0.00059270935104009019132181856903685 1:0.14102565 2:11.936413 3:0.14102565 4:22.550434 #SRS023987.34901
0.00059270935104009019132181856903685 1:0.75641024 2:17.930719 3:0.75641024 4:113.98988 #O05074
0.00059270935104009019132181856903685 1:0.3974359 2:14.907746 3:0.3974359 4:37.599247 #P45241
-0.00059270935104009019132181856903685 1:0.089743592 2:2.3979669 3:0.089743592 4:5.5096464 #SRS017215.24362
-0.00059270935104009019132181856903685 1:0.11538462 2:6.293242 3:0.11538462 4:10.148476 #SRS050628.82707
0.00059270935104009019132181856903685 1:0.52564102 2:16.68708 3:0.52564102 4:62.228386 #P45256
0.00059270935104009019132181856903685 1:0.67948717 2:17.882229 3:0.67948717 4:110.88781 #P44647
0.00059270935104009019132181856903685 1:0.64102566 2:17.811113 3:0.64102566 4:106.03931 #P45051
-6.3207674977505548877254604178688e-06 1:0.025641026 2:12.677072 3:0.025641026 4:236.28789 #SRS015895.7339
-0.00059270935104009019132181856903685 1:0.089743592 2:17.556028 3:0.089743592 4:362.82361 #SRS016600.813
-0.00059270935104009019132181856903685 1:0.064102568 2:0.4307743 3:0.064102568 4:3.1021671 #SRS013945.55597
0.00059270935104009019132181856903685 1:0.42307693 2:16.094788 3:0.42307693 4:51.410641 #Q9K0I2
0.00059270935104009019132181856903685 1:0.55128205 2:17.792212 3:0.55128205 4:106.90137 #P45018
0.00059270935104009019132181856903685 1:0.43589744 2:17.824924 3:0.43589744 4:113.02139 #A5UDE3
-0.00059270935104009019132181856903685 1:0.07692308 2:2.7573011 3:0.07692308 4:5.9166155 #SRS018329.23077
0.00059270935104009019132181856903685 1:0.29487181 2:17.641863 3:0.29487181 4:105.79866 #A8AVM1
-0.00059270935104009019132181856903685 1:0.025641026 2:12.692614 3:0.025641026 4:252.20766 #SRS024017.9283
0.00059270935104009019132181856903685 1:0.21794872 2:17.535686 3:0.21794872 4:107.49149 #Q5M6I1
-0.00020423993802786907791890769203746 1:0.051282052 2:0.49150291 3:0.051282052 4:3.222851 #SRS013881.29290
0.00059270935104009019132181856903685 1:0.14102565 2:17.228523 3:0.14102565 4:105.63939 #A6VL59
0.00059270935104009019132181856903685 1:0.03846154 2:4.7496214 3:0.03846154 4:8.4485245 #A9M393
-0.00059270935104009019132181856903685 1:0.20512821 2:7.4329267 3:0.20512821 4:11.705053 #SRS050029.15065
0.00059270935104009019132181856903685 1:0.012820513 2:3.6351995 3:0.012820513 4:9.9575148 #Q7VMA4
0.00059270935104009019132181856903685 1:0.025641026 2:12.129088 3:0.025641026 4:82.530045 #Q9A1C7
-0.00059270935104009019132181856903685 1:0.2820513 2:12.249505 3:0.2820513 4:22.99542 #SRS014126.12218
-0.00059270935104009019132181856903685 1:0.14102565 2:10.085821 3:0.14102565 4:17.077108 #SRS019329.39928
0.00059270935104009019132181856903685 1:0.61538464 2:18.495867 3:0.61538464 4:218.24707 #Q04JY7
-0.00059270935104009019132181856903685 1:0.1923077 2:2.9352536 3:0.1923077 4:6.0894895 #SRS013945.27608
0.00059270935104009019132181856903685 1:0.051282052 2:15.744739 3:0.051282052 4:97.272575 #Q9CM80
-0.00059270935104009019132181856903685 1:0.26923078 2:13.464689 3:0.26923078 4:28.274996 #SRS019221.10829
0.00059270935104009019132181856903685 1:0.012820513 2:3.6625733 3:0.012820513 4:10.062278 #O68195
0.00059270935104009019132181856903685 1:0.17948718 2:17.490282 3:0.17948718 4:113.22713 #Q97QZ1
0.00059270935104009019132181856903685 1:0.064102568 2:6.7458606 3:0.064102568 4:10.97277 #Q8REI2
-0.00059270935104009019132181856903685 1:0.1025641 2:7.8199615 3:0.1025641 4:12.527944 #SRS050628.21014
-0.00059270935104009019132181856903685 1:0.012820513 2:5.9164629 3:0.012820513 4:230.50771 #SRS017127.4380
0.00059270935104009019132181856903685 1:0.07692308 2:16.627153 3:0.07692308 4:110.12543 #P57098
0.00059270935104009019132181856903685 1:0.03846154 2:4.8588367 3:0.03846154 4:8.5857182 #B2RHF5
-0.00059270935104009019132181856903685 1:0.24358974 2:13.454333 3:0.24358974 4:28.347778 #SRS011247.9346
-0.00059270935104009019132181856903685 1:0.25641027 2:9.954504 3:0.25641027 4:16.474226 #SRS017013.9573
0.00059270935104009019132181856903685 1:0.012820513 2:3.6733036 3:0.012820513 4:10.10635 #Q8GLU7
0.00059270935104009019132181856903685 1:0.064102568 2:13.90404 3:0.064102568 4:37.778927 #P57895
-0.00059270935104009019132181856903685 1:0.25641027 2:13.368414 3:0.25641027 4:27.823822 #SRS022532.27230
0.00059270935104009019132181856903685 1:0.012820513 2:3.7387445 3:0.012820513 4:10.380842 #Q7MUV7
0.00059270935104009019132181856903685 1:0.1025641 2:6.5635958 3:0.1025641 4:10.555451 #A8AX10
-0.00059270935104009019132181856903685 1:0.14102565 2:10.765154 3:0.14102565 4:18.887421 #SRS017127.11444
0.00059270935104009019132181856903685 1:0.064102568 2:16.162136 3:0.064102568 4:95.237366 #A6VMK8
-0.00059270935104009019132181856903685 1:0.1923077 2:13.508979 3:0.1923077 4:29.064774 #SRS013239.12050
0.00059270935104009019132181856903685 1:0.012820513 2:3.7941065 3:0.012820513 4:10.613552 #A7ZD85
0.00059270935104009019132181856903685 1:0.064102568 2:7.2077484 3:0.064102568 4:11.700542 #Q9JW39
0.00059270935104009019132181856903685 1:0.67948717 2:18.703297 3:0.67948717 4:379.79767 #Q97S93
-0.00059270935104009019132181856903685 1:0.012820513 2:5.9157085 3:0.012820513 4:227.33922 #SRS017127.347
0.00059270935104009019132181856903685 1:0.16666667 2:13.663209 3:0.16666667 4:30.273489 #A8AZK4
-0.00059270935104009019132181856903685 1:0.14102565 2:11.912693 3:0.14102565 4:22.47028 #SRS050628.10770
0.00059270935104009019132181856903685 1:0.03846154 2:5.2348766 3:0.03846154 4:9.0908689 #Q6NHT1
0.00059270935104009019132181856903685 1:0.11538462 2:16.899124 3:0.11538462 4:95.247917 #O66200
0.00059270935104009019132181856903685 1:0.025641026 2:4.8772588 3:0.025641026 4:9.1012392 #A7ZEJ3
-0.00059270935104009019132181856903685 1:0.20512821 2:13.408723 3:0.20512821 4:28.378223 #SRS011310.19761
0.00059270935104009019132181856903685 1:0.012820513 2:3.8153858 3:0.012820513 4:10.710633 #A8EV72
-0.00059270935104009019132181856903685 1:0.1025641 2:7.7896409 3:0.1025641 4:12.478924 #SRS011310.23946
0.00059270935104009019132181856903685 1:0.012820513 2:3.8269808 3:0.012820513 4:10.762686 #Q9KDF2
-0.00059270935104009019132181856903685 1:0.15384616 2:13.521394 3:0.15384616 4:29.630846 #SRS045049.54911
-0.00059270935104009019132181856903685 1:0.14102565 2:3.1401494 3:0.14102565 4:6.3235474 #SRS013239.33710
-0.00059270935104009019132181856903685 1:0.012820513 2:5.9025431 3:0.012820513 4:187.5424 #SRS018149.4449
0.00059270935104009019132181856903685 1:0.012820513 2:3.9145126 3:0.012820513 4:11.161218 #Q4JUK0
-0.00059270935104009019132181856903685 1:0.1025641 2:8.2508221 3:0.1025641 4:13.283444 #SRS013506.31028
0.00059270935104009019132181856903685 1:0.14102565 2:17.251362 3:0.14102565 4:107.46446 #Q9CIW1
-0.00059270935104009019132181856903685 1:0.15384616 2:13.452133 3:0.15384616 4:29.223608 #SRS022532.6590
-0.00059270935104009019132181856903685 1:0.12820514 2:12.965392 3:0.12820514 4:27.075876 #SRS022145.16106
0.00059270935104009019132181856903685 1:0.012820513 2:3.9756796 3:0.012820513 4:11.458851 #Q6NF05
-0.00059270935104009019132181856903685 1:0.089743592 2:1.5004284 3:0.089743592 4:4.540462 #SRS019587.31532
-0.00059270935104009019132181856903685 1:0.16666667 2:13.367009 3:0.16666667 4:28.557201 #SRS018329.22277
0.00059270935104009019132181856903685 1:0.025641026 2:12.678824 3:0.025641026 4:238.07257 #Q8DQ32
0.00059270935104009019132181856903685 1:0.064102568 2:5.7992606 3:0.064102568 4:9.6110725 #Q8RI76
-0.00059270935104009019132181856903685 1:0.14102565 2:13.485188 3:0.14102565 4:29.675837 #SRS045049.4527
0.00059270935104009019132181856903685 1:0.012820513 2:4.1090531 3:0.012820513 4:12.179562 #Q9CMQ8
-0.00059270935104009019132181856903685 1:0.17948718 2:5.2612133 3:0.17948718 4:8.7927208 #SRS045262.45303
-6.3348762737239217024409754230874e-09 1:0.025641026 2:12.664714 3:0.025641026 4:225.25005 #SRS017441.960
0.00059270935104009019132181856903685 1:0.24358974 2:18.375185 3:0.24358974 4:289.42831 #Q07296
0.00059270935104009019132181856903685 1:0.15384616 2:16.377985 3:0.15384616 4:64.795601 #Q5M2T6
-0.00059270935104009019132181856903685 1:0.11538462 2:10.353823 3:0.11538462 4:17.949547 #SRS017127.36919
-0.00059270935104009019132181856903685 1:0.17948718 2:13.21892 3:0.17948718 4:27.617369 #SRS016503.16847
0.00059270935104009019132181856903685 1:0.012820513 2:4.2036319 3:0.012820513 4:12.753293 #A7GYN4
0.00059270935104009019132181856903685 1:0.051282052 2:5.8522568 3:0.051282052 4:9.7671165 #Q9JRP9
-0.00059270935104009019132181856903685 1:0.1025641 2:7.7737699 3:0.1025641 4:12.448004 #SRS017215.18947
0.00059270935104009019132181856903685 1:0.012820513 2:4.2070961 3:0.012820513 4:12.773404 #C4Z0Q6
-0.00059270935104009019132181856903685 1:0.12820514 2:13.45892 3:0.12820514 4:29.830359 #SRS018149.30682
0.00059270935104009019132181856903685 1:0.012820513 2:4.2551465 3:0.012820513 4:13.082052 #A7GXU4
0.00059270935104009019132181856903685 1:0.75641024 2:18.715464 3:0.75641024 4:376.15427 #Q8CWR0
0.00059270935104009019132181856903685 1:0.03846154 2:5.9889255 3:0.03846154 4:10.156446 #P37094
-0.00059270935104009019132181856903685 1:0.14102565 2:10.45217 3:0.14102565 4:18.03301 #SRS045049.49231
0.00059270935104009019132181856903685 1:0.11538462 2:16.7589 3:0.11538462 4:86.946526 #Q8E290
0.00059270935104009019132181856903685 1:0.025641026 2:5.6408329 3:0.025641026 4:10.387062 #Q03K77
-0.00059270935104009019132181856903685 1:0.24358974 2:12.462263 3:0.24358974 4:23.880913 #SRS045262.46760
0.00059270935104009019132181856903685 1:0.012820513 2:4.324892 3:0.012820513 4:13.56227 #A7ZDJ9
-0.00059270935104009019132181856903685 1:0.089743592 2:4.4339757 3:0.089743592 4:7.8565326 #SRS015436.52614
-1.6267736365174591066894149715694e-06 1:0.1025641 2:9.4697895 3:0.1025641 4:15.827555 #SRS015154.7848
0.00059270935104009019132181856903685 1:0.012820513 2:4.3390365 3:0.012820513 4:13.662135 #Q51567
-0.00059270935104009019132181856903685 1:0.025641026 2:12.713264 3:0.025641026 4:280.78781 #SRS018661.22452
-0.00059270935104009019132181856903685 1:0.20512821 2:12.778275 3:0.20512821 4:25.370258 #SRS050628.80703
0.00059270935104009019132181856903685 1:0.089743592 2:6.3673911 3:0.089743592 4:10.311997 #Q9JS04
-0.00059270935104009019132181856903685 1:0.26923078 2:11.881475 3:0.26923078 4:21.77755 #SRS019976.3882
0.00059270935104009019132181856903685 1:0.012820513 2:4.3482265 3:0.012820513 4:13.729731 #Q9CN36
0.00059270935104009019132181856903685 1:0.26923078 2:17.337616 3:0.26923078 4:88.598534 #Q5M283
-0.00059270935104009019132181856903685 1:0.12820514 2:5.4940891 3:0.12820514 4:9.108758 #SRS019587.26463
-0.00059270935104009019132181856903685 1:0.25641027 2:11.83115 3:0.25641027 4:21.641523 #SRS023837.6563
-0.00059270935104009019132181856903685 1:0.12820514 2:13.37172 3:0.12820514 4:29.316282 #SRS018149.29666
-0.00059270935104009019132181856903685 1:0.15384616 2:13.196496 3:0.15384616 4:27.801235 #SRS017013.46914
-0.00059270935104009019132181856903685 1:0.025641026 2:12.715297 3:0.025641026 4:284.21133 #SRS018329.2911
0.00059270935104009019132181856903685 1:0.012820513 2:4.4791503 3:0.012820513 4:14.794922 #Q65QB0
-0.00059270935104009019132181856903685 1:0.025641026 2:12.719085 3:0.025641026 4:291.52197 #SRS014126.4144
0.00059270935104009019132181856903685 1:0.03846154 2:14.458011 3:0.03846154 4:72.402504 #Q8E2J5
0.00059270935104009019132181856903685 1:0.012820513 2:4.5103064 3:0.012820513 4:15.068733 #Q8RF94
-0.00059270935104009019132181856903685 1:0.025641026 2:12.704173 3:0.025641026 4:266.05231 #SRS024377.735
0.00059270935104009019132181856903685 1:0.012820513 2:4.5837631 3:0.012820513 4:15.745472 #A1R7V5
0.00059270935104009019132181856903685 1:0.11538462 2:15.483562 3:0.11538462 4:50.704704 #Q5M105
0.00059270935104009019132181856903685 1:0.012820513 2:4.6535573 3:0.012820513 4:16.460495 #F2XG53
-0.00059270935104009019132181856903685 1:0.12820514 2:13.333938 3:0.12820514 4:29.094179 #SRS014686.26861
-0.00017104353894851261758125460232804 1:0.11538462 2:14.407438 3:0.11538462 4:37.437325 #SRS015646.19163
-0.00059270935104009019132181856903685 1:0.089743592 2:2.3457863 3:0.089743592 4:5.4549599 #SRS019587.37119
-0.00059270935104009019132181856903685 1:0.089743592 2:4.5303273 3:0.089743592 4:7.9711742 #SRS018149.76590
-0.00059270935104009019132181856903685 1:0.21794872 2:12.524258 3:0.21794872 4:24.236158 #SRS042457.14175
0.00059270935104009019132181856903685 1:0.012820513 2:4.7044754 3:0.012820513 4:17.021719 #Q3A946
0.00059270935104009019132181856903685 1:0.33333334 2:17.432177 3:0.33333334 4:90.020134 #D2NQQ7
0.00059270935104009019132181856903685 1:0.012820513 2:4.7117152 3:0.012820513 4:17.099354 #P81284
0.00059270935104009019132181856903685 1:0.025641026 2:5.8820453 3:0.025641026 4:10.837295 #Q9K141
0.00059270935104009019132181856903685 1:0.21794872 2:17.163237 3:0.21794872 4:84.535744 #Q5M1Y6
0.00059270935104009019132181856903685 1:0.11538462 2:6.725883 3:0.11538462 4:10.766818 #A3CNZ0
0.00059270935104009019132181856903685 1:0.064102568 2:6.672164 3:0.064102568 4:10.861814 #Q9JTZ6
0.00059270935104009019132181856903685 1:0.012820513 2:4.7267179 3:0.012820513 4:17.275135 #A7ZE20
0.00059270935104009019132181856903685 1:0.11538462 2:6.8932972 3:0.11538462 4:11.00485 #Q8RFE4
-0.00059270935104009019132181856903685 1:0.58974361 2:16.91865 3:0.58974361 4:67.449432 #SRS019329.12085
-0.00031576396145283069927245378494263 1:0.064102568 2:1.6331983 3:0.064102568 4:4.6899643 #SRS017127.21506
-0.00059270935104009019132181856903685 1:0.5 2:17.365778 3:0.5 4:83.016243 #SRS015436.4623
0.00059270935104009019132181856903685 1:0.012820513 2:4.7573814 3:0.012820513 4:17.646591 #A3N0N2
-0.00059270935104009019132181856903685 1:0.17948718 2:7.5392098 3:0.17948718 4:11.890944 #SRS017215.24315
-0.00059270935104009019132181856903685 1:0.20512821 2:8.4895592 3:0.20512821 4:13.483276 #SRS045049.53477
-0.00059270935104009019132181856903685 1:0.089743592 2:17.572315 3:0.089743592 4:438.91525 #SRS019872.14759
0.00059270935104009019132181856903685 1:0.012820513 2:4.7608457 3:0.012820513 4:17.687048 #A7ZDK0
-0.00059270935104009019132181856903685 1:0.58974361 2:16.723074 3:0.58974361 4:62.610134 #SRS011090.4053
0.00059270935104009019132181856903685 1:0.25641027 2:17.134388 3:0.25641027 4:80.191963 #Q5M6I4
-0.00059270935104009019132181856903685 1:0.12820514 2:13.278279 3:0.12820514 4:28.77726 #SRS013239.7000
0.00059270935104009019132181856903685 1:0.14102565 2:16.764637 3:0.14102565 4:79.020699 #Q03LN0
0.00059270935104009019132181856903685 1:0.012820513 2:4.8699093 3:0.012820513 4:19.120661 #Q8R5X3
-0.00059270935104009019132181856903685 1:0.14102565 2:15.966713 3:0.14102565 4:56.664185 #SRS019329.8975
0.00059270935104009019132181856903685 1:0.17948718 2:18.198671 3:0.17948718 4:293.20602 #P22291
-0.00032425139274894210217325962730683 1:0.051282052 2:0.82424402 3:0.051282052 4:3.7339458 #SRS011247.50585
-0.00059270935104009019132181856903685 1:0.58974361 2:16.698814 3:0.58974361 4:62.038376 #SRS024377.1131
-0.00059270935104009019132181856903685 1:0.089743592 2:3.9590156 3:0.089743592 4:7.295011 #SRS018149.78666
-0.00059270935104009019132181856903685 1:0.51282054 2:15.659289 3:0.51282054 4:45.02916 #SRS011090.8226
-0.00059270935104009019132181856903685 1:0.58974361 2:16.202646 3:0.58974361 4:52.453682 #SRS017080.43151
0.00059270935104009019132181856903685 1:0.012820513 2:4.9271083 3:0.012820513 4:19.97665 #Q99YS1
-0.00059270935104009019132181856903685 1:0.12820514 2:11.875824 3:0.12820514 4:22.489779 #SRS018359.7179
-0.00059270935104009019132181856903685 1:0.57692307 2:16.474796 3:0.57692307 4:57.271336 #SRS015895.29426
0.00059270935104009019132181856903685 1:0.012820513 2:4.9919229 3:0.012820513 4:21.037409 #Q65SB0
0.00059270935104009019132181856903685 1:0.16666667 2:16.809559 3:0.16666667 4:76.192635 #Q5M0C5
0.00059270935104009019132181856903685 1:0.025641026 2:6.4531579 3:0.025641026 4:12.019972 #A7GZB9
0.00059270935104009019132181856903685 1:0.012820513 2:5.033638 3:0.012820513 4:21.751602 #Q99ZI9
0.00059270935104009019132181856903685 1:0.42307693 2:17.42874 3:0.42307693 4:87.267937 #A8AWT2
0.00059270935104009019132181856903685 1:0.012820513 2:5.1595116 3:0.012820513 4:24.332172 #Q8A525
0.00059270935104009019132181856903685 1:0.051282052 2:7.0547805 3:0.051282052 4:11.598043 #Q9JYY3
0.00059270935104009019132181856903685 1:0.1923077 2:17.971815 3:0.1923077 4:177.26184 #Q8DVV2
0.00059270935104009019132181856903685 1:0.15384616 2:17.812807 3:0.15384616 4:175.67343 #Q97R95
-0.00059270935104009019132181856903685 1:0.051282052 2:16.486618 3:0.051282052 4:276.79749 #SRS056892.32105
-0.00059270935104009019132181856903685 1:0.025641026 2:12.748279 3:0.025641026 4:429.55695 #SRS014126.1314
-0.00059270935104009019132181856903685 1:0.44871795 2:17.713917 3:0.44871795 4:103.74609 #SRS019221.10892
0.00059270935104009019132181856903685 1:0.012820513 2:5.206224 3:0.012820513 4:25.519352 #Q5F556
-0.00059270935104009019132181856903685 1:0.11538462 2:9.905654 3:0.11538462 4:16.787909 #SRS017215.40714
0.00059270935104009019132181856903685 1:0.089743592 2:16.120714 3:0.089743592 4:71.110504 #Q9ZA98
-0.00059270935104009019132181856903685 1:0.23076923 2:12.076661 3:0.23076923 4:22.522184 #SRS017127.15485
-0.00059270935104009019132181856903685 1:0.12820514 2:5.6828794 3:0.12820514 4:9.3383112 #SRS045262.42355
-0.00059270935104009019132181856903685 1:0.42307693 2:17.998693 3:0.42307693 4:130.85533 #SRS014686.25788
0.00059270935104009019132181856903685 1:0.012820513 2:5.2335377 3:0.012820513 4:26.258669 #A7ZC38
-0.00059270935104009019132181856903685 1:0.53846157 2:17.027483 3:0.53846157 4:70.846466 #SRS019391.3042
-0.00059270935104009019132181856903685 1:0.11538462 2:9.7583151 3:0.11538462 4:16.421707 #SRS056892.41002
0.00059270935104009019132181856903685 1:0.91025639 2:18.720884 3:0.91025639 4:366.97186 #P0A2U8
0.00059270935104009019132181856903685 1:0.012820513 2:5.2540379 3:0.012820513 4:26.826674 #A6L585
-0.00059270935104009019132181856903685 1:0.42307693 2:17.727949 3:0.42307693 4:105.50507 #SRS015646.18069
-0.00059270935104009019132181856903685 1:0.51282054 2:16.972525 3:0.51282054 4:69.501305 #SRS022145.3581
0.00059270935104009019132181856903685 1:0.14102565 2:16.629087 3:0.14102565 4:74.151215 #Q5M1J9
-0.00059270935104009019132181856903685 1:0.14102565 2:6.182292 3:0.14102565 4:9.9650755 #SRS011247.718
0.00059270935104009019132181856903685 1:0.012820513 2:5.2672086 3:0.012820513 4:27.231436 #Q9CEW0
-0.00059270935104009019132181856903685 1:0.57692307 2:16.186333 3:0.57692307 4:52.23558 #SRS017080.40725
0.00059270935104009019132181856903685 1:0.025641026 2:12.130218 3:0.025641026 4:82.635483 #Q8DU81
-0.00059270935104009019132181856903685 1:0.12820514 2:13.956057 3:0.12820514 4:33.156494 #SRS019329.39006
0.00059270935104009019132181856903685 1:0.55128205 2:17.73307 3:0.55128205 4:102.74773 #P43820
0.00059270935104009019132181856903685 1:0.012820513 2:5.278801 3:0.012820513 4:27.597805 #Q8A334
0.00059270935104009019132181856903685 1:0.24358974 2:17.036495 3:0.24358974 4:77.301598 #Q65QU0
-0.00059270935104009019132181856903685 1:0.025641026 2:12.75466 3:0.025641026 4:939.12152 #SRS055118.5250
0.00059270935104009019132181856903685 1:0.03846154 2:7.040657 3:0.03846154 4:11.893476 #Q9K1A2
-0.00059270935104009019132181856903685 1:0.3974359 2:17.411171 3:0.3974359 4:86.93631 #SRS048719.26425
0.00059270935104009019132181856903685 1:0.012820513 2:5.3188272 3:0.012820513 4:28.975899 #A1R783
0.00059270935104009019132181856903685 1:0.47435898 2:17.51701 3:0.47435898 4:90.811493 #Q4QLY5
-0.00059270935104009019132181856903685 1:0.14102565 2:14.316118 3:0.14102565 4:35.472637 #SRS023987.34832
-0.00059270935104009019132181856903685 1:0.23076923 2:16.768364 3:0.23076923 4:69.444252 #SRS017537.3838
0.00059270935104009019132181856903685 1:0.012820513 2:5.3429027 3:0.012820513 4:29.8591 #P0A0C2
-0.00059270935104009019132181856903685 1:0.12820514 2:8.2484961 3:0.12820514 4:13.186465 #SRS056892.51481
-0.00059270935104009019132181856903685 1:0.51282054 2:16.438961 3:0.51282054 4:56.92255 #SRS017127.35030
0.00059270935104009019132181856903685 1:0.012820513 2:5.3680677 3:0.012820513 4:30.878664 #Q8A9B8
-0.00059270935104009019132181856903685 1:0.38461539 2:16.578882 3:0.38461539 4:60.830822 #SRS014126.5071
0.00059270935104009019132181856903685 1:0.012820513 2:5.4202762 3:0.012820513 4:33.235653 #P44173
0.00059270935104009019132181856903685 1:0.58974361 2:17.777918 3:0.58974361 4:104.90472 #P45052
-0.00058913165836954085874399567046567 1:0.064102568 2:1.3483738 3:0.064102568 4:4.373703 #SRS019587.16736
-0.00059270935104009019132181856903685 1:0.53846157 2:16.337978 3:0.53846157 4:55.013237 #SRS019329.36550
0.00059270935104009019132181856903685 1:0.012820513 2:5.4311461 3:0.012820513 4:33.747921 #Q8A624
0.00059270935104009019132181856903685 1:0.66666669 2:17.888969 3:0.66666669 4:111.76883 #P44586
-0.00059270935104009019132181856903685 1:0.14102565 2:13.24916 3:0.14102565 4:28.31814 #SRS011310.23893
-0.00059270935104009019132181856903685 1:0.089743592 2:3.4305017 3:0.089743592 4:6.6788535 #SRS017810.22929
-0.00059270935104009019132181856903685 1:0.20512821 2:16.759031 3:0.20512821 4:70.835327 #SRS017080.45478
0.00059270935104009019132181856903685 1:0.03846154 2:7.1684151 3:0.03846154 4:12.132103 #A7ZAW7
-0.00059270935104009019132181856903685 1:0.15384616 2:14.893054 3:0.15384616 4:40.340874 #SRS063287.27790
0.00059270935104009019132181856903685 1:0.3974359 2:17.311119 3:0.3974359 4:82.333939 #Q65U55
0.00059270935104009019132181856903685 1:0.03846154 2:7.3216534 3:0.03846154 4:12.433664 #A7ZBR7
-0.00059270935104009019132181856903685 1:0.11538462 2:16.32527 3:0.11538462 4:69.842529 #SRS018359.5575
-0.00059270935104009019132181856903685 1:0.07692308 2:2.0013433 3:0.07692308 4:5.0827394 #SRS013945.21327
0.00059270935104009019132181856903685 1:0.03846154 2:7.3753605 3:0.03846154 4:12.53797 #Q9JXQ3
-0.00059270935104009019132181856903685 1:0.15384616 2:14.605985 3:0.15384616 4:37.559677 #SRS013506.29601
0.00059270935104009019132181856903685 1:0.1923077 2:16.841824 3:0.1923077 4:74.585243 #Q5M126
0.00059270935104009019132181856903685 1:0.03846154 2:7.4480481 3:0.03846154 4:12.67651 #Q7MVQ5
0.00059270935104009019132181856903685 1:0.61538464 2:18.677076 3:0.61538464 4:362.47687 #P72525
-0.00059270935104009019132181856903685 1:0.07692308 2:1.7147765 3:0.07692308 4:4.7700257 #SRS045262.29937
-0.00059270935104009019132181856903685 1:0.14102565 2:14.758054 3:0.14102565 4:39.524452 #SRS013711.46796
-0.00059270935104009019132181856903685 1:0.46153846 2:16.464867 3:0.46153846 4:57.72604 #SRS011090.5884
0.00059270935104009019132181856903685 1:0.012820513 2:5.4565067 3:0.012820513 4:35.089592 #Q8E061
-0.00059270935104009019132181856903685 1:0.33333334 2:16.570259 3:0.33333334 4:61.309147 #SRS020858.8342
0.00059270935104009019132181856903685 1:0.012820513 2:5.4451137 3:0.012820513 4:34.481812 #A7ZF35
-0.00059270935104009019132181856903685 1:0.15384616 2:14.886497 3:0.15384616 4:40.273079 #SRS022145.5277
0.00059270935104009019132181856903685 1:0.03846154 2:7.5722208 3:0.03846154 4:12.918777 #A7ZC67
-0.00059270935104009019132181856903685 1:0.1025641 2:5.7232819 3:0.1025641 4:9.4189186 #SRS015436.8674
-0.00059270935104009019132181856903685 1:0.12820514 2:8.1399822 3:0.12820514 4:12.995656 #SRS048719.10118
0.00059270935104009019132181856903685 1:0.025641026 2:7.2156019 3:0.025641026 4:13.911611 #A7ZCB6
0.00059270935104009019132181856903685 1:0.025641026 2:7.3457627 3:0.025641026 4:14.29639 #A6VLT3
-0.00059270935104009019132181856903685 1:0.15384616 2:14.888354 3:0.15384616 4:40.288319 #SRS052874.1613
0.00059270935104009019132181856903685 1:0.025641026 2:7.3754454 3:0.025641026 4:14.386676 #Q9CKV0
-0.00059270935104009019132181856903685 1:0.025641026 2:12.735977 3:0.025641026 4:341.7962 #SRS019391.1348
-0.00059270935104009019132181856903685 1:0.14102565 2:12.908517 3:0.14102565 4:26.574102 #SRS063272.13310
0.00059270935104009019132181856903685 1:0.55128205 2:17.985855 3:0.55128205 4:124.67113 #A8AYH2
0.00059270935104009019132181856903685 1:0.025641026 2:7.5087886 3:0.025641026 4:14.792166 #A7ZFA0
-0.00059270935104009019132181856903685 1:0.14102565 2:12.453166 3:0.14102565 4:24.552303 #SRS011310.24038
-0.00059270935104009019132181856903685 1:0.14102565 2:12.983987 3:0.14102565 4:26.92844 #SRS023987.10005
0.00059270935104009019132181856903685 1:0.30769232 2:13.758613 3:0.30769232 4:29.759062 #Q9JWJ3
-0.00059270935104009019132181856903685 1:0.089743592 2:2.0364373 3:0.089743592 4:5.1170707 #SRS018149.46131
-0.00059270935104009019132181856903685 1:0.33333334 2:14.037434 3:0.33333334 4:31.357687 #SRS014686.25461
0.00059270935104009019132181856903685 1:0.012820513 2:5.4410267 3:0.012820513 4:34.282455 #Q5LGW6
-0.00059270935104009019132181856903685 1:0.1025641 2:6.9632163 3:0.1025641 4:11.136506 #SRS056892.19897
0.00059270935104009019132181856903685 1:0.23076923 2:13.762568 3:0.23076923 4:30.175255 #A3CLD3
-0.00059270935104009019132181856903685 1:0.5 2:15.642899 3:0.5 4:44.871292 #SRS017810.7528
0.00059270935104009019132181856903685 1:0.07692308 2:13.533646 3:0.07692308 4:32.796406 #A4W4N7
0.00059270935104009019132181856903685 1:0.33333334 2:13.90171 3:0.33333334 4:30.511456 #Q06447
0.00059270935104009019132181856903685 1:0.16666667 2:13.760853 3:0.16666667 4:30.882309 #Q5M237
0.00059270935104009019132181856903685 1:0.17948718 2:13.789593 3:0.17948718 4:30.881901 #Q7VNG4
0.00059270935104009019132181856903685 1:0.1025641 2:13.751205 3:0.1025641 4:32.709995 #Q5M1F6
-0.00059270935104009019132181856903685 1:0.051282052 2:16.546034 3:0.051282052 4:404.70993 #SRS050628.81090
-0.00059270935104009019132181856903685 1:0.24358974 2:10.616163 3:0.24358974 4:18.141333 #SRS052874.10794
-0.00059270935104009019132181856903685 1:0.43589744 2:18.214638 3:0.43589744 4:163.30479 #SRS049283.1525
-0.00059270935104009019132181856903685 1:0.11538462 2:10.075904 3:0.11538462 4:17.215069 #SRS022532.31060
-0.00059270935104009019132181856903685 1:0.37179488 2:17.417839 3:0.37179488 4:87.953339 #SRS022721.22689
-0.00059270935104009019132181856903685 1:0.32051283 2:17.48945 3:0.32051283 4:93.854782 #SRS019872.11519
0.00059270935104009019132181856903685 1:0.089743592 2:13.888324 3:0.089743592 4:34.518631 #Q9CPH2
-0.00059270935104009019132181856903685 1:0.30769232 2:17.890707 3:0.30769232 4:127.78554 #SRS019221.2602
0.00059270935104009019132181856903685 1:0.17948718 2:13.862991 3:0.17948718 4:31.357769 #A3N031
0.00059270935104009019132181856903685 1:0.21794872 2:13.877994 3:0.21794872 4:30.996582 #A3CN49
-0.00059270935104009019132181856903685 1:0.14102565 2:7.2423429 3:0.14102565 4:11.480303 #SRS017127.36436
-0.00059270935104009019132181856903685 1:0.24358974 2:16.986208 3:0.24358974 4:75.467484 #SRS019329.1827
-0.00059270935104009019132181856903685 1:0.48717949 2:15.651309 3:0.48717949 4:45.013039 #SRS016039.10370
0.00059270935104009019132181856903685 1:0.24358974 2:13.905081 3:0.24358974 4:30.951694 #Q9JYJ8
-0.00059270935104009019132181856903685 1:0.20512821 2:11.438376 3:0.20512821 4:20.576723 #SRS015040.29856
-0.00059270935104009019132181856903685 1:0.20512821 2:11.823494 3:0.20512821 4:21.779245 #SRS063272.38950
-0.00059270935104009019132181856903685 1:0.20512821 2:12.332673 3:0.20512821 4:23.548119 #SRS024377.11309
-0.00059270935104009019132181856903685 1:0.20512821 2:12.396846 3:0.20512821 4:23.794607 #SRS011090.5201
-0.00059270935104009019132181856903685 1:0.1025641 2:6.3794117 3:0.1025641 4:10.299299 #SRS015436.41046
0.00059270935104009019132181856903685 1:0.15384616 2:13.907755 3:0.15384616 4:32.076866 #Q5M5J0
-0.00059270935104009019132181856903685 1:0.20512821 2:8.6390123 3:0.20512821 4:13.758585 #SRS017013.49270
-0.00059270935104009019132181856903685 1:0.23076923 2:16.971451 3:0.23076923 4:75.766037 #SRS018359.6068
0.00059270935104009019132181856903685 1:0.21794872 2:13.894804 3:0.21794872 4:31.105595 #A3CQB0
-0.00059270935104009019132181856903685 1:0.14102565 2:6.4109311 3:0.14102565 4:10.282063 #SRS018149.74548
-0.00059270935104009019132181856903685 1:0.21794872 2:16.901295 3:0.21794872 4:74.426147 #SRS063287.15418
-0.00059270935104009019132181856903685 1:0.12820514 2:4.6052437 3:0.12820514 4:8.0299978 #SRS018149.9791
-0.00059270935104009019132181856903685 1:0.21794872 2:16.850208 3:0.21794872 4:72.760063 #SRS011310.15062
0.00059270935104009019132181856903685 1:0.17948718 2:13.962008 3:0.17948718 4:32.008419 #A8AZU4
-0.00059270935104009019132181856903685 1:0.16666667 2:16.860645 3:0.16666667 4:78.131149 #SRS023987.2286
0.00059270935104009019132181856903685 1:0.12820514 2:14.014952 3:0.12820514 4:33.571224 #Q5LZ98
-0.00059270935104009019132181856903685 1:0.17948718 2:16.76326 3:0.17948718 4:73.283363 #SRS015646.913
0.00059270935104009019132181856903685 1:0.16666667 2:14.052021 3:0.16666667 4:32.829678 #Q5M1T7
-0.00059270935104009019132181856903685 1:0.25641027 2:16.472664 3:0.25641027 4:60.857628 #SRS017013.6961
0.00059270935104009019132181856903685 1:0.16666667 2:14.261381 3:0.16666667 4:34.36097 #A3N0G9
-0.00059270935104009019132181856903685 1:0.24358974 2:16.480745 3:0.24358974 4:61.484295 #SRS023354.1194
-0.00059270935104009019132181856903685 1:0.47435898 2:15.798783 3:0.47435898 4:46.91531 #SRS017013.38456
0.00059270935104009019132181856903685 1:0.20512821 2:14.610021 3:0.20512821 4:36.477421 #A8AZH2
-0.00059270935104009019132181856903685 1:0.1923077 2:8.1465006 3:0.1923077 4:12.892609 #SRS013945.55134
-0.00059270935104009019132181856903685 1:0.24358974 2:10.337169 3:0.24358974 4:17.411598 #SRS022532.4160
-0.00059270935104009019132181856903685 1:0.16666667 2:7.8114586 3:0.16666667 4:12.356519 #SRS019329.32505
-0.00059270935104009019132181856903685 1:0.14102565 2:16.591753 3:0.14102565 4:72.920807 #SRS017687.35219
0.00059270935104009019132181856903685 1:0.33333334 2:14.030105 3:0.33333334 4:31.31106 #Q8RIK8
-0.00059270935104009019132181856903685 1:0.1923077 2:16.48251 3:0.1923077 4:64.154434 #SRS017537.3241
0.00059270935104009019132181856903685 1:0.26923078 2:14.142045 3:0.26923078 4:32.327854 #A8AVE2
-0.00059270935104009019132181856903685 1:0.23076923 2:16.424561 3:0.23076923 4:60.72776 #SRS016039.31823
0.00059270935104009019132181856903685 1:0.25641027 2:14.197981 3:0.25641027 4:32.784126 #Q9JX22
-0.00059270935104009019132181856903685 1:0.21794872 2:16.400766 3:0.21794872 4:60.764622 #SRS017080.38279
0.00059270935104009019132181856903685 1:0.30769232 2:14.185049 3:0.30769232 4:32.413246 #Q8RHK3
-0.00059270935104009019132181856903685 1:0.12820514 2:7.2186422 3:0.12820514 4:11.466682 #SRS013506.30258
-0.00059270935104009019132181856903685 1:0.12820514 2:10.317537 3:0.12820514 4:17.751368 #SRS045049.11439
-0.00059270935104009019132181856903685 1:0.17948718 2:16.389631 3:0.17948718 4:62.832359 #SRS022625.44439
0.00059270935104009019132181856903685 1:0.33333334 2:14.199073 3:0.33333334 4:32.409035 #A3CK48
-0.00059270935104009019132181856903685 1:0.20512821 2:16.281061 3:0.20512821 4:58.687813 #SRS018149.82113
0.00059270935104009019132181856903685 1:0.21794872 2:14.338678 3:0.21794872 4:34.150215 #B3GZX8
0.00059270935104009019132181856903685 1:0.21794872 2:14.514024 3:0.21794872 4:35.497036 #P22118
-0.00059270935104009019132181856903685 1:0.14102565 2:16.457827 3:0.14102565 4:68.711525 #SRS011310.45035
0.00059270935104009019132181856903685 1:0.29487181 2:14.393776 3:0.29487181 4:33.904739 #P45071
-0.00059270935104009019132181856903685 1:0.17948718 2:16.316654 3:0.17948718 4:61.046951 #SRS048719.25772
0.00059270935104009019132181856903685 1:0.33333334 2:14.390647 3:0.33333334 4:33.709351 #Q5F9U0
0.00059270935104009019132181856903685 1:0.26923078 2:14.669554 3:0.26923078 4:36.215755 #A3CQ05
0.00059270935104009019132181856903685 1:0.32051283 2:14.72549 3:0.32051283 4:36.337929 #Q9JZX9
0.00059270935104009019132181856903685 1:0.30769232 2:14.737025 3:0.30769232 4:36.517586 #P49986
0.00059270935104009019132181856903685 1:0.12820514 2:17.799854 3:0.12820514 4:222.69321 #Q8KY50
-0.00059270935104009019132181856903685 1:0.064102568 2:17.028921 3:0.064102568 4:365.13791 #SRS012281.337
0.00059270935104009019132181856903685 1:0.1923077 2:10.900957 3:0.1923077 4:19.024242 #A3CM59
-0.00059270935104009019132181856903685 1:0.43589744 2:15.565713 3:0.43589744 4:44.155949 #SRS021473.3386
-0.00059270935104009019132181856903685 1:0.11538462 2:17.796799 3:0.11538462 4:282.98355 #SRS015436.56109
-0.00059270935104009019132181856903685 1:0.32051283 2:16.021719 3:0.32051283 4:51.073589 #SRS015895.11588
0.00059270935104009019132181856903685 1:0.35897437 2:10.943272 3:0.35897437 4:18.881546 #Q8RI39
-0.00059270935104009019132181856903685 1:0.30769232 2:16.087572 3:0.30769232 4:52.396015 #SRS015374.3183
-0.00059270935104009019132181856903685 1:0.30769232 2:18.035524 3:0.30769232 4:146.97551 #SRS019221.8918
0.00059270935104009019132181856903685 1:0.03846154 2:10.987442 3:0.03846154 4:23.395697 #Q8R5Z5
-0.00059270935104009019132181856903685 1:0.26923078 2:17.603373 3:0.26923078 4:105.28532 #SRS011090.4928
0.00059270935104009019132181856903685 1:0.025641026 2:11.117121 3:0.025641026 4:41.609486 #A6KYR3
-0.00059270935104009019132181856903685 1:0.35897437 2:15.846797 3:0.35897437 4:48.168121 #SRS013881.34253
-0.00059270935104009019132181856903685 1:0.24358974 2:18.053165 3:0.24358974 4:166.45897 #SRS045049.55366
-0.00059270935104009019132181856903685 1:0.32051283 2:17.285324 3:0.32051283 4:83.325172 #SRS013881.1850
0.00059270935104009019132181856903685 1:0.025641026 2:11.244085 3:0.025641026 4:44.314526 #Q5LZL6
0.00059270935104009019132181856903685 1:0.025641026 2:12.072713 3:0.025641026 4:78.087227 #Q8FQ20
0.00059270935104009019132181856903685 1:0.30769232 2:10.960646 3:0.30769232 4:18.9604 #A3CJX7
0.00059270935104009019132181856903685 1:0.051282052 2:10.979589 3:0.051282052 4:21.511528 #Q7VLW2
-0.00059270935104009019132181856903685 1:0.20512821 2:17.284935 3:0.20512821 4:92.568703 #SRS019976.2106
0.00059270935104009019132181856903685 1:0.025641026 2:11.293439 3:0.025641026 4:45.463482 #P57849
-0.00059270935104009019132181856903685 1:0.12820514 2:8.0606966 3:0.12820514 4:12.861872 #SRS022625.54863
-0.00059270935104009019132181856903685 1:0.17948718 2:17.293108 3:0.17948718 4:97.952599 #SRS017810.35671
0.00059270935104009019132181856903685 1:0.025641026 2:11.357477 3:0.025641026 4:47.058083 #Q5XDZ7
0.00059270935104009019132181856903685 1:0.12820514 2:11.017209 3:0.12820514 4:19.715143 #Q7VNG7
-0.00059270935104009019132181856903685 1:0.29487181 2:16.07358 3:0.29487181 4:52.358246 #SRS017127.6561
0.00059270935104009019132181856903685 1:0.29487181 2:11.034009 3:0.29487181 4:19.181742 #Q8RHB4
-0.00059270935104009019132181856903685 1:0.35897437 2:15.772431 3:0.35897437 4:47.120911 #SRS011090.9362
0.00059270935104009019132181856903685 1:0.025641026 2:12.045057 3:0.025641026 4:76.060638 #Q8DYV1
-0.00059270935104009019132181856903685 1:0.2820513 2:15.589048 3:0.2820513 4:45.467533 #SRS018359.9095
0.00059270935104009019132181856903685 1:0.025641026 2:11.926702 3:0.025641026 4:68.787743 #Q99YM5
-0.00059270935104009019132181856903685 1:0.24358974 2:15.464528 3:0.24358974 4:44.514 #SRS018359.30279
-0.00059270935104009019132181856903685 1:0.17948718 2:9.2815952 3:0.17948718 4:15.1101 #SRS022625.12352
-0.00059270935104009019132181856903685 1:0.16666667 2:16.26169 3:0.16666667 4:60.725731 #SRS050628.35724
0.00059270935104009019132181856903685 1:0.089743592 2:11.068526 3:0.089743592 4:20.36817 #Q9JXQ1
0.00059270935104009019132181856903685 1:0.025641026 2:11.919105 3:0.025641026 4:68.357933 #Q7VNH1
0.00059270935104009019132181856903685 1:0.025641026 2:11.897569 3:0.025641026 4:67.267731 #A6VKZ6
-0.00059270935104009019132181856903685 1:0.32051283 2:14.230779 3:0.32051283 4:32.666126 #SRS014126.4448
0.00059270935104009019132181856903685 1:0.025641026 2:11.89535 3:0.025641026 4:67.161179 #Q5LG30
-0.00059270935104009019132181856903685 1:0.30769232 2:13.953107 3:0.30769232 4:30.914284 #SRS015436.21222
-0.00059270935104009019132181856903685 1:0.089743592 2:17.539871 3:0.089743592 4:327.17865 #SRS049283.525
0.00059270935104009019132181856903685 1:0.051282052 2:15.475179 3:0.051282052 4:80.287354 #Q9A1P0
-0.00059270935104009019132181856903685 1:0.23076923 2:17.981695 3:0.23076923 4:158.02281 #SRS023837.3498
-0.00059270935104009019132181856903685 1:0.23076923 2:10.524556 3:0.23076923 4:17.925365 #SRS023534.5345
-0.00059270935104009019132181856903685 1:0.1923077 2:17.044622 3:0.1923077 4:82.183182 #SRS017441.8529
-0.00059270935104009019132181856903685 1:0.15384616 2:11.673459 3:0.15384616 4:21.555166 #SRS045262.21391
-0.00059270935104009019132181856903685 1:0.16666667 2:11.296074 3:0.16666667 4:20.303596 #SRS063287.23509
-0.00059270935104009019132181856903685 1:0.14102565 2:11.755467 3:0.14102565 4:21.93342 #SRS019329.12547
-0.00059270935104009019132181856903685 1:0.14102565 2:11.714895 3:0.14102565 4:21.797379 #SRS017127.2545
0.00059270935104009019132181856903685 1:0.15384616 2:11.149586 3:0.15384616 4:19.914427 #Q9JVQ5
-0.00059270935104009019132181856903685 1:0.21794872 2:10.161064 3:0.21794872 4:17.025579 #SRS018149.19479
-0.00059270935104009019132181856903685 1:0.17948718 2:9.4507513 3:0.17948718 4:15.465124 #SRS013506.16386
0.00059270935104009019132181856903685 1:0.03846154 2:11.320204 3:0.03846154 4:25.092251 #B9DW28
0.00059270935104009019132181856903685 1:0.025641026 2:11.413662 3:0.025641026 4:48.617962 #A7MMW9
0.00059270935104009019132181856903685 1:0.15384616 2:11.324305 3:0.15384616 4:20.460808 #A3MZ70
0.00059270935104009019132181856903685 1:0.73076922 2:18.704351 3:0.73076922 4:355.39816 #P35594
0.00059270935104009019132181856903685 1:0.21794872 2:11.348294 3:0.21794872 4:20.257732 #A8AU96
-0.00059270935104009019132181856903685 1:0.12820514 2:11.658396 3:0.12820514 4:21.750029 #SRS011310.5131
0.00059270935104009019132181856903685 1:0.58974361 2:18.663263 3:0.58974361 4:352.25763 #Q04JM8
-0.00059270935104009019132181856903685 1:0.12820514 2:11.647483 3:0.12820514 4:21.71125 #SRS015745.45508
0.00059270935104009019132181856903685 1:0.58974361 2:18.66267 3:0.58974361 4:351.55753 #Q97SE7
-0.00059270935104009019132181856903685 1:0.12820514 2:11.631655 3:0.12820514 4:21.655254 #SRS017127.12584
0.00059270935104009019132181856903685 1:0.24358974 2:11.36416 3:0.24358974 4:20.235085 #P57000
-0.00059270935104009019132181856903685 1:0.11538462 2:11.592819 3:0.11538462 4:21.678257 #SRS016039.33330
-0.00059270935104009019132181856903685 1:0.12820514 2:11.59654 3:0.12820514 4:21.540363 #SRS023987.10095
0.00059270935104009019132181856903685 1:0.24358974 2:11.368163 3:0.24358974 4:20.248745 #Q8RH70
-0.00059270935104009019132181856903685 1:0.14102565 2:11.580931 3:0.14102565 4:21.361897 #SRS019329.33479
0.00059270935104009019132181856903685 1:0.26923078 2:11.396801 3:0.26923078 4:20.285084 #Q8RGE0
-0.00059270935104009019132181856903685 1:0.12820514 2:11.551723 3:0.12820514 4:21.395998 #SRS013239.12710
0.00059270935104009019132181856903685 1:0.15384616 2:11.467245 3:0.15384616 4:20.914154 #Q9JTP9
-0.00059270935104009019132181856903685 1:0.12820514 2:11.550232 3:0.12820514 4:21.391415 #SRS022625.11051
0.00059270935104009019132181856903685 1:0.1923077 2:11.512005 3:0.1923077 4:20.857351 #P45211
-0.00059270935104009019132181856903685 1:0.14102565 2:11.530349 3:0.14102565 4:21.200369 #SRS045049.54842
0.00059270935104009019132181856903685 1:0.14102565 2:11.545782 3:0.14102565 4:21.250439 #Q8RDQ2
-0.00059270935104009019132181856903685 1:0.11538462 2:11.51983 3:0.11538462 4:21.439646 #SRS019329.12159
0.00059270935104009019132181856903685 1:0.15384616 2:11.551996 3:0.15384616 4:21.167606 #A8AUW9
-0.00059270935104009019132181856903685 1:0.12820514 2:12.303993 3:0.12820514 4:24.111696 #SRS015374.14894
0.00059270935104009019132181856903685 1:0.1025641 2:11.557738 3:0.1025641 4:21.748165 #P44497
-0.0005395971534206886466300545635022 1:0.07692308 2:2.8625038 3:0.07692308 4:6.0348563 #SRS050628.62942
0.00059270935104009019132181856903685 1:0.21794872 2:11.570672 3:0.21794872 4:20.941656 #Q8REE1
-0.00059270935104009019132181856903685 1:0.12820514 2:11.450212 3:0.12820514 4:21.073616 #SRS011310.19565
0.00059270935104009019132181856903685 1:0.25641027 2:11.574602 3:0.25641027 4:20.855282 #Q8RFJ8
-0.00059270935104009019132181856903685 1:0.15384616 2:11.408306 3:0.15384616 4:20.722765 #SRS011247.59505
0.00059270935104009019132181856903685 1:0.025641026 2:12.581303 3:0.025641026 4:174.58978 #Q3K1M7
0.00059270935104009019132181856903685 1:0.30769232 2:11.583776 3:0.30769232 4:20.794132 #Q8RIK9
-0.00059270935104009019132181856903685 1:0.14102565 2:11.382899 3:0.14102565 4:20.743155 #SRS011144.6768
-0.00059270935104009019132181856903685 1:0.11538462 2:3.7083533 3:0.11538462 4:6.9911761 #SRS015436.56399
-0.00059270935104009019132181856903685 1:0.11538462 2:9.1295404 3:0.11538462 4:14.997865 #SRS045262.42163
0.00059270935104009019132181856903685 1:0.24358974 2:11.606483 3:0.24358974 4:20.98122 #Q8RGR2
-0.00059270935104009019132181856903685 1:0.1025641 2:11.367224 3:0.1025641 4:21.114943 #SRS019329.35855
0.00059270935104009019132181856903685 1:0.20512821 2:11.704434 3:0.20512821 4:21.398653 #A8AVT9
-0.00058965019920437016995307111244529 1:0.1025641 2:11.363771 3:0.1025641 4:21.107395 #SRS017127.11606
0.00059270935104009019132181856903685 1:0.2820513 2:11.823204 3:0.2820513 4:21.562387 #Q8RH11
-0.00052912520695314047003421364934184 1:0.1025641 2:11.340674 3:0.1025641 4:21.03627 #SRS063272.35124
0.00059270935104009019132181856903685 1:0.1923077 2:11.855833 3:0.1923077 4:21.937601 #Q9JZW0
0.00059270935104009019132181856903685 1:0.23076923 2:11.87006 3:0.23076923 4:21.837133 #P0A0U7
-0.00059270935104009019132181856903685 1:0.14102565 2:13.611592 3:0.14102565 4:30.442432 #SRS063272.7425
0.00059270935104009019132181856903685 1:0.089743592 2:11.790447 3:0.089743592 4:22.823048 #Q8NZ00
-0.00059270935104009019132181856903685 1:0.14102565 2:11.37244 3:0.14102565 4:20.708368 #SRS014126.12401
0.00059270935104009019132181856903685 1:0.16666667 2:11.917017 3:0.16666667 4:22.273746 #B3H1K7
0.00059270935104009019132181856903685 1:0.025641026 2:11.505961 3:0.025641026 4:51.214077 #Q9CKF7
-0.00059270935104009019132181856903685 1:0.12820514 2:11.337071 3:0.12820514 4:20.716406 #SRS017127.4017
0.00059270935104009019132181856903685 1:0.15384616 2:11.93587 3:0.15384616 4:22.427456 #Q5M1Y4
-0.00059270935104009019132181856903685 1:0.11538462 2:8.7864208 3:0.11538462 4:14.273136 #SRS013711.22929
0.00059270935104009019132181856903685 1:0.15384616 2:11.945991 3:0.15384616 4:22.467686 #Q9K0N0
-0.00059270935104009019132181856903685 1:0.11538462 2:8.8580847 3:0.11538462 4:14.425013 #SRS050029.44047
0.00059270935104009019132181856903685 1:0.23076923 2:11.994952 3:0.23076923 4:22.239132 #Q9JYJ3
-0.00059270935104009019132181856903685 1:0.12820514 2:15.005712 3:0.12820514 4:42.941902 #SRS050628.19059
0.00059270935104009019132181856903685 1:0.07692308 2:11.833722 3:0.07692308 4:23.360207 #Q8DS85
-0.00059270935104009019132181856903685 1:0.14102565 2:11.305508 3:0.14102565 4:20.49633 #SRS017215.48944
0.00059270935104009019132181856903685 1:0.064102568 2:11.780414 3:0.064102568 4:23.759123 #A7ZAZ7
-0.00056551970724538769275113736512139 1:0.1025641 2:11.267084 3:0.1025641 4:20.799465 #SRS016600.5645
-0.00059270935104009019132181856903685 1:0.14102565 2:11.297064 3:0.14102565 4:20.471972 #SRS020858.8492
-0.00059270935104009019132181856903685 1:0.14102565 2:12.812952 3:0.14102565 4:26.138567 #SRS023987.35402
0.00059270935104009019132181856903685 1:0.07692308 2:12.838766 3:0.07692308 4:28.184107 #Q8RGW9
0.00059270935104009019132181856903685 1:0.24358974 2:12.038302 3:0.24358974 4:22.346104 #Q5F5D6
-0.00059270935104009019132181856903685 1:0.16666667 2:11.173855 3:0.16666667 4:19.918348 #SRS019329.12025
-0.00059270935104009019132181856903685 1:0.21794872 2:17.996679 3:0.21794872 4:166.67821 #SRS050029.451
0.00059270935104009019132181856903685 1:0.025641026 2:11.514971 3:0.025641026 4:51.509399 #Q5XCJ9
0.00059270935104009019132181856903685 1:0.66666669 2:18.684587 3:0.66666669 4:343.13583 #Q04ML5
0.00059270935104009019132181856903685 1:0.25641027 2:12.049439 3:0.25641027 4:22.347935 #Q8RGJ4
-0.00059270935104009019132181856903685 1:0.051282052 2:16.42502 3:0.051282052 4:234.19185 #SRS017537.1116
0.00059270935104009019132181856903685 1:0.07692308 2:11.924086 3:0.07692308 4:23.739426 #Q8CWY6
0.00059270935104009019132181856903685 1:0.29487181 2:12.087857 3:0.29487181 4:22.396927 #Q8RG52
-0.00059270935104009019132181856903685 1:0.051282052 2:16.422203 3:0.051282052 4:232.48354 #SRS055118.2237
0.00059270935104009019132181856903685 1:0.5 2:18.618023 3:0.5 4:331.16162 #Q97NC9
-0.00059270935104009019132181856903685 1:0.21794872 2:10.415677 3:0.21794872 4:17.663841 #SRS063287.19086
-0.00059270935104009019132181856903685 1:0.064102568 2:16.896662 3:0.064102568 4:227.01933 #SRS045049.55233
-0.00059270935104009019132181856903685 1:0.14102565 2:11.271914 3:0.14102565 4:20.392633 #SRS052874.23133
0.00059270935104009019132181856903685 1:0.37179488 2:18.55764 3:0.37179488 4:329.12122 #Q04HZ0
0.00059270935104009019132181856903685 1:0.16666667 2:12.085954 3:0.16666667 4:22.87071 #Q9ZJ00
-0.00056868618604142932848599656381339 1:0.051282052 2:16.40888 3:0.051282052 4:225.39331 #SRS011247.2418
0.00059270935104009019132181856903685 1:0.025641026 2:12.556363 3:0.025641026 4:163.96307 #Q8DT53
-0.00059270935104009019132181856903685 1:0.11538462 2:17.531891 3:0.11538462 4:173.39928 #SRS019221.6721
-0.00059270935104009019132181856903685 1:0.12820514 2:14.054432 3:0.12820514 4:33.862255 #SRS016349.8268
-0.00059270935104009019132181856903685 1:0.089743592 2:17.399731 3:0.089743592 4:219.85567 #SRS023591.841
0.00059270935104009019132181856903685 1:0.20512821 2:12.151862 3:0.20512821 4:22.894285 #A8AY34
0.00059270935104009019132181856903685 1:0.75641024 2:18.692068 3:0.75641024 4:327.04977 #Q04I74
-0.00059270935104009019132181856903685 1:0.16666667 2:18.001652 3:0.16666667 4:211.96027 #SRS013711.1004
0.00059270935104009019132181856903685 1:0.051282052 2:12.022453 3:0.051282052 4:26.09981 #A6VQC3
-0.00059270935104009019132181856903685 1:0.20512821 2:10.135154 3:0.20512821 4:16.988146 #SRS019976.22039
0.00059270935104009019132181856903685 1:0.32051283 2:12.182232 3:0.32051283 4:22.676264 #Q9K0Y9
0.00059270935104009019132181856903685 1:0.71794873 2:18.681868 3:0.71794873 4:318.61346 #Q04KF8
0.00059270935104009019132181856903685 1:0.78205127 2:18.691429 3:0.78205127 4:319.20844 #Q97R83
0.00059270935104009019132181856903685 1:0.24358974 2:12.265665 3:0.24358974 4:23.143673 #A8AW14
-0.00059269317857294986917615631227818 1:0.051282052 2:16.405848 3:0.051282052 4:223.87952 #SRS024377.8702
-0.00059270935104009019132181856903685 1:0.16666667 2:10.635268 3:0.16666667 4:18.390938 #SRS021473.5059
0.00059270935104009019132181856903685 1:0.14102565 2:12.233567 3:0.14102565 4:23.650663 #A3CPH5
-0.00056964626481840596045058688901008 1:0.03846154 2:15.457845 3:0.03846154 4:227.9863 #SRS016600.1405
-0.00059270935104009019132181856903685 1:0.15384616 2:12.068878 3:0.15384616 4:22.908773 #SRS011310.11125
0.00059270935104009019132181856903685 1:0.32051283 2:12.305882 3:0.32051283 4:23.113869 #Q9JTM0
-0.00059270935104009019132181856903685 1:0.15384616 2:11.096853 3:0.15384616 4:19.753138 #SRS014686.22394
0.00059270935104009019132181856903685 1:0.57692307 2:18.636438 3:0.57692307 4:314.03146 #Q97S25
-0.00059270935104009019132181856903685 1:0.16666667 2:10.432468 3:0.16666667 4:17.855814 #SRS022721.4289
-0.00059270935104009019132181856903685 1:0.07692308 2:17.172394 3:0.07692308 4:214.3354 #SRS018329.3720
0.00059270935104009019132181856903685 1:0.32051283 2:12.484075 3:0.32051283 4:23.766907 #Q8RHF4
-0.00059270935104009019132181856903685 1:0.07692308 2:17.152601 3:0.07692308 4:207.07654 #SRS015436.20741
0.00059270935104009019132181856903685 1:0.03846154 2:12.065098 3:0.03846154 4:29.800348 #Q9A1K1
0.00059270935104009019132181856903685 1:0.6025641 2:18.637995 3:0.6025641 4:302.45197 #P65239
-2.7867703074390071322011253052153e-06 1:0.025641026 2:12.682506 3:0.025641026 4:241.65276 #SRS016196.497
0.00059270935104009019132181856903685 1:0.16666667 2:12.505856 3:0.16666667 4:24.4958 #Q9AET4
-0.00059157928240760604410297673894092 1:0.051282052 2:16.385794 3:0.051282052 4:214.52968 #SRS021473.2664
0.00059270935104009019132181856903685 1:0.51282054 2:18.597893 3:0.51282054 4:296.50806 #Q97SG0
-0.00059270935104009019132181856903685 1:0.15384616 2:10.764387 3:0.15384616 4:18.815685 #SRS017080.25448
0.00059270935104009019132181856903685 1:0.12820514 2:12.467845 3:0.12820514 4:24.806433 #P44735
-0.00059270935104009019132181856903685 1:0.15384616 2:10.632999 3:0.15384616 4:18.44561 #SRS023987.18569
-0.00059270935104009019132181856903685 1:0.15384616 2:10.370275 3:0.15384616 4:17.739706 #SRS013506.34526
-3.6132051399684339543227906688116e-05 1:0.089743592 2:6.1046567 3:0.089743592 4:9.9386549 #SRS022625.33129
0.00059270935104009019132181856903685 1:0.65384614 2:18.649157 3:0.65384614 4:296.33749 #P35597
0.00059270935104009019132181856903685 1:0.025641026 2:12.50631 3:0.025641026 4:145.78934 #C0M858
0.00059270935104009019132181856903685 1:0.29487181 2:12.581039 3:0.29487181 4:24.199287 #Q8RHK0
0.00059270935104009019132181856903685 1:0.16666667 2:12.539123 3:0.16666667 4:24.635643 #Q9K063
-0.00059270935104009019132181856903685 1:0.089743592 2:17.238619 3:0.089743592 4:170.55042 #SRS020858.8229
-0.00059270935104009019132181856903685 1:0.14102565 2:11.145345 3:0.14102565 4:19.994856 #SRS045049.54416
-0.00059270935104009019132181856903685 1:0.12820514 2:11.250403 3:0.12820514 4:20.444498 #SRS063272.35101
-0.00059270935104009019132181856903685 1:0.11538462 2:10.504826 3:0.11538462 4:18.359905 #SRS014472.2586
-0.00059270935104009019132181856903685 1:0.07692308 2:17.151661 3:0.07692308 4:206.74983 #SRS021473.5569
0.00059270935104009019132181856903685 1:0.42307693 2:18.557272 3:0.42307693 4:292.28616 #Q04JB0
-0.00059270935104009019132181856903685 1:0.12820514 2:14.251838 3:0.12820514 4:35.440708 #SRS013506.39375
0.00059270935104009019132181856903685 1:0.20512821 2:12.578559 3:0.20512821 4:24.531897 #A3CL27
0.00059270935104009019132181856903685 1:0.51282054 2:18.585272 3:0.51282054 4:285.41763 #Q04IM6
-0.00059270935104009019132181856903685 1:0.14102565 2:11.10577 3:0.14102565 4:19.868856 #SRS017127.8595
0.00059270935104009019132181856903685 1:0.11538462 2:12.512213 3:0.11538462 4:25.229925 #A3N3J9
-0.00059249397938024653265109975563973 1:0.051282052 2:16.367174 3:0.051282052 4:206.91972 #SRS016196.912
0.00059270935104009019132181856903685 1:0.62820512 2:18.625668 3:0.62820512 4:282.44409 #P18766
0.00059270935104009019132181856903685 1:0.24358974 2:12.609654 3:0.24358974 4:24.473509 #Q9JXM4
-0.00030904110600216464464773391540575 1:0.051282052 2:16.354662 3:0.051282052 4:202.43867 #SRS049283.88
-0.00059270935104009019132181856903685 1:0.14102565 2:11.085563 3:0.14102565 4:19.808172 #SRS052874.18682
-0.00059270935104009019132181856903685 1:0.15384616 2:10.519232 3:0.15384616 4:18.144003 #SRS018149.4281
0.00059270935104009019132181856903685 1:0.6025641 2:18.615149 3:0.6025641 4:281.70129 #P35598
0.00059270935104009019132181856903685 1:0.11538462 2:12.571859 3:0.11538462 4:25.499741 #Q8E2D9
-0.00059270935104009019132181856903685 1:0.12820514 2:14.293509 3:0.12820514 4:35.775925 #SRS017013.11324
0.00059270935104009019132181856903685 1:0.12820514 2:12.684087 3:0.12820514 4:25.776421 #Q9K1R0
-0.00059270935104009019132181856903685 1:0.11538462 2:10.358798 3:0.11538462 4:17.964682 #SRS015436.18827
-0.00059270935104009019132181856903685 1:0.064102568 2:16.79866 3:0.064102568 4:189.94386 #SRS017687.14623
0.00059270935104009019132181856903685 1:0.03846154 2:12.065486 3:0.03846154 4:29.802723 #C5BER5
0.00059270935104009019132181856903685 1:0.69230771 2:18.640144 3:0.69230771 4:280.198 #B2IPX4
-0.00059270935104009019132181856903685 1:0.11538462 2:10.30893 3:0.11538462 4:17.82346 #SRS011310.12464
-6.1141100270666569327371320241582e-06 1:0.089743592 2:6.9365602 3:0.089743592 4:11.134767 #SRS063272.26202
0.00059270935104009019132181856903685 1:0.82051283 2:18.654106 3:0.82051283 4:278.07956 #P63733
0.00059270935104009019132181856903685 1:0.064102568 2:12.493977 3:0.064102568 4:27.190434 #A1TEP3
-5.0342470616335927013906825777667e-05 1:0.089743592 2:5.5968432 3:0.089743592 4:9.2839794 #SRS013945.24237
-0.00059270935104009019132181856903685 1:0.11538462 2:11.229354 3:0.11538462 4:20.506718 #SRS018149.11107
0.00059270935104009019132181856903685 1:0.03846154 2:12.102489 3:0.03846154 4:30.075487 #A6VKR5
-0.00059270935104009019132181856903685 1:0.14102565 2:10.816849 3:0.14102565 4:19.023888 #SRS011310.44865
0.00059270935104009019132181856903685 1:0.66666669 2:18.627087 3:0.66666669 4:274.28427 #Q04JW0
-0.00059270935104009019132181856903685 1:0.12820514 2:11.099829 3:0.12820514 4:19.964348 #SRS015374.16237
0.00059270935104009019132181856903685 1:0.025641026 2:12.436693 3:0.025641026 4:127.12464 #P57877
0.00059270935104009019132181856903685 1:0.30769232 2:12.811663 3:0.30769232 4:25.121216 #Q8RDR4
0.00059270935104009019132181856903685 1:0.03846154 2:12.387946 3:0.03846154 4:32.432346 #A4VYM0
-0.00059270935104009019132181856903685 1:0.1025641 2:7.8306718 3:0.1025641 4:12.548278 #SRS050628.13351
0.00059270935104009019132181856903685 1:0.025641026 2:12.391446 3:0.025641026 4:117.51238 #A6VM63
-0.00059270935104009019132181856903685 1:0.025641026 2:12.694539 3:0.025641026 4:253.53616 #SRS022625.12668
-0.00059270935104009019132181856903685 1:0.15384616 2:10.224386 3:0.15384616 4:17.361692 #SRS023987.5739
0.00059270935104009019132181856903685 1:0.71794873 2:18.635471 3:0.71794873 4:272.6814 #Q04HT8
-0.00057542670020893638138659298419952 1:0.1025641 2:11.253599 3:0.1025641 4:20.756018 #SRS018149.52336
0.00059270935104009019132181856903685 1:0.62820512 2:18.61211 3:0.62820512 4:272.0831 #Q97QL2
-0.00059055654126670409365118530331529 1:0.064102568 2:1.7157639 3:0.064102568 4:4.7750368 #SRS011247.19091
