SVM-light Version V6.02
0 # kernel type
3 # kernel parameter -d 
1 # kernel parameter -g 
1 # kernel parameter -s 
1 # kernel parameter -r 
empty# kernel parameter -u 
4 # highest feature index 
8457 # number of training documents 
1601 # number of support vectors plus 1 
0.99858024 # threshold b, each following line is a SV (starting with alpha*y)
-0.00059837660932080016015083279157238 1:0.03846154 2:9.1107407 3:0.03846154 4:16.642401 #SRS015154.17076
0.00059837660932080016015083279157238 1:0.41025642 2:18.574612 3:0.41025642 4:320.16608 #Q97Q48
0.00059837660932080016015083279157238 1:0.53846157 2:16.302441 3:0.53846157 4:54.363155 #P44424
0.00059837660932080016015083279157238 1:0.012820513 2:0.25462529 3:0.012820513 4:2.7338765 #Q9AGW0
-0.00059837660932080016015083279157238 1:0.1025641 2:16.482016 3:0.1025641 4:79.199829 #SRS018149.8417
0.00059837660932080016015083279157238 1:0.8974359 2:18.743534 3:0.8974359 4:523.21558 #Q8DNT8
-0.00059837660932080016015083279157238 1:0.089743592 2:4.0232038 3:0.089743592 4:7.3708591 #SRS063272.31778
-0.00059837660932080016015083279157238 1:0.34615386 2:11.834297 3:0.34615386 4:21.510735 #SRS022721.8133
-0.00059837660932080016015083279157238 1:0.38461539 2:12.246865 3:0.38461539 4:22.830534 #SRS017215.16986
-0.00059837660932080016015083279157238 1:0.47435898 2:14.488233 3:0.47435898 4:34.072559 #SRS022532.15149
-0.00052536540212470578953274369382598 1:0.051282052 2:16.558443 3:0.051282052 4:668.84088 #SRS019872.14710
0.00059837660932080016015083279157238 1:0.012820513 2:0.37452322 3:0.012820513 4:3.0238924 #A6LFP0
-0.00059837660932080016015083279157238 1:0.20512821 2:8.6390123 3:0.20512821 4:13.758585 #SRS017013.49270
0.00059837660932080016015083279157238 1:0.012820513 2:5.9336572 3:0.012820513 4:445.89706 #Q8DRR1
-0.00059837660932080016015083279157238 1:0.2820513 2:11.370198 3:0.2820513 4:20.173542 #SRS019976.15595
-0.00059837660932080016015083279157238 1:0.24358974 2:10.616163 3:0.24358974 4:18.141333 #SRS052874.10794
-0.00059837660932080016015083279157238 1:0.24358974 2:10.337169 3:0.24358974 4:17.411598 #SRS022532.4160
-0.00059837660932080016015083279157238 1:0.25641027 2:9.954504 3:0.25641027 4:16.474226 #SRS017013.9573
-0.00059837660932080016015083279157238 1:0.25641027 2:9.8830309 3:0.25641027 4:16.303904 #SRS015745.4411
0.00059837660932080016015083279157238 1:0.67948717 2:17.188719 3:0.67948717 4:74.563286 #P43851
-0.00059837660932080016015083279157238 1:0.17948718 2:7.5392098 3:0.17948718 4:11.890944 #SRS017215.24315
0.00059837660932080016015083279157238 1:0.012820513 2:1.3850054 3:0.012820513 4:4.690115 #P57925
-0.00059837660932080016015083279157238 1:0.14102565 2:14.558387 3:0.14102565 4:37.590214 #SRS017013.8256
-0.00059837660932080016015083279157238 1:0.20512821 2:8.4895592 3:0.20512821 4:13.483276 #SRS045049.53477
0.00059837660932080016015083279157238 1:0.69230771 2:18.717445 3:0.69230771 4:435.0723 #O69076
-0.00059837660932080016015083279157238 1:0.1923077 2:8.1465006 3:0.1923077 4:12.892609 #SRS013945.55134
0.00059837660932080016015083279157238 1:0.012820513 2:0.42745546 3:0.012820513 4:3.1390576 #Q8R659
-0.00059837660932080016015083279157238 1:0.47435898 2:15.798783 3:0.47435898 4:46.91531 #SRS017013.38456
0.00059837660932080016015083279157238 1:0.012820513 2:5.9309592 3:0.012820513 4:347.15628 #Q24QE3
0.00059837660932080016015083279157238 1:0.52564102 2:18.657036 3:0.52564102 4:412.51877 #Q97N51
0.00059837660932080016015083279157238 1:0.71794873 2:18.717562 3:0.71794873 4:404.69308 #Q8DQY5
0.00059837660932080016015083279157238 1:0.012820513 2:0.53074753 3:0.012820513 4:3.3449543 #P52357
-0.00059837660932080016015083279157238 1:0.11538462 2:8.0897598 3:0.11538462 4:12.945851 #SRS024017.10232
-0.00059837660932080016015083279157238 1:0.57692307 2:15.382077 3:0.57692307 4:41.692638 #SRS023987.4839
-0.00059837660932080016015083279157238 1:0.025641026 2:12.752851 3:0.025641026 4:556.4082 #SRS016088.7201
0.00059837660932080016015083279157238 1:0.26923078 2:17.337616 3:0.26923078 4:88.598534 #Q5M283
0.00059837660932080016015083279157238 1:0.012820513 2:0.57804948 3:0.012820513 4:3.4295981 #Q8R678
-0.00023148301554365424692605301970616 1:0.064102568 2:15.30923 3:0.064102568 4:60.267212 #SRS011090.8101
-0.00059837660932080016015083279157238 1:0.35897437 2:15.846797 3:0.35897437 4:48.168121 #SRS013881.34253
0.00059837660932080016015083279157238 1:0.2820513 2:16.628284 3:0.2820513 4:63.705669 #A6VP83
-0.00059837660932080016015083279157238 1:0.051282052 2:0.19522576 3:0.051282052 4:2.5470235 #SRS017215.30351
0.00059837660932080016015083279157238 1:0.1025641 2:17.000975 3:0.1025641 4:112.44243 #P36432
0.00059837660932080016015083279157238 1:0.012820513 2:0.67464989 3:0.012820513 4:3.5975296 #A7ZEZ5
0.00059837660932080016015083279157238 1:0.17948718 2:17.490282 3:0.17948718 4:113.22713 #Q97QZ1
0.00059837660932080016015083279157238 1:0.74358976 2:17.189354 3:0.74358976 4:74.261154 #A5UG09
0.00059837660932080016015083279157238 1:0.012820513 2:0.69646788 3:0.012820513 4:3.6353936 #A3N0G0
-0.00059837660932080016015083279157238 1:0.48717949 2:15.651309 3:0.48717949 4:45.013039 #SRS016039.10370
0.00059837660932080016015083279157238 1:0.43589744 2:17.824924 3:0.43589744 4:113.02139 #A5UDE3
0.00059837660932080016015083279157238 1:0.012820513 2:0.92244709 3:0.012820513 4:3.9931793 #Q8RGE3
0.00059837660932080016015083279157238 1:0.67948717 2:17.819016 3:0.67948717 4:105.92483 #P44644
0.00059837660932080016015083279157238 1:0.012820513 2:1.0080792 3:0.012820513 4:4.123807 #A6VNB3
0.00059837660932080016015083279157238 1:0.025641026 2:1.3431723 3:0.025641026 4:4.4114795 #Q65TI2
-0.00032612772155915514815660571912304 1:0.012820513 2:4.1984329 3:0.012820513 4:12.722088 #SRS050029.18819
0.00059837660932080016015083279157238 1:0.25641027 2:10.122539 3:0.25641027 4:16.869408 #A3CRB8
-0.00059837660932080016015083279157238 1:0.14102565 2:12.592567 3:0.14102565 4:25.147898 #SRS045049.50871
0.00059837660932080016015083279157238 1:0.21794872 2:7.9402862 3:0.21794872 4:12.523615 #Q8R679
0.00059837660932080016015083279157238 1:0.35897437 2:10.943272 3:0.35897437 4:18.881546 #Q8RI39
0.00059837660932080016015083279157238 1:0.012820513 2:1.1185832 3:0.012820513 4:4.2895694 #Q93GW2
0.00059837660932080016015083279157238 1:0.34615386 2:16.685221 3:0.34615386 4:63.739944 #Q9CN06
-0.00059837660932080016015083279157238 1:0.03846154 2:0.2135157 3:0.03846154 4:2.6035681 #SRS018149.37974
0.00059837660932080016015083279157238 1:0.1923077 2:10.92775 3:0.1923077 4:19.09716 #Q8RE57
0.00059837660932080016015083279157238 1:0.012820513 2:1.2179308 3:0.012820513 4:4.440567 #A4W1V9
-0.00059837660932080016015083279157238 1:0.03846154 2:0.1437065 3:0.03846154 4:2.345582 #SRS017127.17632
0.00059837660932080016015083279157238 1:0.12820514 2:16.593287 3:0.12820514 4:75.630783 #Q5LXQ9
-0.00059837660932080016015083279157238 1:0.064102568 2:16.477659 3:0.064102568 4:125.63296 #SRS022532.9262
0.00059837660932080016015083279157238 1:0.32051283 2:12.182232 3:0.32051283 4:22.676264 #Q9K0Y9
0.00059837660932080016015083279157238 1:0.025641026 2:1.4426373 3:0.025641026 4:4.5269804 #B8F6L5
0.00059837660932080016015083279157238 1:0.11538462 2:4.2885575 3:0.11538462 4:7.6595435 #Q8GR69
0.00059837660932080016015083279157238 1:0.25641027 2:9.368247 3:0.25641027 4:15.175466 #Q8R6G5
0.00059837660932080016015083279157238 1:0.11538462 2:5.6740866 3:0.11538462 4:9.3403063 #A8AXY8
-0.00059837660932080016015083279157238 1:0.1923077 2:6.8658996 3:0.1923077 4:10.87437 #SRS017810.24207
0.00059837660932080016015083279157238 1:0.47435898 2:15.103926 3:0.47435898 4:39.166153 #Q57184
0.00059837660932080016015083279157238 1:0.012820513 2:1.7635005 3:0.012820513 4:5.2953777 #A7GT08
0.00059837660932080016015083279157238 1:0.23076923 2:8.4866161 3:0.23076923 4:13.448249 #A3CQ51
-0.00059837660932080016015083279157238 1:0.025641026 2:12.752802 3:0.025641026 4:553.58044 #SRS011310.9985
0.00059837660932080016015083279157238 1:0.32051283 2:8.9340525 3:0.32051283 4:14.24157 #Q8RH57
0.00059837660932080016015083279157238 1:0.58974361 2:17.11524 3:0.58974361 4:73.04985 #P45266
0.00059837660932080016015083279157238 1:0.82051283 2:18.728783 3:0.82051283 4:403.92947 #P67595
0.00059837660932080016015083279157238 1:0.064102568 2:2.3201296 3:0.064102568 4:5.4391704 #Q8RF63
0.00059837660932080016015083279157238 1:0.012820513 2:1.7818495 3:0.012820513 4:5.3260827 #A0RNU3
-0.00059837660932080016015083279157238 1:0.58974361 2:17.544352 3:0.58974361 4:90.206551 #SRS015374.435
0.00059837660932080016015083279157238 1:0.57692307 2:17.109516 3:0.57692307 4:72.987541 #P43819
-0.00059837660932080016015083279157238 1:0.23076923 2:10.524556 3:0.23076923 4:17.925365 #SRS023534.5345
0.00059837660932080016015083279157238 1:0.57692307 2:18.673973 3:0.57692307 4:397.01248 #Q8DRF9
-0.00059837660932080016015083279157238 1:0.56410259 2:18.682663 3:0.56410259 4:518.69128 #SRS063272.41172
0.00059837660932080016015083279157238 1:0.012820513 2:1.9400253 3:0.012820513 4:5.5932527 #C0QYF1
-0.00059837660932080016015083279157238 1:0.089743592 2:16.531687 3:0.089743592 4:88.625847 #SRS022625.7021
0.00059837660932080016015083279157238 1:0.14102565 2:17.228523 3:0.14102565 4:105.63939 #A6VL59
-0.00059837660932080016015083279157238 1:0.17948718 2:5.2612133 3:0.17948718 4:8.7927208 #SRS045262.45303
-0.00059837660932080016015083279157238 1:0.14102565 2:6.182292 3:0.14102565 4:9.9650755 #SRS011247.718
-0.00059837660932080016015083279157238 1:0.14102565 2:6.4109311 3:0.14102565 4:10.282063 #SRS018149.74548
-0.00059837660932080016015083279157238 1:0.16666667 2:7.8114586 3:0.16666667 4:12.356519 #SRS019329.32505
-0.00059837660932080016015083279157238 1:0.1923077 2:8.5127659 3:0.1923077 4:13.541555 #SRS017810.40885
-0.00059837660932080016015083279157238 1:0.42307693 2:17.727949 3:0.42307693 4:105.50507 #SRS015646.18069
-0.00059837660932080016015083279157238 1:0.5 2:17.365778 3:0.5 4:83.016243 #SRS015436.4623
0.00059837660932080016015083279157238 1:0.012820513 2:1.9408407 3:0.012820513 4:5.5947671 #Q5FA19
0.00059837660932080016015083279157238 1:0.64102566 2:17.811113 3:0.64102566 4:106.03931 #P45051
0.00059837660932080016015083279157238 1:0.6025641 2:17.786474 3:0.6025641 4:105.18701 #P43700
-0.00059837660932080016015083279157238 1:0.064102568 2:16.479235 3:0.064102568 4:125.80486 #SRS022625.9757
0.00059837660932080016015083279157238 1:0.37179488 2:18.583155 3:0.37179488 4:387.10895 #Q03727
-0.00059837660932080016015083279157238 1:0.34615386 2:12.418529 3:0.34615386 4:23.481009 #SRS013945.31775
0.00059837660932080016015083279157238 1:0.012820513 2:2.0775344 3:0.012820513 4:5.8494601 #P0A2V4
-0.00059837660932080016015083279157238 1:0.35897437 2:12.31214 3:0.35897437 4:23.085093 #SRS022532.7667
-0.00059837660932080016015083279157238 1:0.47435898 2:17.411266 3:0.47435898 4:85.538811 #SRS050628.166
-0.00059403006014213666219347942387685 1:0.03846154 2:12.3209 3:0.03846154 4:31.861464 #SRS019976.442
0.00059837660932080016015083279157238 1:0.1923077 2:12.110161 3:0.1923077 4:22.79958 #Q5F8M6
-0.00017486237845787400146946310997009 1:0.025641026 2:0.10452674 3:0.025641026 4:2.163872 #SRS063287.150
-0.00059837660932080016015083279157238 1:0.58974361 2:16.91865 3:0.58974361 4:67.449432 #SRS019329.12085
0.00059837660932080016015083279157238 1:0.012820513 2:2.1011238 3:0.012820513 4:5.8959513 #Q93GF1
0.00059837660932080016015083279157238 1:0.75641024 2:17.799259 3:0.75641024 4:103.61703 #P45171
0.00059837660932080016015083279157238 1:0.24358974 2:17.229378 3:0.24358974 4:85.262817 #Q5M2S3
-0.00059837660932080016015083279157238 1:0.025641026 2:0.11064924 3:0.025641026 4:2.1951299 #SRS018149.34325
0.00059837660932080016015083279157238 1:0.012820513 2:2.2389817 3:0.012820513 4:6.1663966 #P03707
-0.00059837660932080016015083279157238 1:0.62820512 2:16.712517 3:0.62820512 4:62.09285 #SRS022532.20092
0.00059837660932080016015083279157238 1:0.15384616 2:16.377985 3:0.15384616 4:64.795601 #Q5M2T6
0.00059837660932080016015083279157238 1:0.025641026 2:2.2751067 3:0.025641026 4:5.5039287 #Q7VLL3
0.00059837660932080016015083279157238 1:0.26923078 2:18.09643 3:0.26923078 4:166.27652 #A4W1V7
0.00059837660932080016015083279157238 1:0.012820513 2:2.3143866 3:0.012820513 4:6.3184786 #B7VJT0
0.00059837660932080016015083279157238 1:0.82051283 2:18.138727 3:0.82051283 4:134.98643 #P43818
0.00059837660932080016015083279157238 1:0.75641024 2:17.930719 3:0.75641024 4:113.98988 #O05074
0.00059837660932080016015083279157238 1:0.79487181 2:18.193384 3:0.79487181 4:142.77705 #A3N2U4
0.00059837660932080016015083279157238 1:0.70512819 2:18.145332 3:0.70512819 4:137.57381 #P45125
0.00059837660932080016015083279157238 1:0.64102566 2:18.143034 3:0.64102566 4:139.33913 #P43803
0.00059837660932080016015083279157238 1:0.051282052 2:2.655308 3:0.051282052 4:5.8203673 #Q8REJ7
0.00059837660932080016015083279157238 1:0.064102568 2:2.9029119 3:0.064102568 4:6.0909452 #Q8R6C8
0.00059837660932080016015083279157238 1:0.46153846 2:14.872023 3:0.46153846 4:37.14399 #A8AUJ8
0.00059837660932080016015083279157238 1:0.38461539 2:13.213908 3:0.38461539 4:26.733143 #Q7DDS7
0.00059837660932080016015083279157238 1:0.62820512 2:16.770746 3:0.62820512 4:63.350094 #P44845
0.00059837660932080016015083279157238 1:0.025641026 2:3.0414181 3:0.025641026 4:6.4789948 #A0LZH8
0.00059837660932080016015083279157238 1:0.48717949 2:16.796974 3:0.48717949 4:65.123543 #Q4QN65
-0.00059837660932080016015083279157238 1:0.025641026 2:12.751395 3:0.025641026 4:490.59311 #SRS045254.15138
-0.00059837660932080016015083279157238 1:0.025641026 2:0.12909494 3:0.025641026 4:2.2794316 #SRS018149.64573
-0.00059837660932080016015083279157238 1:0.58974361 2:16.763498 3:0.58974361 4:63.470818 #SRS017687.40741
0.00059837660932080016015083279157238 1:0.012820513 2:5.9186506 3:0.012820513 4:239.79768 #Q9CDZ7
0.00059837660932080016015083279157238 1:0.012820513 2:2.544312 3:0.012820513 4:6.8259792 #Q487R0
0.00059837660932080016015083279157238 1:0.83333331 2:17.879959 3:0.83333331 4:109.19846 #P44328
0.00059837660932080016015083279157238 1:0.03846154 2:3.2585235 3:0.03846154 4:6.5707955 #A3MZ05
-0.00059837660932080016015083279157238 1:0.025641026 2:0.14160013 3:0.025641026 4:2.3405476 #SRS018149.56426
0.00059837660932080016015083279157238 1:0.58974361 2:17.777918 3:0.58974361 4:104.90472 #P45052
-0.00059837660932080016015083279157238 1:0.3974359 2:17.411171 3:0.3974359 4:86.93631 #SRS048719.26425
-0.00059837660932080016015083279157238 1:0.58974361 2:16.723074 3:0.58974361 4:62.610134 #SRS011090.4053
0.00059837660932080016015083279157238 1:0.012820513 2:2.5892591 3:0.012820513 4:6.9289269 #Q9JXR2
0.00059837660932080016015083279157238 1:0.34615386 2:17.35738 3:0.34615386 4:85.798264 #A8AXB9
-0.00059837660932080016015083279157238 1:0.025641026 2:0.14989844 3:0.025641026 4:2.3707821 #SRS018149.36572
-0.00059837660932080016015083279157238 1:0.51282054 2:16.972525 3:0.51282054 4:69.501305 #SRS022145.3581
0.00059837660932080016015083279157238 1:0.012820513 2:2.6001031 3:0.012820513 4:6.9544039 #Q7VKR6
-0.00059837660932080016015083279157238 1:0.025641026 2:0.15042286 3:0.025641026 4:2.373333 #SRS017127.25408
0.00059837660932080016015083279157238 1:0.025641026 2:3.158128 3:0.025641026 4:6.6296687 #P37518
0.00059837660932080016015083279157238 1:0.012820513 2:2.6504223 3:0.012820513 4:7.0719786 #Q6NJ38
-0.00059837660932080016015083279157238 1:0.025641026 2:0.15542768 3:0.025641026 4:2.397357 #SRS013945.56803
0.00059837660932080016015083279157238 1:0.11538462 2:17.062792 3:0.11538462 4:107.21114 #Q5M355
-0.00059837660932080016015083279157238 1:0.38461539 2:15.414664 3:0.38461539 4:42.646484 #SRS014472.7967
-0.00059837660932080016015083279157238 1:0.52564102 2:15.350088 3:0.52564102 4:41.48328 #SRS023987.34200
0.00059837660932080016015083279157238 1:0.012820513 2:2.7273529 3:0.012820513 4:7.2533555 #Q8RH03
-0.00059837660932080016015083279157238 1:0.025641026 2:0.17009734 3:0.025641026 4:2.4575973 #SRS018149.35966
0.00059837660932080016015083279157238 1:0.012820513 2:2.761951 3:0.012820513 4:7.3333983 #Q8DU24
-0.00059837660932080016015083279157238 1:0.012820513 2:5.2347479 3:0.012820513 4:26.287817 #SRS017215.26112
-0.00059837660932080016015083279157238 1:0.25641027 2:12.76727 3:0.25641027 4:25.080753 #SRS015436.6078
-0.00059837660932080016015083279157238 1:0.025641026 2:0.17533247 3:0.025641026 4:2.4782369 #SRS063287.24668
0.00059837660932080016015083279157238 1:0.16666667 2:16.461124 3:0.16666667 4:65.666512 #Q5M6H2
0.00059837660932080016015083279157238 1:0.025641026 2:3.2153358 3:0.025641026 4:6.7082386 #Q8RHB5
-0.00059837660932080016015083279157238 1:0.12820514 2:12.60366 3:0.12820514 4:25.40189 #SRS011090.4464
0.00059837660932080016015083279157238 1:0.025641026 2:3.2957573 3:0.025641026 4:6.8192997 #Q65T71
-0.00059837660932080016015083279157238 1:0.025641026 2:0.17923366 3:0.025641026 4:2.495333 #SRS017013.11012
0.00059837660932080016015083279157238 1:0.34615386 2:16.70961 3:0.34615386 4:64.381317 #Q65R73
0.00059837660932080016015083279157238 1:0.012820513 2:5.9137697 3:0.012820513 4:219.96794 #P72481
-0.00059837660932080016015083279157238 1:0.15384616 2:12.6356 3:0.15384616 4:25.16514 #SRS017127.1574
-0.00059837660932080016015083279157238 1:0.012820513 2:5.2321196 3:0.012820513 4:26.218182 #SRS013711.4485
0.00059837660932080016015083279157238 1:0.051282052 2:3.729893 3:0.051282052 4:7.0892801 #Q8RGE1
-0.00059837660932080016015083279157238 1:0.012820513 2:5.2288837 3:0.012820513 4:26.132889 #SRS015436.13558
0.00059837660932080016015083279157238 1:0.29487181 2:12.581039 3:0.29487181 4:24.199287 #Q8RHK0
-0.00059837660932080016015083279157238 1:0.17948718 2:13.493248 3:0.17948718 4:29.110691 #SRS013711.755
-0.00059837660932080016015083279157238 1:0.089743592 2:12.411372 3:0.089743592 4:25.430973 #SRS045049.53463
0.00059837660932080016015083279157238 1:0.025641026 2:3.5110087 3:0.025641026 4:7.1094971 #A3MYN0
0.00059837660932080016015083279157238 1:0.03846154 2:4.2181301 3:0.03846154 4:7.7567458 #P57031
-0.00059837660932080016015083279157238 1:0.025641026 2:0.18180208 3:0.025641026 4:2.5042007 #SRS013945.49658
-0.00048175135390345243113774387211379 1:0.025641026 2:9.9172573 3:0.025641026 4:26.366751 #SRS013239.8101
0.00059837660932080016015083279157238 1:0.07692308 2:4.49718 3:0.07692308 4:7.9509168 #Q8RGE5
-0.00059788909846852922314042189100292 1:0.012820513 2:5.1519742 3:0.012820513 4:24.154991 #SRS013881.30548
0.00059837660932080016015083279157238 1:0.67948717 2:17.882229 3:0.67948717 4:110.88781 #P44647
0.00059837660932080016015083279157238 1:0.012820513 2:2.8803203 3:0.012820513 4:7.628459 #Q7P097
-0.00059837660932080016015083279157238 1:0.24358974 2:12.462263 3:0.24358974 4:23.880913 #SRS045262.46760
-0.00059837660932080016015083279157238 1:0.025641026 2:0.18475038 3:0.025641026 4:2.514653 #SRS013945.2483
0.00059837660932080016015083279157238 1:0.51282054 2:18.647089 3:0.51282054 4:386.15891 #Q04HV1
-0.00059817090348371348973444128205301 1:0.012820513 2:5.1448922 3:0.012820513 4:23.98337 #SRS050628.62344
-0.00059837660932080016015083279157238 1:0.46153846 2:17.1661 3:0.46153846 4:75.893089 #SRS017080.37010
-0.00059837660932080016015083279157238 1:0.03846154 2:15.582152 3:0.03846154 4:484.48792 #SRS020336.4036
-0.00059837660932080016015083279157238 1:0.025641026 2:0.20062162 3:0.025641026 4:2.5695624 #SRS013945.26102
-0.00059837660932080016015083279157238 1:0.12820514 2:5.6828794 3:0.12820514 4:9.3383112 #SRS045262.42355
-0.00059837660932080016015083279157238 1:0.11538462 2:6.2297721 3:0.11538462 4:10.058663 #SRS015154.11755
-0.00059837660932080016015083279157238 1:0.12820514 2:7.0282745 3:0.12820514 4:11.183095 #SRS019587.38227
-0.00059837660932080016015083279157238 1:0.12820514 2:7.081367 3:0.12820514 4:11.261718 #SRS018149.28418
-0.00059837660932080016015083279157238 1:0.14102565 2:7.7158904 3:0.14102565 4:12.237864 #SRS018149.13629
-0.00059837660932080016015083279157238 1:0.17948718 2:8.4717836 3:0.17948718 4:13.484353 #SRS022145.16836
-0.00059837660932080016015083279157238 1:0.051282052 2:16.55188 3:0.051282052 4:453.00449 #SRS019391.414
-0.00059837660932080016015083279157238 1:0.025641026 2:12.750089 3:0.025641026 4:457.0882 #SRS015745.1303
-0.00059837660932080016015083279157238 1:0.26923078 2:11.881475 3:0.26923078 4:21.77755 #SRS019976.3882
-0.00059837660932080016015083279157238 1:0.21794872 2:10.161064 3:0.21794872 4:17.025579 #SRS018149.19479
-0.00059837660932080016015083279157238 1:0.24358974 2:11.161401 3:0.24358974 4:19.622307 #SRS045049.53066
-0.00059837660932080016015083279157238 1:0.46153846 2:14.480192 3:0.46153846 4:34.035686 #SRS019976.15757
-0.00059837660932080016015083279157238 1:0.25641027 2:13.064275 3:0.25641027 4:26.375011 #SRS063287.18715
-0.00059837660932080016015083279157238 1:0.26923078 2:13.464689 3:0.26923078 4:28.274996 #SRS019221.10829
-0.00059837660932080016015083279157238 1:0.58974361 2:16.698814 3:0.58974361 4:62.038376 #SRS024377.1131
-0.00059837660932080016015083279157238 1:0.21794872 2:12.830123 3:0.21794872 4:25.526941 #SRS011310.41040
-0.00059837660932080016015083279157238 1:0.24358974 2:13.454333 3:0.24358974 4:28.347778 #SRS011247.9346
-0.00059837660932080016015083279157238 1:0.33333334 2:14.037434 3:0.33333334 4:31.357687 #SRS014686.25461
-0.00059837660932080016015083279157238 1:0.43589744 2:18.214638 3:0.43589744 4:163.30479 #SRS049283.1525
-0.00059837660932080016015083279157238 1:0.32051283 2:17.48945 3:0.32051283 4:93.854782 #SRS019872.11519
-0.00059837660932080016015083279157238 1:0.37179488 2:14.207031 3:0.37179488 4:32.350571 #SRS017810.17049
-0.00059837660932080016015083279157238 1:0.41025642 2:17.247034 3:0.41025642 4:79.58503 #SRS015374.2450
0.00059837660932080016015083279157238 1:0.012820513 2:5.9062219 3:0.012820513 4:196.83769 #P0AES7
0.00059837660932080016015083279157238 1:0.012820513 2:2.8879626 3:0.012820513 4:7.6468158 #A7ZCA8
0.00059837660932080016015083279157238 1:0.67948717 2:18.703297 3:0.67948717 4:379.79767 #Q97S93
-0.00059837660932080016015083279157238 1:0.051282052 2:16.546034 3:0.051282052 4:404.70993 #SRS050628.81090
-0.00059837660932080016015083279157238 1:0.29487181 2:12.249474 3:0.29487181 4:22.967617 #SRS020858.8612
-0.00059837660932080016015083279157238 1:0.089743592 2:17.556028 3:0.089743592 4:362.82361 #SRS016600.813
-0.00059837660932080016015083279157238 1:0.025641026 2:12.749234 3:0.025641026 4:439.95834 #SRS050007.1728
-0.00059837660932080016015083279157238 1:0.21794872 2:13.173265 3:0.21794872 4:27.060202 #SRS045262.21807
0.00059837660932080016015083279157238 1:0.75641024 2:18.715464 3:0.75641024 4:376.15427 #Q8CWR0
0.00059837660932080016015083279157238 1:0.012820513 2:3.0195374 3:0.012820513 4:8.0018778 #Q9K118
-0.00059837660932080016015083279157238 1:0.025641026 2:12.748279 3:0.025641026 4:429.55695 #SRS014126.1314
0.00059837660932080016015083279157238 1:0.07692308 2:17.337206 3:0.07692308 4:360.51331 #P0C0C6
0.00059837660932080016015083279157238 1:0.83333331 2:18.719145 3:0.83333331 4:367.61139 #Q97PT4
-0.00059837660932080016015083279157238 1:0.23076923 2:12.076661 3:0.23076923 4:22.522184 #SRS017127.15485
0.00059837660932080016015083279157238 1:0.012820513 2:3.0974348 3:0.012820513 4:8.215498 #P57090
-7.8511775730383433213876998024716e-05 1:0.03846154 2:15.309117 3:0.03846154 4:168.39879 #SRS022625.23891
-0.00059837660932080016015083279157238 1:0.53846157 2:15.560288 3:0.53846157 4:43.760494 #SRS024377.4648
-0.00059837660932080016015083279157238 1:0.24358974 2:11.37203 3:0.24358974 4:20.260818 #SRS052874.12640
-0.00059837660932080016015083279157238 1:0.03846154 2:15.575754 3:0.03846154 4:409.31427 #SRS017687.17778
0.00059837660932080016015083279157238 1:0.012820513 2:3.114362 3:0.012820513 4:8.2653666 #B8F5E2
-0.00059837660932080016015083279157238 1:0.58974361 2:16.429735 3:0.58974361 4:56.369637 #SRS014126.6368
-0.00059837660932080016015083279157238 1:0.38461539 2:14.722941 3:0.38461539 4:36.06168 #SRS018329.883
0.00059837660932080016015083279157238 1:0.61538464 2:18.677076 3:0.61538464 4:362.47687 #P72525
-0.00059837660932080016015083279157238 1:0.20512821 2:10.135154 3:0.20512821 4:16.988146 #SRS019976.22039
-0.00059837660932080016015083279157238 1:0.20512821 2:10.289605 3:0.20512821 4:17.370705 #SRS022532.26818
0.00059837660932080016015083279157238 1:0.012820513 2:3.171505 3:0.012820513 4:8.4365559 #Q5F7G4
-0.00059837660932080016015083279157238 1:0.089743592 2:10.368807 3:0.089743592 4:18.265059 #SRS052874.21402
-0.00059837660932080016015083279157238 1:0.58974361 2:16.202646 3:0.58974361 4:52.453682 #SRS017080.43151
0.00059837660932080016015083279157238 1:0.012820513 2:5.9009266 3:0.012820513 4:183.65895 #P76027
-0.00059837660932080016015083279157238 1:0.025641026 2:12.746997 3:0.025641026 4:410.11456 #SRS019976.1815
-0.00059837660932080016015083279157238 1:0.1923077 2:8.9182148 3:0.1923077 4:14.329844 #SRS063272.41430
0.00059837660932080016015083279157238 1:0.58974361 2:18.66267 3:0.58974361 4:351.55753 #Q97SE7
0.00059837660932080016015083279157238 1:0.012820513 2:3.1842346 3:0.012820513 4:8.4711742 #C0MCV8
-0.00059837660932080016015083279157238 1:0.17948718 2:9.1939096 3:0.17948718 4:14.918324 #SRS018149.10198
0.00059837660932080016015083279157238 1:0.5 2:18.618023 3:0.5 4:331.16162 #Q97NC9
-0.00059837660932080016015083279157238 1:0.17948718 2:9.4507513 3:0.17948718 4:15.465124 #SRS013506.16386
-0.00059837660932080016015083279157238 1:0.025641026 2:12.743728 3:0.025641026 4:380.36234 #SRS017441.14049
-0.00059837660932080016015083279157238 1:0.16666667 2:8.5604944 3:0.16666667 4:13.66681 #SRS019329.12123
-0.00059837660932080016015083279157238 1:0.17948718 2:9.0742702 3:0.17948718 4:14.672874 #SRS063287.13931
0.00059837660932080016015083279157238 1:0.012820513 2:3.2445815 3:0.012820513 4:8.6490765 #C4Z3R4
0.00059837660932080016015083279157238 1:0.025641026 2:4.1473207 3:0.025641026 4:8.0009556 #Q9JYQ9
0.00059837660932080016015083279157238 1:0.37179488 2:18.55764 3:0.37179488 4:329.12122 #Q04HZ0
-0.00059837660932080016015083279157238 1:0.064102568 2:17.028921 3:0.064102568 4:365.13791 #SRS012281.337
-0.00059837660932080016015083279157238 1:0.025641026 2:12.743351 3:0.025641026 4:378.89111 #SRS018661.22860
0.00059837660932080016015083279157238 1:0.012820513 2:3.3173156 3:0.012820513 4:8.8711319 #Q47WQ9
0.00059837660932080016015083279157238 1:0.42307693 2:18.585415 3:0.42307693 4:328.73065 #Q97SE6
-0.00059837660932080016015083279157238 1:0.14102565 2:8.4202166 3:0.14102565 4:13.462746 #SRS015646.12986
-0.00059837660932080016015083279157238 1:0.16666667 2:18.136564 3:0.16666667 4:281.73074 #SRS016503.2621
0.00059837660932080016015083279157238 1:0.012820513 2:3.3772721 3:0.012820513 4:9.0633211 #B7J7X9
0.00059837660932080016015083279157238 1:0.53846157 2:18.63084 3:0.53846157 4:328.7424 #P0A3R1
-0.00059837660932080016015083279157238 1:0.42307693 2:18.07476 3:0.42307693 4:140.79535 #SRS017810.48305
-0.00059837660932080016015083279157238 1:0.03846154 2:15.567532 3:0.03846154 4:366.24854 #SRS011310.8777
0.00059837660932080016015083279157238 1:0.85897434 2:18.697227 3:0.85897434 4:322.67416 #P0CC08
-0.00059837660932080016015083279157238 1:0.051282052 2:3.3174779 3:0.051282052 4:6.5913658 #SRS018149.10161
0.00059837660932080016015083279157238 1:0.012820513 2:3.4930961 3:0.012820513 4:9.4411469 #Q8Y4F6
0.00059837660932080016015083279157238 1:0.71794873 2:18.681868 3:0.71794873 4:318.61346 #Q04KF8
0.00059837660932080016015083279157238 1:0.03846154 2:15.533496 3:0.03846154 4:290.72144 #Q04IK8
-0.00059837660932080016015083279157238 1:0.025641026 2:12.740809 3:0.025641026 4:364.27301 #SRS015646.4962
0.00059837660932080016015083279157238 1:0.012820513 2:3.4989483 3:0.012820513 4:9.4598026 #P46399
0.00059837660932080016015083279157238 1:0.21794872 2:18.334459 3:0.21794872 4:310.14236 #Q97TC5
-0.00059837660932080016015083279157238 1:0.11538462 2:7.4466605 3:0.11538462 4:11.849746 #SRS018329.22930
-0.00059837660932080016015083279157238 1:0.12820514 2:7.9518938 3:0.12820514 4:12.672905 #SRS017127.16925
-0.00059837660932080016015083279157238 1:0.03846154 2:15.558101 3:0.03846154 4:338.46921 #SRS017537.251
-0.00059837660932080016015083279157238 1:0.11538462 2:6.6821012 3:0.11538462 4:10.703728 #SRS022145.12382
0.00059837660932080016015083279157238 1:0.26923078 2:18.434666 3:0.26923078 4:302.40674 #Q8DNK7
0.00059837660932080016015083279157238 1:0.012820513 2:3.5017226 3:0.012820513 4:9.4701862 #C1D5G2
0.00059837660932080016015083279157238 1:0.6025641 2:18.634315 3:0.6025641 4:298.71872 #P63384
-0.00059837660932080016015083279157238 1:0.03846154 2:15.55795 3:0.03846154 4:337.74292 #SRS011144.7153
0.00059837660932080016015083279157238 1:0.012820513 2:3.5717356 3:0.012820513 4:9.7204647 #Q332W9
-0.00059837660932080016015083279157238 1:0.11538462 2:7.4693513 3:0.11538462 4:11.886665 #SRS013239.13096
0.00059837660932080016015083279157238 1:0.51282054 2:18.597893 3:0.51282054 4:296.50806 #Q97SG0
-0.00059837660932080016015083279157238 1:0.03846154 2:15.557274 3:0.03846154 4:335.87161 #SRS018359.3682
-0.00059837660932080016015083279157238 1:0.025641026 2:12.7357 3:0.025641026 4:341.16608 #SRS024377.5328
0.00059837660932080016015083279157238 1:0.012820513 2:3.6351995 3:0.012820513 4:9.9575148 #Q7VMA4
0.00059837660932080016015083279157238 1:0.025641026 2:4.505456 3:0.025641026 4:8.5299873 #Q5F775
-0.00059837660932080016015083279157238 1:0.12820514 2:8.0204153 3:0.12820514 4:12.786685 #SRS018359.8792
0.00059837660932080016015083279157238 1:0.65384614 2:18.649157 3:0.65384614 4:296.33749 #P35597
0.00059837660932080016015083279157238 1:0.012820513 2:3.6625733 3:0.012820513 4:10.062278 #O68195
0.00059837660932080016015083279157238 1:0.17948718 2:18.198671 3:0.17948718 4:293.20602 #P22291
-0.00059837660932080016015083279157238 1:0.025641026 2:12.735146 3:0.025641026 4:338.57181 #SRS050007.2003
0.00059837660932080016015083279157238 1:0.012820513 2:3.7387445 3:0.012820513 4:10.380842 #Q7MUV7
-0.00059837660932080016015083279157238 1:0.025641026 2:12.733824 3:0.025641026 4:333.25674 #SRS018661.22313
0.00059837660932080016015083279157238 1:0.25641027 2:18.400074 3:0.25641027 4:290.02982 #P68897
-0.00059837660932080016015083279157238 1:0.064102568 2:17.007065 3:0.064102568 4:315.81232 #SRS016088.6067
-0.00059837660932080016015083279157238 1:0.12820514 2:8.1065874 3:0.12820514 4:12.936354 #SRS017810.42202
0.00059837660932080016015083279157238 1:0.012820513 2:3.7675214 3:0.012820513 4:10.502697 #Q07636
0.00059837660932080016015083279157238 1:0.65384614 2:18.642975 3:0.65384614 4:290.78781 #P0A3R3
-0.00059837660932080016015083279157238 1:0.025641026 2:12.733131 3:0.025641026 4:330.62943 #SRS016039.15584
-0.00059837660932080016015083279157238 1:0.025641026 2:4.7846656 3:0.025641026 4:8.9531298 #SRS021473.22859
-0.00059837660932080016015083279157238 1:0.12820514 2:8.066741 3:0.12820514 4:12.870091 #SRS045262.35942
-0.00059837660932080016015083279157238 1:0.17948718 2:9.2346897 3:0.17948718 4:15.006379 #SRS050628.2622
0.00059837660932080016015083279157238 1:0.53846157 2:18.591867 3:0.53846157 4:282.65259 #Q04IQ3
0.00059837660932080016015083279157238 1:0.012820513 2:3.7941065 3:0.012820513 4:10.613552 #A7ZD85
0.00059837660932080016015083279157238 1:0.6025641 2:18.615149 3:0.6025641 4:281.70129 #P35598
0.00059837660932080016015083279157238 1:0.012820513 2:3.8153858 3:0.012820513 4:10.710633 #A8EV72
-0.00059837660932080016015083279157238 1:0.12820514 2:8.0606966 3:0.12820514 4:12.861872 #SRS022625.54863
0.00059837660932080016015083279157238 1:0.012820513 2:5.8976851 3:0.012820513 4:176.4343 #A5F3F1
-0.00059837660932080016015083279157238 1:0.064102568 2:17.004185 3:0.064102568 4:310.47714 #SRS023534.910
0.00059837660932080016015083279157238 1:0.025641026 2:4.8772588 3:0.025641026 4:9.1012392 #A7ZEJ3
-0.00059837660932080016015083279157238 1:0.1923077 2:2.9352536 3:0.1923077 4:6.0894895 #SRS013945.27608
-0.00059837660932080016015083279157238 1:0.12820514 2:5.6239381 3:0.12820514 4:9.2680798 #SRS050628.68449
0.00059837660932080016015083279157238 1:0.76923078 2:18.652245 3:0.76923078 4:279.85471 #Q04L36
-0.00059837660932080016015083279157238 1:0.03846154 2:15.542605 3:0.03846154 4:302.96469 #SRS016600.4203
-0.0005855658087576230685922240581931 1:0.025641026 2:12.449791 3:0.025641026 4:129.72144 #SRS014472.1866
-0.00059837660932080016015083279157238 1:0.025641026 2:12.725696 3:0.025641026 4:305.26538 #SRS024017.10996
0.00059837660932080016015083279157238 1:0.82051283 2:18.654106 3:0.82051283 4:278.07956 #P63733
0.00059837660932080016015083279157238 1:0.03846154 2:5.1452932 3:0.03846154 4:8.9705706 #P57036
-0.00059837660932080016015083279157238 1:0.1025641 2:6.9632163 3:0.1025641 4:11.136506 #SRS056892.19897
-0.00059837660932080016015083279157238 1:0.051282052 2:16.504848 3:0.051282052 4:297.24045 #SRS021473.3911
0.00059837660932080016015083279157238 1:0.012820513 2:3.9145126 3:0.012820513 4:11.161218 #Q4JUK0
0.00059837660932080016015083279157238 1:0.66666669 2:18.627087 3:0.66666669 4:274.28427 #Q04JW0
0.00059837660932080016015083279157238 1:0.03846154 2:5.2348766 3:0.03846154 4:9.0908689 #Q6NHT1
-0.00059837660932080016015083279157238 1:0.12820514 2:5.4940891 3:0.12820514 4:9.108758 #SRS019587.26463
-0.00059837660932080016015083279157238 1:0.1025641 2:6.4410987 3:0.1025641 4:10.384692 #SRS018149.29673
0.00059837660932080016015083279157238 1:0.71794873 2:18.635471 3:0.71794873 4:272.6814 #Q04HT8
-0.00059837660932080016015083279157238 1:0.025641026 2:12.724283 3:0.025641026 4:301.58768 #SRS011310.9291
0.00059837660932080016015083279157238 1:0.012820513 2:4.0065145 3:0.012820513 4:11.619555 #A3MY92
0.00059837660932080016015083279157238 1:0.82051283 2:18.636848 3:0.82051283 4:265.40881 #Q04JQ8
0.00059837660932080016015083279157238 1:0.03846154 2:5.2910271 3:0.03846154 4:9.1663284 #Q9K0D9
-0.00059837660932080016015083279157238 1:0.025641026 2:12.722669 3:0.025641026 4:298.46765 #SRS017441.460
0.00059837660932080016015083279157238 1:0.76923078 2:18.630587 3:0.76923078 4:263.63669 #Q04K81
-0.00059837660932080016015083279157238 1:0.12820514 2:8.1399822 3:0.12820514 4:12.995656 #SRS048719.10118
0.00059837660932080016015083279157238 1:0.57692307 2:18.573999 3:0.57692307 4:258.89648 #P0CB57
-0.00059837660932080016015083279157238 1:0.12820514 2:8.2484961 3:0.12820514 4:13.186465 #SRS056892.51481
-0.00059837660932080016015083279157238 1:0.025641026 2:12.72181 3:0.025641026 4:296.81097 #SRS049283.1082
0.00059837660932080016015083279157238 1:0.012820513 2:4.0998106 3:0.012820513 4:12.126166 #Q9CDT4
0.00059837660932080016015083279157238 1:0.07692308 2:5.5463676 3:0.07692308 4:9.2503767 #Q9JXS9
0.00059837660932080016015083279157238 1:0.69230771 2:18.609219 3:0.69230771 4:258.16299 #P0A4I5
-0.00059837660932080016015083279157238 1:0.051282052 2:16.496479 3:0.051282052 4:287.18509 #SRS017127.2181
-0.00059837660932080016015083279157238 1:0.025641026 2:12.720675 3:0.025641026 4:294.68054 #SRS023354.1975
-0.00059837660932080016015083279157238 1:0.16666667 2:9.4969854 3:0.16666667 4:15.600963 #SRS015745.21569
-0.00059837660932080016015083279157238 1:0.21794872 2:12.178731 3:0.21794872 4:22.93536 #SRS013711.44252
0.00059837660932080016015083279157238 1:0.67948717 2:18.603216 3:0.67948717 4:256.48825 #P72524
0.00059837660932080016015083279157238 1:0.012820513 2:4.2036319 3:0.012820513 4:12.753293 #A7GYN4
0.00059837660932080016015083279157238 1:0.43589744 2:18.505043 3:0.43589744 4:251.35658 #Q97PK6
0.00059837660932080016015083279157238 1:0.025641026 2:5.4574347 3:0.025641026 4:10.046415 #Q8DWI4
-0.00059837660932080016015083279157238 1:0.11538462 2:9.3169231 3:0.11538462 4:15.40818 #SRS063287.23772
0.00059837660932080016015083279157238 1:0.17948718 2:9.4990244 3:0.17948718 4:15.572413 #A8AVZ4
0.00059837660932080016015083279157238 1:0.012820513 2:5.8834076 3:0.012820513 4:150.30051 #A2RMI2
0.00059837660932080016015083279157238 1:0.064102568 2:5.7992606 3:0.064102568 4:9.6110725 #Q8RI76
0.00059837660932080016015083279157238 1:0.21794872 2:18.258577 3:0.21794872 4:249.60712 #Q04IQ2
-0.00059837660932080016015083279157238 1:0.11538462 2:17.796799 3:0.11538462 4:282.98355 #SRS015436.56109
-0.00059837660932080016015083279157238 1:0.025641026 2:12.720346 3:0.025641026 4:294.17197 #SRS016600.460
-0.00059837660932080016015083279157238 1:0.1025641 2:7.3579259 3:0.1025641 4:11.745128 #SRS011247.36415
-0.00059837660932080016015083279157238 1:0.12820514 2:8.4100084 3:0.12820514 4:13.485219 #SRS015895.24721
0.00059837660932080016015083279157238 1:0.33333334 2:18.436701 3:0.33333334 4:248.55611 #B2ISI9
-0.00059837660932080016015083279157238 1:0.025641026 2:12.720296 3:0.025641026 4:294.06131 #SRS063287.3537
-0.00059837660932080016015083279157238 1:0.14102565 2:9.022891 3:0.14102565 4:14.665827 #SRS063272.38234
-0.00059837660932080016015083279157238 1:0.12820514 2:8.5337191 3:0.12820514 4:13.718505 #SRS011247.26333
0.00059837660932080016015083279157238 1:0.38461539 2:18.473431 3:0.38461539 4:248.38324 #Q97TA2
0.00059837660932080016015083279157238 1:0.012820513 2:4.2070961 3:0.012820513 4:12.773404 #C4Z0Q6
-0.00059837660932080016015083279157238 1:0.025641026 2:12.720119 3:0.025641026 4:293.68637 #SRS050007.1976
0.00059837660932080016015083279157238 1:0.65384614 2:18.576067 3:0.65384614 4:246.6736 #P0A2U6
0.00059837660932080016015083279157238 1:0.012820513 2:4.3482265 3:0.012820513 4:13.729731 #Q9CN36
0.00059837660932080016015083279157238 1:0.051282052 2:5.8199115 3:0.051282052 4:9.7218637 #Q8RG98
0.00059837660932080016015083279157238 1:0.012820513 2:5.8203964 3:0.012820513 4:93.794724 #Q8FRZ3
0.00059837660932080016015083279157238 1:0.012820513 2:5.8760056 3:0.012820513 4:139.52623 #Q9L7Q5
-0.00059837660932080016015083279157238 1:0.025641026 2:0.20233113 3:0.025641026 4:2.5756164 #SRS011247.11279
0.00059837660932080016015083279157238 1:0.48717949 2:18.511593 3:0.48717949 4:244.92729 #Q97PP9
-0.00059837660932080016015083279157238 1:0.11538462 2:8.13064 3:0.11538462 4:13.018616 #SRS019587.38796
0.00059837660932080016015083279157238 1:0.52564102 2:18.525705 3:0.52564102 4:245.14967 #Q04J60
-0.00059837660932080016015083279157238 1:0.025641026 2:12.719893 3:0.025641026 4:293.43686 #SRS017687.784
0.00059837660932080016015083279157238 1:0.03846154 2:5.8422356 3:0.03846154 4:9.9350462 #P65532
-0.00059837660932080016015083279157238 1:0.48717949 2:16.363361 3:0.48717949 4:55.738918 #SRS018329.9448
0.00059837660932080016015083279157238 1:0.025641026 2:5.6233253 3:0.025641026 4:10.354928 #Q7VKB3
-0.00059837660932080016015083279157238 1:0.1025641 2:5.8654933 3:0.1025641 4:9.5954885 #SRS018149.30029
-0.00059837660932080016015083279157238 1:0.20512821 2:18.147684 3:0.20512821 4:216.55382 #SRS022145.2426
-0.00059837660932080016015083279157238 1:0.42307693 2:17.126055 3:0.42307693 4:75.074387 #SRS020858.22468
0.00059837660932080016015083279157238 1:0.012820513 2:5.8745518 3:0.012820513 4:137.61723 #P27624
0.00059837660932080016015083279157238 1:0.11538462 2:6.0503969 3:0.11538462 4:9.8248796 #A8AX56
-0.00059837660932080016015083279157238 1:0.03846154 2:15.529786 3:0.03846154 4:285.83411 #SRS019221.2600
0.00059837660932080016015083279157238 1:0.65384614 2:18.570465 3:0.65384614 4:244.31265 #Q04HZ7
-0.00059837660932080016015083279157238 1:0.051282052 2:16.486618 3:0.051282052 4:276.79749 #SRS056892.32105
-0.00059837660932080016015083279157238 1:0.025641026 2:12.715297 3:0.025641026 4:284.21133 #SRS018329.2911
0.00059837660932080016015083279157238 1:0.025641026 2:5.6408329 3:0.025641026 4:10.387062 #Q03K77
0.00059837660932080016015083279157238 1:0.30769232 2:15.537973 3:0.30769232 4:44.57859 #Q5FAJ3
0.00059837660932080016015083279157238 1:0.82051283 2:18.58905 3:0.82051283 4:240.68726 #P65241
0.00059837660932080016015083279157238 1:0.34615386 2:18.42474 3:0.34615386 4:238.01141 #Q97PI4
0.00059837660932080016015083279157238 1:0.012820513 2:5.8690991 3:0.012820513 4:131.0623 #Q3JZK2
-0.00059837660932080016015083279157238 1:0.025641026 2:12.714235 3:0.025641026 4:282.36511 #SRS017441.628
-0.00059837660932080016015083279157238 1:0.064102568 2:16.959934 3:0.064102568 4:263.31046 #SRS019872.14624
0.00059837660932080016015083279157238 1:0.52564102 2:18.510389 3:0.52564102 4:237.81186 #Q54900
0.00059837660932080016015083279157238 1:0.03846154 2:6.0819068 3:0.03846154 4:10.307666 #A7ZCV2
0.00059837660932080016015083279157238 1:0.012820513 2:4.4791503 3:0.012820513 4:14.794922 #Q65QB0
0.00059837660932080016015083279157238 1:0.025641026 2:5.8820453 3:0.025641026 4:10.837295 #Q9K141
0.00059837660932080016015083279157238 1:0.26923078 2:18.333244 3:0.26923078 4:235.57712 #P95830
0.00059837660932080016015083279157238 1:0.53846157 2:18.509966 3:0.53846157 4:235.46295 #Q04M48
0.00059837660932080016015083279157238 1:0.07692308 2:6.3189549 3:0.07692308 4:10.282297 #Q7DDR9
-0.00058371425782828556538817110777018 1:0.051282052 2:16.293898 3:0.051282052 4:182.18066 #SRS020858.27477
-0.00059837660932080016015083279157238 1:0.025641026 2:12.507066 3:0.025641026 4:146.0081 #SRS023987.5009
0.00059837660932080016015083279157238 1:0.6025641 2:18.53091 3:0.6025641 4:234.20735 #P63373
0.00059837660932080016015083279157238 1:0.089743592 2:6.3673911 3:0.089743592 4:10.311997 #Q9JS04
0.00059837660932080016015083279157238 1:0.012820513 2:5.8629818 3:0.012820513 4:125.13868 #Q3K326
0.00059837660932080016015083279157238 1:0.38461539 2:18.437235 3:0.38461539 4:231.75534 #Q97S34
-0.00059837660932080016015083279157238 1:0.23076923 2:17.692898 3:0.23076923 4:119.08408 #SRS019587.37704
0.00059837660932080016015083279157238 1:0.15384616 2:6.5281324 3:0.15384616 4:10.430635 #Q8RFV0
0.00059837660932080016015083279157238 1:0.66666669 2:18.542303 3:0.66666669 4:230.27754 #Q59961
0.00059837660932080016015083279157238 1:0.88461536 2:18.570215 3:0.88461536 4:231.45364 #Q04MW7
0.00059837660932080016015083279157238 1:0.1025641 2:6.5635958 3:0.1025641 4:10.555451 #A8AX10
0.00059837660932080016015083279157238 1:0.41025642 2:18.442739 3:0.41025642 4:228.45552 #Q8DRM0
0.00059837660932080016015083279157238 1:0.03846154 2:6.4424682 3:0.03846154 4:10.872899 #P45336
-0.00059837660932080016015083279157238 1:0.03846154 2:15.041376 3:0.03846154 4:116.44366 #SRS018359.6405
0.00059837660932080016015083279157238 1:0.064102568 2:6.7458606 3:0.064102568 4:10.97277 #Q8REI2
-0.00059837660932080016015083279157238 1:0.025641026 2:12.378156 3:0.025641026 4:114.81384 #SRS016600.4165
0.00059837660932080016015083279157238 1:0.12820514 2:6.9943042 3:0.12820514 4:11.128929 #Q8REV7
-0.00059837660932080016015083279157238 1:0.025641026 2:12.37781 3:0.025641026 4:114.70093 #SRS045254.15987
0.00059837660932080016015083279157238 1:0.1025641 2:8.2119541 3:0.1025641 4:13.210888 #A9M198
0.00059837660932080016015083279157238 1:0.64102566 2:18.53429 3:0.64102566 4:229.88045 #Q04L24
-0.00059837660932080016015083279157238 1:0.025641026 2:12.375553 3:0.025641026 4:114.29868 #SRS013239.3699
0.00059837660932080016015083279157238 1:0.064102568 2:7.0086241 3:0.064102568 4:11.381465 #D1BMT0
-0.00049536157877774072977317132426833 1:0.025641026 2:12.373428 3:0.025641026 4:113.83781 #SRS021473.9290
0.00059837660932080016015083279157238 1:0.064102568 2:7.2077484 3:0.064102568 4:11.700542 #Q9JW39
-0.00059837660932080016015083279157238 1:0.14102565 2:10.270598 3:0.14102565 4:17.54991 #SRS045049.51052
-0.00059837660932080016015083279157238 1:0.051282052 2:15.941888 3:0.051282052 4:116.11522 #SRS014126.2363
0.00059837660932080016015083279157238 1:0.051282052 2:7.0547805 3:0.051282052 4:11.598043 #Q9JYY3
0.00059837660932080016015083279157238 1:0.65384614 2:18.53455 3:0.65384614 4:228.23543 #Q97NG1
-0.00059837660932080016015083279157238 1:0.14102565 2:10.178089 3:0.14102565 4:17.304798 #SRS019329.38876
-0.00059837660932080016015083279157238 1:0.025641026 2:12.372604 3:0.025641026 4:113.7136 #SRS017127.5786
0.00059837660932080016015083279157238 1:0.20512821 2:16.787291 3:0.20512821 4:71.70211 #Q5M2P5
0.00059837660932080016015083279157238 1:0.57692307 2:18.503765 3:0.57692307 4:226.58955 #Q97PR0
0.00059837660932080016015083279157238 1:0.12820514 2:7.6081066 3:0.12820514 4:12.086962 #P44401
-0.00059837660932080016015083279157238 1:0.025641026 2:12.350431 3:0.025641026 4:109.7345 #SRS021473.4538
-0.00059837660932080016015083279157238 1:0.025641026 2:12.370637 3:0.025641026 4:113.36616 #SRS017215.15358
0.00059837660932080016015083279157238 1:0.23076923 2:16.459475 3:0.23076923 4:61.516483 #Q5M1W6
0.00059837660932080016015083279157238 1:0.57692307 2:18.49589 3:0.57692307 4:223.3791 #P0A4D7
-0.00059837660932080016015083279157238 1:0.025641026 2:12.370079 3:0.025641026 4:113.30653 #SRS013506.1446
0.00059837660932080016015083279157238 1:0.15384616 2:15.118472 3:0.15384616 4:42.830959 #Q9A0I9
-0.00059837660932080016015083279157238 1:0.089743592 2:16.800175 3:0.089743592 4:107.57485 #SRS014575.359
-0.00059837660932080016015083279157238 1:0.051282052 2:15.928433 3:0.051282052 4:114.52816 #SRS052874.28474
-0.00059837660932080016015083279157238 1:0.03846154 2:15.031596 3:0.03846154 4:115.18906 #SRS013881.15053
0.00059837660932080016015083279157238 1:0.11538462 2:10.076108 3:0.11538462 4:17.215439 #Q8R680
0.00059837660932080016015083279157238 1:0.64102566 2:18.516706 3:0.64102566 4:222.47095 #Q04LE0
0.00059837660932080016015083279157238 1:0.17948718 2:16.166439 3:0.17948718 4:57.682968 #Q65RV1
-0.00059837660932080016015083279157238 1:0.025641026 2:12.369148 3:0.025641026 4:113.13354 #SRS016039.10592
0.00059837660932080016015083279157238 1:0.064102568 2:7.9375844 3:0.064102568 4:12.983347 #Q8DSG6
0.00059837660932080016015083279157238 1:0.16666667 2:16.809559 3:0.16666667 4:76.192635 #Q5M0C5
-0.00056492722428913566545816138386726 1:0.051282052 2:15.869385 3:0.051282052 4:108.12482 #SRS015040.4494
-0.00059837660932080016015083279157238 1:0.025641026 2:12.369042 3:0.025641026 4:113.12321 #SRS013506.18389
0.00059837660932080016015083279157238 1:0.11538462 2:7.7335258 3:0.11538462 4:12.333176 #Q8RG14
0.00059837660932080016015083279157238 1:0.44871795 2:18.440279 3:0.44871795 4:220.39854 #A8AVX5
0.00059837660932080016015083279157238 1:0.025641026 2:6.4531579 3:0.025641026 4:12.019972 #A7GZB9
0.00059837660932080016015083279157238 1:0.17948718 2:16.187313 3:0.17948718 4:58.133476 #Q5LXM9
-0.00059837660932080016015083279157238 1:0.064102568 2:16.322247 3:0.064102568 4:108.15 #SRS056892.1049
-0.00059837660932080016015083279157238 1:0.025641026 2:12.350485 3:0.025641026 4:109.74384 #SRS019221.2211
-0.00059837660932080016015083279157238 1:0.025641026 2:12.368138 3:0.025641026 4:112.98753 #SRS015646.1035
0.00059837660932080016015083279157238 1:0.12820514 2:16.169268 3:0.12820514 4:63.089691 #P28903
0.00059837660932080016015083279157238 1:0.41025642 2:18.417822 3:0.41025642 4:218.81078 #Q04MQ9
-0.00059837660932080016015083279157238 1:0.025641026 2:12.366941 3:0.025641026 4:112.78918 #SRS013881.15651
0.00059837660932080016015083279157238 1:0.07692308 2:16.627153 3:0.07692308 4:110.12543 #P57098
-0.00059837660932080016015083279157238 1:0.14102565 2:17.340158 3:0.14102565 4:115.5926 #SRS012281.3636
0.00059837660932080016015083279157238 1:0.35897437 2:18.372297 3:0.35897437 4:213.2338 #Q8DPB4
0.00059837660932080016015083279157238 1:0.064102568 2:16.599379 3:0.064102568 4:143.54369 #B8F772
-0.00059837660932080016015083279157238 1:0.025641026 2:12.350592 3:0.025641026 4:109.75629 #SRS024377.3981
0.00059837660932080016015083279157238 1:0.025641026 2:6.531055 3:0.025641026 4:12.194359 #A7ZEK1
-0.00051478873883880477135832620660949 1:0.03846154 2:14.980781 3:0.03846154 4:108.93917 #SRS020858.6886
-0.00059650504954504232624223902803351 1:0.025641026 2:12.363377 3:0.025641026 4:112.12341 #SRS056892.8240
0.00059837660932080016015083279157238 1:0.6025641 2:18.484697 3:0.6025641 4:215.61295 #Q97SG5
0.00059837660932080016015083279157238 1:0.11538462 2:16.101591 3:0.11538462 4:63.509464 #Q5M4U2
-9.63506399233107768687034422328e-05 1:0.14102565 2:15.678189 3:0.14102565 4:51.368542 #SRS018149.81262
0.00059837660932080016015083279157238 1:0.03846154 2:7.3216534 3:0.03846154 4:12.433664 #A7ZBR7
-0.00059837660932080016015083279157238 1:0.025641026 2:12.362286 3:0.025641026 4:111.87531 #SRS015040.6335
-0.00059837660932080016015083279157238 1:0.03846154 2:15.029639 3:0.03846154 4:114.94919 #SRS015646.5434
0.00059837660932080016015083279157238 1:0.42307693 2:18.404457 3:0.42307693 4:211.93175 #Q04KZ0
-0.00059837660932080016015083279157238 1:0.025641026 2:12.351845 3:0.025641026 4:109.97565 #SRS013239.4286
0.00059837660932080016015083279157238 1:0.064102568 2:16.555574 3:0.064102568 4:136.04552 #A7FPE0
0.00059837660932080016015083279157238 1:0.03846154 2:7.3753605 3:0.03846154 4:12.53797 #Q9JXQ3
-0.00059837660932080016015083279157238 1:0.025641026 2:12.351884 3:0.025641026 4:109.99514 #SRS017127.438
0.00059837660932080016015083279157238 1:0.15384616 2:17.812807 3:0.15384616 4:175.67343 #Q97R95
-0.00059837660932080016015083279157238 1:0.025641026 2:12.354056 3:0.025641026 4:110.35757 #SRS013945.12337
0.00059837660932080016015083279157238 1:0.064102568 2:13.34025 3:0.064102568 4:32.770092 #P96051
0.00059837660932080016015083279157238 1:0.43589744 2:18.40604 3:0.43589744 4:210.77487 #Q04JT1
-0.00059837660932080016015083279157238 1:0.15384616 2:17.392303 3:0.15384616 4:113.57386 #SRS017080.24874
0.00059837660932080016015083279157238 1:0.025641026 2:12.581303 3:0.025641026 4:174.58978 #Q3K1M7
-0.00059837660932080016015083279157238 1:0.064102568 2:16.382854 3:0.064102568 4:114.34628 #SRS022721.9689
0.00059837660932080016015083279157238 1:0.14102565 2:7.9055839 3:0.14102565 4:12.56489 #A3CMP3
-0.00059837660932080016015083279157238 1:0.025641026 2:12.362152 3:0.025641026 4:111.86257 #SRS011247.5130
0.00059837660932080016015083279157238 1:0.03846154 2:7.4480481 3:0.03846154 4:12.67651 #Q7MVQ5
0.00059837660932080016015083279157238 1:0.089743592 2:15.799063 3:0.089743592 4:61.890968 #Q5LYV4
-0.00059837660932080016015083279157238 1:0.025641026 2:12.354456 3:0.025641026 4:110.45093 #SRS022721.7764
0.00059837660932080016015083279157238 1:0.69230771 2:18.486538 3:0.69230771 4:207.69904 #Q97SR6
-0.00046094508148893272025947709380489 1:0.025641026 2:12.357333 3:0.025641026 4:110.93493 #SRS013239.360
-0.00059837660932080016015083279157238 1:0.07692308 2:16.622227 3:0.07692308 4:109.63172 #SRS015040.847
-0.00059628983448072221673630366467478 1:0.025641026 2:12.360315 3:0.025641026 4:111.56198 #SRS017687.918
0.00059837660932080016015083279157238 1:0.11538462 2:16.899124 3:0.11538462 4:95.247917 #O66200
-0.00059837660932080016015083279157238 1:0.03846154 2:15.004683 3:0.03846154 4:111.82552 #SRS045049.1637
-0.00059837660932080016015083279157238 1:0.064102568 2:16.37785 3:0.064102568 4:113.79874 #SRS017537.9233
0.00059837660932080016015083279157238 1:0.42307693 2:18.382132 3:0.42307693 4:204.99631 #Q8DNR5
-0.00055879509800612139902575847827393 1:0.03846154 2:14.9926 3:0.03846154 4:110.30747 #SRS042457.557
-0.00059837660932080016015083279157238 1:0.025641026 2:12.358452 3:0.025641026 4:111.1674 #SRS020858.1385
0.00059837660932080016015083279157238 1:0.20512821 2:7.9949751 3:0.20512821 4:12.625854 #Q8GJ00
-0.00059837660932080016015083279157238 1:0.025641026 2:12.360262 3:0.025641026 4:111.54877 #SRS013239.4436
0.00059837660932080016015083279157238 1:0.051282052 2:8.1734247 3:0.051282052 4:13.663072 #A7ZEH3
0.00059837660932080016015083279157238 1:0.26923078 2:18.218731 3:0.26923078 4:195.44275 #Q97SE5
0.00059837660932080016015083279157238 1:0.064102568 2:7.9725728 3:0.064102568 4:13.048179 #Q8R635
0.00059837660932080016015083279157238 1:0.85897434 2:18.502193 3:0.85897434 4:207.08055 #P45187
0.00059837660932080016015083279157238 1:0.064102568 2:16.185343 3:0.064102568 4:96.925606 #Q3K1K4
-0.00059837660932080016015083279157238 1:0.025641026 2:12.359144 3:0.025641026 4:111.2983 #SRS019587.2449
-0.00059837660932080016015083279157238 1:0.11538462 2:17.128086 3:0.11538462 4:113.21417 #SRS022625.9934
-0.00059837660932080016015083279157238 1:0.03846154 2:14.993738 3:0.03846154 4:110.44742 #SRS019329.12525
-0.00059837660932080016015083279157238 1:0.051282052 2:15.918841 3:0.051282052 4:113.44808 #SRS043646.10095
-0.00059837660932080016015083279157238 1:0.03846154 2:15.01562 3:0.03846154 4:113.17465 #SRS013881.71
0.00059837660932080016015083279157238 1:0.025641026 2:12.556363 3:0.025641026 4:163.96307 #Q8DT53
-0.00059837660932080016015083279157238 1:0.064102568 2:16.347446 3:0.064102568 4:110.66273 #SRS011090.690
0.00059837660932080016015083279157238 1:0.064102568 2:9.1741133 3:0.064102568 4:15.610014 #A3MYB6
-0.00059837660932080016015083279157238 1:0.051282052 2:15.896114 3:0.051282052 4:110.92402 #SRS013239.36960
0.00059837660932080016015083279157238 1:0.71794873 2:18.259493 3:0.71794873 4:154.93448 #Q4QLU5
-0.00059837660932080016015083279157238 1:0.03846154 2:15.009232 3:0.03846154 4:112.43372 #SRS014472.8787
0.00059837660932080016015083279157238 1:0.1025641 2:8.1426735 3:0.1025641 4:13.086381 #A8AZE2
0.00059837660932080016015083279157238 1:0.88461536 2:18.256704 3:0.88461536 4:151.99631 #P44505
0.00059837660932080016015083279157238 1:0.12820514 2:15.872405 3:0.12820514 4:56.298847 #Q5M397
-0.00059837660932080016015083279157238 1:0.03846154 2:15.006056 3:0.03846154 4:111.9929 #SRS011090.2140
0.00059837660932080016015083279157238 1:0.79487181 2:18.230581 3:0.79487181 4:148.55295 #P45066
-0.00059837660932080016015083279157238 1:0.11538462 2:17.117479 3:0.11538462 4:112.2017 #SRS022532.26396
0.00059837660932080016015083279157238 1:0.67948717 2:18.199778 3:0.67948717 4:146.29712 #Q4QKA4
-0.00059837660932080016015083279157238 1:0.03846154 2:15.004997 3:0.03846154 4:111.85262 #SRS017687.1822
0.00059837660932080016015083279157238 1:0.82051283 2:18.210356 3:0.82051283 4:145.19716 #Q4QM77
-0.00059837660932080016015083279157238 1:0.064102568 2:16.357515 3:0.064102568 4:111.74718 #SRS056892.13049
0.00059837660932080016015083279157238 1:0.65384614 2:18.162188 3:0.65384614 4:141.6673 #P43701
-0.00059837660932080016015083279157238 1:0.1025641 2:16.998861 3:0.1025641 4:112.20103 #SRS016600.478
0.00059837660932080016015083279157238 1:0.88461536 2:18.185005 3:0.88461536 4:140.94112 #P43835
0.00059837660932080016015083279157238 1:0.025641026 2:12.391446 3:0.025641026 4:117.51238 #A6VM63
-0.00059837660932080016015083279157238 1:0.051282052 2:15.916156 3:0.051282052 4:113.19114 #SRS016349.7555
-0.00059837660932080016015083279157238 1:0.051282052 2:15.911269 3:0.051282052 4:112.69122 #SRS014472.1092
-0.00059837660932080016015083279157238 1:0.064102568 2:16.362223 3:0.064102568 4:112.25696 #SRS017441.1524
0.00059837660932080016015083279157238 1:0.75641024 2:18.120546 3:0.75641024 4:133.27908 #P44808
-0.00059837660932080016015083279157238 1:0.064102568 2:16.364506 3:0.064102568 4:112.50889 #SRS015646.18734
0.00059837660932080016015083279157238 1:0.73076922 2:18.109699 3:0.73076922 4:132.35103 #P43702
0.00059837660932080016015083279157238 1:0.74358976 2:18.094856 3:0.74358976 4:130.472 #P43794
-0.00059837660932080016015083279157238 1:0.064102568 2:0.4307743 3:0.064102568 4:3.1021671 #SRS013945.55597
-0.00059837660932080016015083279157238 1:0.025641026 2:12.713604 3:0.025641026 4:281.24994 #SRS011247.596
-0.00059837660932080016015083279157238 1:0.46153846 2:16.464867 3:0.46153846 4:57.72604 #SRS011090.5884
-0.00055137618576149571847366814836278 1:0.03846154 2:12.970314 3:0.03846154 4:38.43568 #SRS016039.7879
-0.00059837660932080016015083279157238 1:0.43589744 2:15.565713 3:0.43589744 4:44.155949 #SRS021473.3386
-0.00059837660932080016015083279157238 1:0.03846154 2:0.28128123 3:0.03846154 4:2.78284 #SRS063287.23384
-0.00059837660932080016015083279157238 1:0.07692308 2:0.69384629 3:0.07692308 4:3.5449939 #SRS017013.12428
-0.00059837660932080016015083279157238 1:0.11538462 2:1.5872289 3:0.11538462 4:4.6348557 #SRS018149.78036
0.00059837660932080016015083279157238 1:0.012820513 2:5.8592901 3:0.012820513 4:121.63284 #Q59925
-0.00059837660932080016015083279157238 1:0.43589744 2:16.778631 3:0.43589744 4:65.088821 #SRS019391.9577
0.00059837660932080016015083279157238 1:0.012820513 2:5.8390794 3:0.012820513 4:105.04554 #B2GGP0
-0.00059837660932080016015083279157238 1:0.025641026 2:12.713264 3:0.025641026 4:280.78781 #SRS018661.22452
0.00059837660932080016015083279157238 1:0.55128205 2:17.985855 3:0.55128205 4:124.67113 #A8AYH2
-0.00059837660932080016015083279157238 1:0.3974359 2:16.026539 3:0.3974359 4:50.508904 #SRS023987.20765
-0.00059837660932080016015083279157238 1:0.03846154 2:0.29012859 3:0.03846154 4:2.8067002 #SRS011247.18129
0.00059837660932080016015083279157238 1:0.012820513 2:5.8399091 3:0.012820513 4:105.5299 #A0KQX8
0.00059837660932080016015083279157238 1:0.76923078 2:17.737679 3:0.76923078 4:99.41523 #P44631
-0.00059837660932080016015083279157238 1:0.38461539 2:16.302071 3:0.38461539 4:55.283314 #SRS011090.4006
0.00059837660932080016015083279157238 1:0.012820513 2:5.8428068 3:0.012820513 4:107.54375 #Q5M011
-0.00059837660932080016015083279157238 1:0.025641026 2:12.711734 3:0.025641026 4:277.95493 #SRS022145.6361
-0.00059837660932080016015083279157238 1:0.38461539 2:16.578882 3:0.38461539 4:60.830822 #SRS014126.5071
-0.00059837660932080016015083279157238 1:0.07692308 2:0.79090375 3:0.07692308 4:3.6860347 #SRS017127.19802
0.00059837660932080016015083279157238 1:0.78205127 2:17.766792 3:0.78205127 4:101.30913 #P44701
0.00059837660932080016015083279157238 1:0.61538464 2:17.936152 3:0.61538464 4:117.48457 #Q97P83
-0.00059837660932080016015083279157238 1:0.35897437 2:18.027052 3:0.35897437 4:139.0706 #SRS022625.12637
0.00059837660932080016015083279157238 1:0.66666669 2:18.068893 3:0.66666669 4:129.10089 #P44403
-0.00059837660932080016015083279157238 1:0.12820514 2:8.811451 3:0.12820514 4:14.270584 #SRS045049.48574
-0.00059837660932080016015083279157238 1:0.30769232 2:13.953107 3:0.30769232 4:30.914284 #SRS015436.21222
-0.00059837660932080016015083279157238 1:0.37179488 2:16.520639 3:0.37179488 4:59.658218 #SRS013825.2647
-0.00059837660932080016015083279157238 1:0.025641026 2:12.710723 3:0.025641026 4:275.93997 #SRS011090.2655
0.00059837660932080016015083279157238 1:0.70512819 2:18.048103 3:0.70512819 4:126.44276 #P71359
-0.00059837660932080016015083279157238 1:0.30769232 2:17.890707 3:0.30769232 4:127.78554 #SRS019221.2602
0.00059837660932080016015083279157238 1:0.67948717 2:17.963827 3:0.67948717 4:118.26968 #P43864
-0.00059837660932080016015083279157238 1:0.14102565 2:3.1401494 3:0.14102565 4:6.3235474 #SRS013239.33710
-0.00059837660932080016015083279157238 1:0.21794872 2:11.776116 3:0.21794872 4:21.575235 #SRS013945.63802
0.00059837660932080016015083279157238 1:0.75641024 2:18.102032 3:0.75641024 4:131.09729 #P45049
-0.00046500542435512493000260292319581 1:0.03846154 2:15.439574 3:0.03846154 4:217.90735 #SRS021473.1634
-0.00059837660932080016015083279157238 1:0.26923078 2:17.603373 3:0.26923078 4:105.28532 #SRS011090.4928
-0.00059837660932080016015083279157238 1:0.33333334 2:16.763155 3:0.33333334 4:66.015152 #SRS050628.11623
0.00059837660932080016015083279157238 1:0.71794873 2:18.03039 3:0.71794873 4:124.35957 #P44804
-0.00059837660932080016015083279157238 1:0.33333334 2:16.570259 3:0.33333334 4:61.309147 #SRS020858.8342
0.00059837660932080016015083279157238 1:0.73076922 2:17.902533 3:0.73076922 4:111.86194 #P71355
-0.00059837660932080016015083279157238 1:0.025641026 2:0.22311206 3:0.025641026 4:2.6329384 #SRS018149.32301
0.00059837660932080016015083279157238 1:0.87179488 2:18.118135 3:0.87179488 4:132.15695 #P44619
-0.00059837660932080016015083279157238 1:0.025641026 2:12.709485 3:0.025641026 4:274.17429 #SRS023987.1372
0.00059837660932080016015083279157238 1:0.80769229 2:17.923429 3:0.80769229 4:113.07796 #P46450
-0.00059837660932080016015083279157238 1:0.025641026 2:12.709435 3:0.025641026 4:274.08063 #SRS022145.1934
0.00059837660932080016015083279157238 1:0.83333331 2:18.097549 3:0.83333331 4:129.93716 #P44871
0.00059837660932080016015083279157238 1:0.80769229 2:18.093233 3:0.80769229 4:129.53787 #P44530
-0.00059837660932080016015083279157238 1:0.23076923 2:17.981695 3:0.23076923 4:158.02281 #SRS023837.3498
0.00059837660932080016015083279157238 1:0.71794873 2:18.005157 3:0.71794873 4:121.86977 #P43833
-0.00059837660932080016015083279157238 1:0.20512821 2:17.284935 3:0.20512821 4:92.568703 #SRS019976.2106
0.00059837660932080016015083279157238 1:0.74358976 2:18.001816 3:0.74358976 4:121.03874 #P44338
-0.00059837660932080016015083279157238 1:0.16666667 2:18.001652 3:0.16666667 4:211.96027 #SRS013711.1004
0.00059837660932080016015083279157238 1:0.75641024 2:17.960329 3:0.75641024 4:116.76313 #P43752
0.00059837660932080016015083279157238 1:0.78205127 2:18.057259 3:0.78205127 4:126.2017 #P43809
-0.0004308120924252593214598405779725 1:0.03846154 2:15.500011 3:0.03846154 4:255.02753 #SRS022145.1605
-0.00059837660932080016015083279157238 1:0.24358974 2:17.55711 3:0.24358974 4:105.01704 #SRS018359.5913
0.00059837660932080016015083279157238 1:0.79487181 2:17.956572 3:0.79487181 4:116.04873 #A5UAD6
0.00059837660932080016015083279157238 1:0.80769229 2:18.06041 3:0.80769229 4:126.43157 #P43873
-0.00059837660932080016015083279157238 1:0.17948718 2:17.293108 3:0.17948718 4:97.952599 #SRS017810.35671
-0.00059837660932080016015083279157238 1:0.21794872 2:17.996679 3:0.21794872 4:166.67821 #SRS050029.451
0.00059837660932080016015083279157238 1:0.76923078 2:17.968204 3:0.76923078 4:117.46483 #P43703
-0.00059837660932080016015083279157238 1:0.07692308 2:17.204556 3:0.07692308 4:228.60081 #SRS018359.1182
-0.00059837660932080016015083279157238 1:0.14102565 2:17.068935 3:0.14102565 4:94.388237 #SRS017810.214
-0.00059837660932080016015083279157238 1:0.089743592 2:17.403149 3:0.089743592 4:221.22049 #SRS017080.18494
0.00059837660932080016015083279157238 1:0.79487181 2:17.98344 3:0.79487181 4:118.58308 #P43825
-0.00059837660932080016015083279157238 1:0.15384616 2:17.729959 3:0.15384616 4:158.21741 #SRS063287.5222
0.00059837660932080016015083279157238 1:0.012820513 2:4.5027699 3:0.012820513 4:14.998852 #P44124
-0.00059837660932080016015083279157238 1:0.17948718 2:17.639099 3:0.17948718 4:128.36342 #SRS013881.9564
0.00059837660932080016015083279157238 1:0.012820513 2:4.5590844 3:0.012820513 4:15.514273 #P69452
0.00059837660932080016015083279157238 1:0.012820513 2:4.5837631 3:0.012820513 4:15.745472 #A1R7V5
0.00059837660932080016015083279157238 1:0.012820513 2:4.6535573 3:0.012820513 4:16.460495 #F2XG53
0.00059837660932080016015083279157238 1:0.012820513 2:5.8271651 3:0.012820513 4:97.614098 #Q3K1W9
0.00059837660932080016015083279157238 1:0.012820513 2:4.7117152 3:0.012820513 4:17.099354 #P81284
0.00059837660932080016015083279157238 1:0.012820513 2:4.7504287 3:0.012820513 4:17.56448 #A4W1V8
0.00059837660932080016015083279157238 1:0.025641026 2:7.2156019 3:0.025641026 4:13.911611 #A7ZCB6
0.00059837660932080016015083279157238 1:0.38461539 2:18.353422 3:0.38461539 4:202.37535 #C1CJH5
0.00059837660932080016015083279157238 1:0.33333334 2:18.311371 3:0.33333334 4:200.94452 #B5E4U6
-0.00059837660932080016015083279157238 1:0.32051283 2:14.505489 3:0.32051283 4:34.611046 #SRS011247.57268
-0.00059837660932080016015083279157238 1:0.32051283 2:14.295455 3:0.32051283 4:33.117985 #SRS017080.42067
-0.00059837660932080016015083279157238 1:0.32051283 2:14.230779 3:0.32051283 4:32.666126 #SRS014126.4448
-0.00059837660932080016015083279157238 1:0.11538462 2:8.1539412 3:0.11538462 4:13.058838 #SRS017013.16607
-0.00059837660932080016015083279157238 1:0.29487181 2:17.084995 3:0.29487181 4:76.50808 #SRS015040.1234
-0.00059837660932080016015083279157238 1:0.025641026 2:0.22462898 3:0.025641026 4:2.6390464 #SRS013945.33526
0.00059837660932080016015083279157238 1:0.012820513 2:4.7573814 3:0.012820513 4:17.646591 #A3N0N2
-0.00059837660932080016015083279157238 1:0.33333334 2:15.77948 3:0.33333334 4:47.436363 #SRS022625.11677
0.00059837660932080016015083279157238 1:0.012820513 2:4.7608457 3:0.012820513 4:17.687048 #A7ZDK0
-0.00059837660932080016015083279157238 1:0.32051283 2:15.561187 3:0.32051283 4:44.74213 #SRS019587.1315
-0.00059837660932080016015083279157238 1:0.03846154 2:0.31237286 3:0.03846154 4:2.8570619 #SRS013945.42923
0.00059837660932080016015083279157238 1:0.11538462 2:16.7589 3:0.11538462 4:86.946526 #Q8E290
0.00059837660932080016015083279157238 1:0.17948718 2:8.4311934 3:0.17948718 4:13.404638 #A3CQ50
0.00059837660932080016015083279157238 1:0.012820513 2:5.8151226 3:0.012820513 4:91.024376 #P0A3J0
0.00059837660932080016015083279157238 1:0.07692308 2:8.4686623 3:0.07692308 4:13.865474 #Q9JZ88
0.00059837660932080016015083279157238 1:0.025641026 2:7.3457627 3:0.025641026 4:14.29639 #A6VLT3
0.00059837660932080016015083279157238 1:0.012820513 2:4.7730389 3:0.012820513 4:17.840389 #B9DSR1
-0.00059837660932080016015083279157238 1:0.20512821 2:15.534988 3:0.20512821 4:46.252865 #SRS017687.18844
0.00059837660932080016015083279157238 1:0.41025642 2:18.323551 3:0.41025642 4:190.07693 #Q97RW5
-0.00059837660932080016015083279157238 1:0.29487181 2:14.783505 3:0.29487181 4:37.015423 #SRS045254.19177
0.00059837660932080016015083279157238 1:0.051282052 2:14.513012 3:0.051282052 4:51.18676 #P65925
-0.00059837660932080016015083279157238 1:0.2820513 2:14.916834 3:0.2820513 4:38.261578 #SRS015374.12083
-0.00059837660932080016015083279157238 1:0.2820513 2:15.750318 3:0.2820513 4:47.619251 #SRS024377.7204
-0.00059837660932080016015083279157238 1:0.32051283 2:15.355628 3:0.32051283 4:42.385307 #SRS017215.15353
0.00059837660932080016015083279157238 1:0.012820513 2:5.8255873 3:0.012820513 4:96.685226 #Q3K1V5
0.00059837660932080016015083279157238 1:0.03846154 2:14.786593 3:0.03846154 4:90.870522 #B8F892
-0.00059837660932080016015083279157238 1:0.15384616 2:15.489339 3:0.15384616 4:47.609386 #SRS063287.10212
0.00059837660932080016015083279157238 1:0.12820514 2:8.4960032 3:0.12820514 4:13.644656 #P47848
-0.00059837660932080016015083279157238 1:0.012820513 2:5.5484452 3:0.012820513 4:41.143208 #SRS017215.18133
0.00059837660932080016015083279157238 1:0.051282052 2:8.6540813 3:0.051282052 4:14.724508 #Q9JV95
-0.00059837660932080016015083279157238 1:0.30769232 2:15.189033 3:0.30769232 4:40.673409 #SRS015154.3555
0.00059837660932080016015083279157238 1:0.012820513 2:5.0577312 3:0.012820513 4:22.183472 #C1C727
-0.00059837660932080016015083279157238 1:0.2820513 2:15.647458 3:0.2820513 4:46.219864 #SRS015895.3500
0.00059837660932080016015083279157238 1:0.03846154 2:8.4298553 3:0.03846154 4:14.840088 #P0DH59
-0.00013793528329242299435009044827893 1:0.025641026 2:11.332902 3:0.025641026 4:46.430717 #SRS013506.15383
-0.00059837660932080016015083279157238 1:0.012820513 2:5.4906902 3:0.012820513 4:37.128147 #SRS013881.15569
0.00059837660932080016015083279157238 1:0.03846154 2:8.5668755 3:0.03846154 4:15.182897 #A8Z6P6
0.00059837660932080016015083279157238 1:0.03846154 2:10.925368 3:0.03846154 4:23.123024 #A7ZE39
-0.00059837660932080016015083279157238 1:0.16666667 2:14.613484 3:0.16666667 4:37.298859 #SRS019329.12830
-0.00059837660932080016015083279157238 1:0.025641026 2:10.870826 3:0.025641026 4:37.206959 #SRS050628.66942
0.00059837660932080016015083279157238 1:0.025641026 2:9.4823408 3:0.025641026 4:23.276268 #A7ZF21
-0.00059837660932080016015083279157238 1:0.025641026 2:10.872299 3:0.025641026 4:37.233635 #SRS045049.20672
0.00059837660932080016015083279157238 1:0.089743592 2:11.790447 3:0.089743592 4:22.823048 #Q8NZ00
-0.00059837660932080016015083279157238 1:0.07692308 2:14.024104 3:0.07692308 4:36.965893 #SRS045262.13257
0.00059837660932080016015083279157238 1:0.051282052 2:11.311743 3:0.051282052 4:22.780453 #Q8RHN5
-0.00057898241401592442922918735348503 1:0.03846154 2:12.84535 3:0.03846154 4:37.005844 #SRS016039.7776
0.00059837660932080016015083279157238 1:0.15384616 2:11.945991 3:0.15384616 4:22.467686 #Q9K0N0
-0.00043440336810399160505369309248636 1:0.025641026 2:10.874426 3:0.025641026 4:37.267994 #SRS019976.7415
0.00059837660932080016015083279157238 1:0.16666667 2:11.917017 3:0.16666667 4:22.273746 #B3H1K7
-0.00059837660932080016015083279157238 1:0.025641026 2:0.23173723 3:0.025641026 4:2.6584613 #SRS018149.75845
-0.00059837660932080016015083279157238 1:0.051282052 2:0.49150291 3:0.051282052 4:3.222851 #SRS013881.29290
0.00059837660932080016015083279157238 1:0.064102568 2:15.783201 3:0.064102568 4:75.103935 #Q0I2M9
-0.00059837660932080016015083279157238 1:0.12820514 2:2.9697092 3:0.12820514 4:6.1356177 #SRS050029.42703
0.00059837660932080016015083279157238 1:0.34615386 2:18.261467 3:0.34615386 4:184.45351 #Q97PS1
-0.00059837660932080016015083279157238 1:0.20512821 2:11.078522 3:0.20512821 4:19.488621 #SRS063287.38452
-0.00059837660932080016015083279157238 1:0.26923078 2:15.545179 3:0.26923078 4:45.09042 #SRS019329.4152
0.00059837660932080016015083279157238 1:0.012820513 2:4.8491201 3:0.012820513 4:18.845749 #A6VL58
-0.00059837660932080016015083279157238 1:0.064102568 2:0.71720225 3:0.064102568 4:3.5820944 #SRS019587.36022
-0.00059837660932080016015083279157238 1:0.26923078 2:15.503501 3:0.26923078 4:44.594112 #SRS045254.19438
-0.00059837660932080016015083279157238 1:0.30769232 2:14.720559 3:0.30769232 4:36.372128 #SRS017810.16117
0.00059837660932080016015083279157238 1:0.03846154 2:14.458011 3:0.03846154 4:72.402504 #Q8E2J5
-0.00059837660932080016015083279157238 1:0.11538462 2:2.4039583 3:0.11538462 4:5.5098577 #SRS019587.6061
0.00059837660932080016015083279157238 1:0.051282052 2:15.551348 3:0.051282052 4:84.202827 #Q9CKR4
-0.00059837660932080016015083279157238 1:0.2820513 2:13.954913 3:0.2820513 4:31.036694 #SRS017127.35337
0.00059837660932080016015083279157238 1:0.012820513 2:5.8188138 3:0.012820513 4:92.928276 #Q8E064
0.00059837660932080016015083279157238 1:0.16666667 2:8.4836445 3:0.16666667 4:13.526176 #Q8RED7
-0.00059837660932080016015083279157238 1:0.03846154 2:0.33696559 3:0.03846154 4:2.9141331 #SRS022625.19295
0.00059837660932080016015083279157238 1:0.089743592 2:16.19273 3:0.089743592 4:73.613922 #A3N1Q1
-0.00059837660932080016015083279157238 1:0.17948718 2:15.539978 3:0.17948718 4:47.1455 #SRS015436.43355
0.00059837660932080016015083279157238 1:0.025641026 2:7.3754454 3:0.025641026 4:14.386676 #Q9CKV0
-0.00059837660932080016015083279157238 1:0.14102565 2:15.426994 3:0.14102565 4:47.529526 #SRS016349.12638
0.00059837660932080016015083279157238 1:0.11538462 2:8.63097 3:0.11538462 4:13.951865 #A8AY22
-0.00038284165110769041717730942764319 1:0.025641026 2:11.331302 3:0.025641026 4:46.38834 #SRS021473.343
0.00059837660932080016015083279157238 1:0.089743592 2:16.120714 3:0.089743592 4:71.110504 #Q9ZA98
-0.00059837660932080016015083279157238 1:0.14102565 2:15.408753 3:0.14102565 4:47.244991 #SRS016039.16539
-0.00059837660932080016015083279157238 1:0.03846154 2:0.38142356 3:0.03846154 4:3.0098555 #SRS050029.41537
0.00059837660932080016015083279157238 1:0.16666667 2:8.6413183 3:0.16666667 4:13.814144 #Q9HCC0
-0.00059837660932080016015083279157238 1:0.012820513 2:5.5105557 3:0.012820513 4:38.381454 #SRS013711.3774
0.00059837660932080016015083279157238 1:0.03846154 2:8.640729 3:0.03846154 4:15.371818 #Q9K0I1
0.00059837660932080016015083279157238 1:0.064102568 2:15.76113 3:0.064102568 4:74.31797 #Q8DQD2
-0.00059837660932080016015083279157238 1:0.16666667 2:15.495 3:0.16666667 4:47.043304 #SRS017537.4843
0.00059837660932080016015083279157238 1:0.025641026 2:7.5087886 3:0.025641026 4:14.792166 #A7ZFA0
-0.00059837660932080016015083279157238 1:0.12820514 2:15.341953 3:0.12820514 4:47.285103 #SRS013945.29772
0.00059837660932080016015083279157238 1:0.025641026 2:7.5511441 3:0.025641026 4:14.918915 #Q8DT12
0.00059837660932080016015083279157238 1:0.20512821 2:8.639308 3:0.20512821 4:13.758655 #Q8RGC8
0.00059837660932080016015083279157238 1:0.17948718 2:8.7712708 3:0.17948718 4:14.05585 #A8AYF8
-0.00059837660932080016015083279157238 1:0.14102565 2:15.396473 3:0.14102565 4:47.080849 #SRS015745.35603
0.00059837660932080016015083279157238 1:0.03846154 2:8.6563644 3:0.03846154 4:15.412105 #Q9JXS7
-0.00059837660932080016015083279157238 1:0.03846154 2:0.38909206 3:0.03846154 4:3.0222075 #SRS056892.26323
0.00059837660932080016015083279157238 1:0.16666667 2:8.7773056 3:0.16666667 4:14.092451 #Q8RE97
0.00059837660932080016015083279157238 1:0.11538462 2:8.8279037 3:0.11538462 4:14.364756 #A8AXJ8
-0.00059837660932080016015083279157238 1:0.07692308 2:1.1907848 3:0.07692308 4:4.1914821 #SRS013239.34138
0.00059837660932080016015083279157238 1:0.051282052 2:15.459215 3:0.051282052 4:79.4953 #A6W3S8
-0.00059837660932080016015083279157238 1:0.11538462 2:15.257365 3:0.11538462 4:47.194641 #SRS015436.55511
-0.00059837660932080016015083279157238 1:0.2820513 2:15.341639 3:0.2820513 4:42.577629 #SRS015745.9002
0.00059837660932080016015083279157238 1:0.012820513 2:4.8699093 3:0.012820513 4:19.120661 #Q8R5X3
-0.00059837660932080016015083279157238 1:0.025641026 2:3.2961254 3:0.025641026 4:6.8197203 #SRS013881.21798
0.00059837660932080016015083279157238 1:0.089743592 2:15.158529 3:0.089743592 4:49.020378 #Q5M4R9
-0.00059837660932080016015083279157238 1:0.11538462 2:15.239902 3:0.11538462 4:46.970757 #SRS023987.34578
0.00059837660932080016015083279157238 1:0.1025641 2:8.9681625 3:0.1025641 4:14.726483 #A8AWF1
-9.7926847213158918492581506143324e-06 1:0.025641026 2:0.23344262 3:0.025641026 4:2.6637354 #SRS017215.48496
0.00059837660932080016015083279157238 1:0.089743592 2:15.801709 3:0.089743592 4:61.963547 #Q4UR08
-0.00059837660932080016015083279157238 1:0.07692308 2:14.882847 3:0.07692308 4:47.191914 #SRS015646.7754
-0.00059837660932080016015083279157238 1:0.11538462 2:15.231718 3:0.11538462 4:46.843578 #SRS015646.4877
0.00059837660932080016015083279157238 1:0.051282052 2:15.316185 3:0.051282052 4:73.413925 #Q8DY77
0.00059837660932080016015083279157238 1:0.17948718 2:8.9927874 3:0.17948718 4:14.501464 #Q9JZ80
-0.00059837660932080016015083279157238 1:0.2820513 2:15.034371 3:0.2820513 4:39.383011 #SRS017537.2413
0.00059837660932080016015083279157238 1:0.012820513 2:5.8172531 3:0.012820513 4:92.126205 #Q834E2
-0.00059837660932080016015083279157238 1:0.064102568 2:0.89715421 3:0.064102568 4:3.8308041 #SRS050628.59450
0.00059837660932080016015083279157238 1:0.064102568 2:15.540706 3:0.064102568 4:66.851135 #Q5M2T7
-0.00059837660932080016015083279157238 1:0.2820513 2:15.051139 3:0.2820513 4:39.547554 #SRS024377.5695
0.00059837660932080016015083279157238 1:0.15384616 2:9.1494551 3:0.15384616 4:14.88595 #A8AVL4
-0.00054561270553676877170801162719727 1:0.025641026 2:11.327392 3:0.025641026 4:46.295792 #SRS019587.4856
0.00059837660932080016015083279157238 1:0.11538462 2:9.2351837 3:0.11538462 4:15.225314 #Q8REA7
-0.00059837660932080016015083279157238 1:0.03846154 2:0.3942028 3:0.03846154 4:3.0312142 #SRS013239.17664
0.00059837660932080016015083279157238 1:0.20512821 2:9.0631838 3:0.20512821 4:14.604688 #A3CRB9
-0.00059837660932080016015083279157238 1:0.051282052 2:14.292275 3:0.051282052 4:47.266575 #SRS018661.22887
0.00059837660932080016015083279157238 1:0.025641026 2:7.8162098 3:0.025641026 4:15.77074 #A7ZDQ0
0.00059837660932080016015083279157238 1:0.051282052 2:14.684714 3:0.051282052 4:54.81168 #Q0VKX4
-0.00059837660932080016015083279157238 1:0.24358974 2:15.464528 3:0.24358974 4:44.514 #SRS018359.30279
-0.00059837660932080016015083279157238 1:0.089743592 2:1.5826933 3:0.089743592 4:4.6331615 #SRS013945.28373
0.00059837660932080016015083279157238 1:0.012820513 2:5.8130126 3:0.012820513 4:90.016205 #A4W351
0.00059837660932080016015083279157238 1:0.17948718 2:16.855644 3:0.17948718 4:76.295204 #A6VLE0
-0.00059837660932080016015083279157238 1:0.11538462 2:2.9663007 3:0.11538462 4:6.1342988 #SRS023987.25197
0.00059837660932080016015083279157238 1:0.025641026 2:12.221142 3:0.025641026 4:91.774979 #B9DW16
-0.00059837660932080016015083279157238 1:0.2820513 2:14.06479 3:0.2820513 4:31.749146 #SRS018149.29563
0.00059837660932080016015083279157238 1:0.025641026 2:8.1285353 3:0.025641026 4:16.88307 #Q9JWE5
0.00059837660932080016015083279157238 1:0.051282052 2:14.641285 3:0.051282052 4:53.863316 #Q8CWX7
-0.00059837660932080016015083279157238 1:0.1923077 2:15.426352 3:0.1923077 4:45.221081 #SRS016196.4064
0.00059837660932080016015083279157238 1:0.03846154 2:8.8899584 3:0.03846154 4:16.015909 #A8Z6J5
-0.00059837660932080016015083279157238 1:0.03846154 2:0.40328541 3:0.03846154 4:3.0497634 #SRS056892.47052
-0.00059837660932080016015083279157238 1:0.089743592 2:15.027666 3:0.089743592 4:46.982517 #SRS056892.17565
0.00059837660932080016015083279157238 1:0.12820514 2:9.2566175 3:0.12820514 4:15.209565 #A3CKI0
0.00059837660932080016015083279157238 1:0.03846154 2:14.438713 3:0.03846154 4:71.583084 #Q65UE1
0.00059837660932080016015083279157238 1:0.16666667 2:9.2081642 3:0.16666667 4:14.976607 #A3CL56
-0.00058187042122204157834630677825771 1:0.03846154 2:13.549599 3:0.03846154 4:47.051567 #SRS022145.15632
0.00059837660932080016015083279157238 1:0.03846154 2:9.0244284 3:0.03846154 4:16.395967 #Q9F1T6
-0.00059837660932080016015083279157238 1:0.089743592 2:1.7407976 3:0.089743592 4:4.7968502 #SRS017127.34453
0.00059837660932080016015083279157238 1:0.20512821 2:9.39221 3:0.20512821 4:15.291101 #Q8RFN7
-0.00059837660932080016015083279157238 1:0.089743592 2:15.017882 3:0.089743592 4:46.835464 #SRS013825.16717
-0.00059837660932080016015083279157238 1:0.064102568 2:14.638311 3:0.064102568 4:46.972397 #SRS021473.26264
0.00059837660932080016015083279157238 1:0.15384616 2:9.3792458 3:0.15384616 4:15.378124 #Q8R605
-0.00059837660932080016015083279157238 1:0.025641026 2:0.2582401 3:0.025641026 4:2.7290087 #SRS013945.35268
-0.00059837660932080016015083279157238 1:0.03846154 2:0.40508255 3:0.03846154 4:3.0534482 #SRS063287.32884
0.00059837660932080016015083279157238 1:0.1923077 2:9.3032398 3:0.1923077 4:15.129096 #A8B000
-0.00059837660932080016015083279157238 1:0.025641026 2:11.322494 3:0.025641026 4:46.17617 #SRS013239.9334
0.00059837660932080016015083279157238 1:0.089743592 2:9.4610271 3:0.089743592 4:15.915693 #Q8RG42
0.00059837660932080016015083279157238 1:0.051282052 2:14.598269 3:0.051282052 4:52.988636 #A6VP68
-0.00059837660932080016015083279157238 1:0.064102568 2:14.622442 3:0.064102568 4:46.700478 #SRS015646.7217
-0.00059837660932080016015083279157238 1:0.2820513 2:14.330351 3:0.2820513 4:33.527702 #SRS045262.9374
0.00059837660932080016015083279157238 1:0.012820513 2:5.8127346 3:0.012820513 4:89.895027 #Q9CME6
-0.00050202596939743354687024634586123 1:0.012820513 2:5.4136019 3:0.012820513 4:32.909744 #SRS022532.12282
0.00059837660932080016015083279157238 1:0.051282052 2:10.979589 3:0.051282052 4:21.511528 #Q7VLW2
0.00059837660932080016015083279157238 1:0.03846154 2:9.1620026 3:0.03846154 4:16.793484 #Q9JYZ9
0.00059837660932080016015083279157238 1:0.1025641 2:9.5757551 3:0.1025641 4:16.076109 #A3CPJ9
-0.00059837660932080016015083279157238 1:0.03846154 2:13.541389 3:0.03846154 4:46.901752 #SRS015646.18602
0.00059837660932080016015083279157238 1:0.1025641 2:9.4705477 3:0.1025641 4:15.830184 #A8AWT5
-0.00059837660932080016015083279157238 1:0.03846154 2:8.257349 3:0.03846154 4:14.424901 #SRS016503.11493
0.00059837660932080016015083279157238 1:0.14102565 2:9.4717684 3:0.14102565 4:15.629246 #P29842
-0.00059628937137523596589971930370666 1:0.03846154 2:13.540122 3:0.03846154 4:46.872826 #SRS016600.8755
-0.00058210853522450145547395550238434 1:0.03846154 2:13.535752 3:0.03846154 4:46.795048 #SRS063272.9501
0.00059837660932080016015083279157238 1:0.1025641 2:9.5410089 3:0.1025641 4:15.99061 #P10640
-0.00059837660932080016015083279157238 1:0.03846154 2:0.40981105 3:0.03846154 4:3.0651314 #SRS018149.63903
-0.00059837660932080016015083279157238 1:0.051282052 2:14.26241 3:0.051282052 4:46.787251 #SRS017810.8502
-0.00059837660932080016015083279157238 1:0.21794872 2:15.420411 3:0.21794872 4:44.49577 #SRS017687.1202
-0.00059837660932080016015083279157238 1:0.051282052 2:0.63505608 3:0.051282052 4:3.4556026 #SRS023987.14731
0.00059837660932080016015083279157238 1:0.14102565 2:9.4913645 3:0.14102565 4:15.674627 #A8AW75
0.00059837660932080016015083279157238 1:0.051282052 2:14.517938 3:0.051282052 4:51.270733 #Q5LZ72
-0.00059837660932080016015083279157238 1:0.2820513 2:14.326344 3:0.2820513 4:33.496548 #SRS018329.9415
0.00059837660932080016015083279157238 1:0.012820513 2:5.7884617 3:0.012820513 4:79.974312 #A3N2Q0
0.00059837660932080016015083279157238 1:0.17948718 2:9.5732069 3:0.17948718 4:15.737058 #P42361
-0.00059837660932080016015083279157238 1:0.051282052 2:0.68978345 3:0.051282052 4:3.5392373 #SRS018149.38963
-0.00059837660932080016015083279157238 1:0.24358974 2:15.41524 3:0.24358974 4:43.904987 #SRS013945.1408
0.00059837660932080016015083279157238 1:0.1923077 2:16.841824 3:0.1923077 4:74.585243 #Q5M126
-0.00059837660932080016015083279157238 1:0.025641026 2:0.26121828 3:0.025641026 4:2.7354395 #SRS018149.65738
-0.00059837660932080016015083279157238 1:0.051282052 2:14.259353 3:0.051282052 4:46.723515 #SRS045262.17956
0.00059837660932080016015083279157238 1:0.012820513 2:4.8942766 3:0.012820513 4:19.474375 #P0A2V6
-0.00059837660932080016015083279157238 1:0.24358974 2:15.313682 3:0.24358974 4:42.751007 #SRS023987.27995
-0.00059837660932080016015083279157238 1:0.26923078 2:14.663536 3:0.26923078 4:36.167664 #SRS019329.6372
0.00059837660932080016015083279157238 1:0.012820513 2:5.7809501 3:0.012820513 4:77.510429 #P57266
0.00059837660932080016015083279157238 1:0.11538462 2:15.429327 3:0.11538462 4:49.856995 #Q5LZ70
-0.00059837660932080016015083279157238 1:0.23076923 2:15.374122 3:0.23076923 4:43.648712 #SRS019976.5590
0.00059837660932080016015083279157238 1:0.025641026 2:8.2286539 3:0.025641026 4:17.256407 #A7ZDQ1
-0.00059837660932080016015083279157238 1:0.025641026 2:0.26788121 3:0.025641026 4:2.7536342 #SRS056892.28937
-0.00059837660932080016015083279157238 1:0.07692308 2:1.3646222 3:0.07692308 4:4.3894162 #SRS050628.42086
0.00059837660932080016015083279157238 1:0.03846154 2:9.2254591 3:0.03846154 4:16.975222 #Q5F5M1
0.00059837660932080016015083279157238 1:0.03846154 2:14.381805 3:0.03846154 4:69.291725 #Q65VQ5
0.00059837660932080016015083279157238 1:0.14102565 2:9.6299057 3:0.14102565 4:15.977869 #Q8RI93
-0.00059837660932080016015083279157238 1:0.064102568 2:14.608911 3:0.064102568 4:46.505093 #SRS017810.9671
-0.00059837660932080016015083279157238 1:0.03846154 2:0.42332861 3:0.03846154 4:3.0898075 #SRS019587.32596
0.00059837660932080016015083279157238 1:0.064102568 2:14.693625 3:0.064102568 4:47.854305 #P43777
0.00059837660932080016015083279157238 1:0.20512821 2:9.6293354 3:0.20512821 4:15.805769 #Q8RFN2
0.00059837660932080016015083279157238 1:0.012820513 2:5.7274523 3:0.012820513 4:63.965176 #P0ABU3
-0.00059837660932080016015083279157238 1:0.089743592 2:14.981396 3:0.089743592 4:46.312359 #SRS019329.40241
0.00059837660932080016015083279157238 1:0.07692308 2:9.5974588 3:0.07692308 4:16.407713 #Q70WY6
0.00059837660932080016015083279157238 1:0.03846154 2:14.426557 3:0.03846154 4:71.076401 #Q03MK4
0.00059837660932080016015083279157238 1:0.025641026 2:8.2329855 3:0.025641026 4:17.275375 #B2RJ90
-0.00059837660932080016015083279157238 1:0.064102568 2:14.60702 3:0.064102568 4:46.48386 #SRS050029.21800
-0.00059837660932080016015083279157238 1:0.064102568 2:14.60186 3:0.064102568 4:46.403194 #SRS050029.46165
0.00059837660932080016015083279157238 1:0.11538462 2:9.6469259 3:0.11538462 4:16.16124 #Q8RGX1
-0.00059837660932080016015083279157238 1:0.26923078 2:13.713907 3:0.26923078 4:29.663435 #SRS015040.22866
-0.00059837660932080016015083279157238 1:0.1025641 2:2.4375534 3:0.1025641 4:5.5484281 #SRS022625.19393
0.00059837660932080016015083279157238 1:0.03846154 2:14.319994 3:0.03846154 4:67.060524 #P69883
-0.00059837660932080016015083279157238 1:0.26923078 2:14.638479 3:0.26923078 4:35.954525 #SRS022532.2442
-0.00059837660932080016015083279157238 1:0.064102568 2:14.600786 3:0.064102568 4:46.385338 #SRS015436.27690
-0.00059837660932080016015083279157238 1:0.20512821 2:15.384764 3:0.20512821 4:44.349861 #SRS014575.13836
-0.00059837660932080016015083279157238 1:0.03846154 2:0.42663574 3:0.03846154 4:3.0949788 #SRS019587.19133
0.00059837660932080016015083279157238 1:0.14102565 2:9.8276987 3:0.14102565 4:16.44908 #Q8RFK2
0.00059837660932080016015083279157238 1:0.46153846 2:18.395512 3:0.46153846 4:204.099 #Q04IJ8
-0.00059837660932080016015083279157238 1:0.14102565 2:15.291729 3:0.14102565 4:45.633644 #SRS019976.21845
0.00059837660932080016015083279157238 1:0.025641026 2:8.4857025 3:0.025641026 4:18.306282 #Q8DUP3
-4.0420527337416134461278716116794e-05 1:0.14102565 2:15.899053 3:0.14102565 4:55.433517 #SRS018149.29669
0.00059837660932080016015083279157238 1:0.03846154 2:9.8220997 3:0.03846154 4:18.866467 #A7ZEY4
0.00059837660932080016015083279157238 1:0.12820514 2:15.640843 3:0.12820514 4:52.018715 #A6VQA3
0.00059837660932080016015083279157238 1:0.24358974 2:9.8179951 3:0.24358974 4:16.175419 #Q8RGA3
-0.00059837660932080016015083279157238 1:0.07692308 2:14.817824 3:0.07692308 4:46.239342 #SRS045262.5965
0.00059837660932080016015083279157238 1:0.012820513 2:5.700459 3:0.012820513 4:58.77549 #Q8DT23
0.00059837660932080016015083279157238 1:0.1923077 2:9.8366089 3:0.1923077 4:16.303282 #A8AYI5
0.00059837660932080016015083279157238 1:0.03846154 2:9.8932695 3:0.03846154 4:19.093636 #Q7VMA0
0.00059837660932080016015083279157238 1:0.025641026 2:8.5163794 3:0.025641026 4:18.43214 #Q9K085
0.00059837660932080016015083279157238 1:0.07692308 2:14.773112 3:0.07692308 4:45.592121 #Q5LZU2
0.00059837660932080016015083279157238 1:0.14102565 2:9.9985714 3:0.14102565 4:16.857731 #A8AVE1
0.00059837660932080016015083279157238 1:0.1025641 2:10.241548 3:0.1025641 4:17.75843 #A3CM36
0.00059837660932080016015083279157238 1:0.025641026 2:8.591629 3:0.025641026 4:18.76405 #A7ZC05
-0.00059837660932080016015083279157238 1:0.32051283 2:16.460913 3:0.32051283 4:59.049137 #SRS015154.30194
-0.00059837660932080016015083279157238 1:0.32051283 2:16.021719 3:0.32051283 4:51.073589 #SRS015895.11588
0.00059837660932080016015083279157238 1:0.012820513 2:5.6978397 3:0.012820513 4:58.320606 #A3N0Y3
-0.00059837660932080016015083279157238 1:0.025641026 2:12.707664 3:0.025641026 4:271.73581 #SRS014890.211
0.00059837660932080016015083279157238 1:0.17948718 2:9.9563427 3:0.17948718 4:16.617998 #A8AY29
-0.00059837660932080016015083279157238 1:0.025641026 2:0.26948735 3:0.025641026 4:2.7585757 #SRS013945.32861
-0.00059837660932080016015083279157238 1:0.07692308 2:1.3810648 3:0.07692308 4:4.410459 #SRS050029.33782
0.00059837660932080016015083279157238 1:0.012820513 2:5.6949358 3:0.012820513 4:57.840969 #Q89ZJ0
-0.00059837660932080016015083279157238 1:0.03846154 2:0.44514582 3:0.03846154 4:3.1335297 #SRS018149.58498
-0.00059837660932080016015083279157238 1:0.29487181 2:16.07358 3:0.29487181 4:52.358246 #SRS017127.6561
0.00059837660932080016015083279157238 1:0.012820513 2:5.3680677 3:0.012820513 4:30.878664 #Q8A9B8
-0.00059837660932080016015083279157238 1:0.089743592 2:1.8754337 3:0.089743592 4:4.9433913 #SRS018149.35979
0.00059837660932080016015083279157238 1:0.03846154 2:14.31153 3:0.03846154 4:66.759727 #P48209
-0.00059837660932080016015083279157238 1:0.24358974 2:16.986208 3:0.24358974 4:75.467484 #SRS019329.1827
0.00059837660932080016015083279157238 1:0.012820513 2:5.6406698 3:0.012820513 4:50.146423 #A4SPN5
0.00059837660932080016015083279157238 1:0.20512821 2:9.9174109 3:0.20512821 4:16.469379 #O86224
-0.00059837660932080016015083279157238 1:0.2820513 2:15.839834 3:0.2820513 4:48.90258 #SRS016503.1354
0.00059837660932080016015083279157238 1:0.012820513 2:5.6392956 3:0.012820513 4:50.00095 #Q6CYJ3
0.00059837660932080016015083279157238 1:0.07692308 2:13.80307 3:0.07692308 4:34.959091 #Q5M1B4
-0.00059837660932080016015083279157238 1:0.025641026 2:0.2717545 3:0.025641026 4:2.7641158 #SRS018149.78736
0.00059837660932080016015083279157238 1:0.11538462 2:15.410069 3:0.11538462 4:49.55249 #Q5XEB4
-0.00059837660932080016015083279157238 1:0.15384616 2:9.8980722 3:0.15384616 4:16.56134 #SRS018329.6327
-0.00059837660932080016015083279157238 1:0.025641026 2:12.707538 3:0.025641026 4:271.68338 #SRS018661.15392
-0.00059837660932080016015083279157238 1:0.025641026 2:0.27864802 3:0.025641026 4:2.7797971 #SRS018149.64149
-0.00059837660932080016015083279157238 1:0.23076923 2:16.971451 3:0.23076923 4:75.766037 #SRS018359.6068
-0.00059837660932080016015083279157238 1:0.25641027 2:16.472664 3:0.25641027 4:60.857628 #SRS017013.6961
0.00059837660932080016015083279157238 1:0.012820513 2:5.6390433 3:0.012820513 4:49.975498 #Q8A414
0.00059837660932080016015083279157238 1:0.051282052 2:10.721165 3:0.051282052 4:20.603151 #P77866
0.00059837660932080016015083279157238 1:0.80769229 2:18.493166 3:0.80769229 4:205.10204 #P44410
-0.00059837660932080016015083279157238 1:0.025641026 2:4.72996 3:0.025641026 4:8.8693371 #SRS018149.27973
0.00059837660932080016015083279157238 1:0.03846154 2:13.551999 3:0.03846154 4:47.092678 #Q03MA3
-0.00059837660932080016015083279157238 1:0.26923078 2:15.953332 3:0.26923078 4:50.775028 #SRS013881.7895
0.00059837660932080016015083279157238 1:0.012820513 2:5.6370625 3:0.012820513 4:49.747707 #A3N121
0.00059837660932080016015083279157238 1:0.24358974 2:17.036495 3:0.24358974 4:77.301598 #Q65QU0
-0.00059837660932080016015083279157238 1:0.025641026 2:0.28544348 3:0.025641026 4:2.7964604 #SRS050029.42174
-0.00059837660932080016015083279157238 1:0.26923078 2:14.501307 3:0.26923078 4:34.887825 #SRS050029.14503
0.00059837660932080016015083279157238 1:0.012820513 2:5.4162259 3:0.012820513 4:33.037876 #A6L1L8
0.00059837660932080016015083279157238 1:0.11538462 2:10.318898 3:0.11538462 4:17.856045 #Q8RDQ4
0.00059837660932080016015083279157238 1:0.16666667 2:15.900888 3:0.16666667 4:53.460751 #Q57213
-0.00059837660932080016015083279157238 1:0.025641026 2:0.28902853 3:0.025641026 4:2.806936 #SRS017013.30116
-0.00059837660932080016015083279157238 1:0.24358974 2:16.743608 3:0.24358974 4:68.11525 #SRS016600.2195
0.00059837660932080016015083279157238 1:0.012820513 2:5.4202762 3:0.012820513 4:33.235653 #P44173
0.00059837660932080016015083279157238 1:0.064102568 2:14.43935 3:0.064102568 4:44.08287 #P57829
-0.00059837660932080016015083279157238 1:0.12820514 2:4.6052437 3:0.12820514 4:8.0299978 #SRS018149.9791
-0.00059837660932080016015083279157238 1:0.25641027 2:16.303204 3:0.25641027 4:57.204948 #SRS016039.27306
0.00059837660932080016015083279157238 1:0.012820513 2:5.4284444 3:0.012820513 4:33.612713 #A6KZH6
-0.00059837660932080016015083279157238 1:0.03846154 2:0.45807406 3:0.03846154 4:3.1605089 #SRS013945.53490
-0.00059837660932080016015083279157238 1:0.26923078 2:14.433054 3:0.26923078 4:34.370895 #SRS019221.10667
0.00059837660932080016015083279157238 1:0.025641026 2:12.072713 3:0.025641026 4:78.087227 #Q8FQ20
-0.00059837660932080016015083279157238 1:0.025641026 2:12.707487 3:0.025641026 4:271.61411 #SRS023534.5832
-0.00059837660932080016015083279157238 1:0.064102568 2:1.0234061 3:0.064102568 4:3.9884737 #SRS013506.16234
0.00059837660932080016015083279157238 1:0.03846154 2:14.042204 3:0.03846154 4:58.041626 #Q03H14
0.00059837660932080016015083279157238 1:0.20512821 2:9.958559 3:0.20512821 4:16.566334 #A3CPL6
0.00059837660932080016015083279157238 1:0.012820513 2:5.4311461 3:0.012820513 4:33.747921 #Q8A624
-0.00059837660932080016015083279157238 1:0.23076923 2:16.768364 3:0.23076923 4:69.444252 #SRS017537.3838
0.00059837660932080016015083279157238 1:0.03846154 2:13.94688 3:0.03846154 4:55.605545 #Q5M067
0.00059837660932080016015083279157238 1:0.012820513 2:5.4410267 3:0.012820513 4:34.282455 #Q5LGW6
-0.00059837660932080016015083279157238 1:0.21794872 2:16.850208 3:0.21794872 4:72.760063 #SRS011310.15062
-0.00059837660932080016015083279157238 1:0.24358974 2:16.011812 3:0.24358974 4:52.347553 #SRS013945.38
0.00059837660932080016015083279157238 1:0.012820513 2:5.4451137 3:0.012820513 4:34.481812 #A7ZF35
-0.00059837660932080016015083279157238 1:0.025641026 2:0.28912285 3:0.025641026 4:2.8072789 #SRS050029.35219
-0.00059837660932080016015083279157238 1:0.051282052 2:0.69962686 3:0.051282052 4:3.5552723 #SRS050029.40384
-0.00059837660932080016015083279157238 1:0.25641027 2:14.36918 3:0.25641027 4:33.983463 #SRS017810.17048
0.00059837660932080016015083279157238 1:0.012820513 2:5.4565067 3:0.012820513 4:35.089592 #Q8E061
0.00059837660932080016015083279157238 1:0.089743592 2:13.888324 3:0.089743592 4:34.518631 #Q9CPH2
-0.00059837660932080016015083279157238 1:0.064102568 2:1.033892 3:0.064102568 4:4.0024533 #SRS017127.19028
-0.00059837660932080016015083279157238 1:0.25641027 2:13.666351 3:0.25641027 4:29.449251 #SRS016600.1533
-0.00059837660932080016015083279157238 1:0.25641027 2:14.127295 3:0.25641027 4:32.308952 #SRS016503.5311
0.00059837660932080016015083279157238 1:0.012820513 2:5.6066756 3:0.012820513 4:46.354031 #P44604
-0.00059837660932080016015083279157238 1:0.012820513 2:5.9184346 3:0.012820513 4:238.9489 #SRS015274.9713
0.00059837660932080016015083279157238 1:0.089743592 2:13.367461 3:0.089743592 4:30.691557 #P45288
0.00059837660932080016015083279157238 1:0.12820514 2:15.251101 3:0.12820514 4:46.024117 #Q5M153
-0.00059837660932080016015083279157238 1:0.025641026 2:0.2959128 3:0.025641026 4:2.8251097 #SRS017013.43693
-0.00059837660932080016015083279157238 1:0.23076923 2:16.424561 3:0.23076923 4:60.72776 #SRS016039.31823
0.00059837660932080016015083279157238 1:0.012820513 2:5.4834113 3:0.012820513 4:36.668411 #A6L686
0.00059837660932080016015083279157238 1:0.29487181 2:17.127146 3:0.29487181 4:78.075729 #Q5M3J8
-0.00059837660932080016015083279157238 1:0.025641026 2:12.706349 3:0.025641026 4:269.6955 #SRS050007.1988
-0.00059837660932080016015083279157238 1:0.25641027 2:14.101878 3:0.25641027 4:32.129894 #SRS015745.3027
0.00059837660932080016015083279157238 1:0.012820513 2:5.5824823 3:0.012820513 4:44.03363 #P95787
-0.00059837660932080016015083279157238 1:0.025641026 2:0.29864663 3:0.025641026 4:2.828989 #SRS013945.56482
0.00059837660932080016015083279157238 1:0.1923077 2:10.02947 3:0.1923077 4:16.760296 #Q8RHZ9
-0.00059837660932080016015083279157238 1:0.089743592 2:1.9494183 3:0.089743592 4:5.0264912 #SRS013945.61969
0.00059837660932080016015083279157238 1:0.012820513 2:5.5813065 3:0.012820513 4:43.922577 #P57822
-0.00059837660932080016015083279157238 1:0.23076923 2:16.269732 3:0.23076923 4:57.348579 #SRS011310.10394
0.00059837660932080016015083279157238 1:0.76923078 2:18.459677 3:0.76923078 4:196.3511 #Q57538
0.00059837660932080016015083279157238 1:0.012820513 2:5.5518417 3:0.012820513 4:41.404789 #Q332R7
-0.00059837660932080016015083279157238 1:0.21794872 2:16.400766 3:0.21794872 4:60.764622 #SRS017080.38279
0.00059837660932080016015083279157238 1:0.012820513 2:5.5125675 3:0.012820513 4:38.514442 #A8Z6P5
0.00059837660932080016015083279157238 1:0.14102565 2:15.40098 3:0.14102565 4:47.129925 #Q5M117
-0.00059837660932080016015083279157238 1:0.025641026 2:0.29878801 3:0.025641026 4:2.8292494 #SRS022625.35016
-0.00059837660932080016015083279157238 1:0.20512821 2:16.759031 3:0.20512821 4:70.835327 #SRS017080.45478
0.00059837660932080016015083279157238 1:0.012820513 2:5.5188842 3:0.012820513 4:38.971695 #Q99YI7
-0.00059837660932080016015083279157238 1:0.23076923 2:15.783514 3:0.23076923 4:49.079258 #SRS018359.5871
0.00059837660932080016015083279157238 1:0.012820513 2:5.5200748 3:0.012820513 4:39.047394 #P08973
0.00059837660932080016015083279157238 1:0.051282052 2:14.03663 3:0.051282052 4:43.41037 #Q5M079
-0.00059837660932080016015083279157238 1:0.1923077 2:17.173252 3:0.1923077 4:88.382339 #SRS015646.12153
0.00059837660932080016015083279157238 1:0.012820513 2:5.5269332 3:0.012820513 4:39.550648 #A6KXF7
-0.00059837660932080016015083279157238 1:0.025641026 2:0.30656201 3:0.025641026 4:2.8483438 #SRS050628.37501
-0.00059837660932080016015083279157238 1:0.089743592 2:2.105701 3:0.089743592 4:5.191915 #SRS018149.77770
-0.00059837660932080016015083279157238 1:0.025641026 2:12.706198 3:0.025641026 4:269.45798 #SRS045262.5060
-0.00059837660932080016015083279157238 1:0.21794872 2:16.193953 3:0.21794872 4:56.3908 #SRS045262.47411
0.00059837660932080016015083279157238 1:0.012820513 2:5.5493827 3:0.012820513 4:41.212337 #Q03EZ6
0.00059837660932080016015083279157238 1:0.1923077 2:10.0542 3:0.1923077 4:16.824347 #Q8RG99
0.00059837660932080016015083279157238 1:0.1025641 2:14.794194 3:0.1025641 4:42.409336 #Q5LXT2
0.00059837660932080016015083279157238 1:0.03846154 2:13.430258 3:0.03846154 4:44.997055 #B0UW56
0.00059837660932080016015083279157238 1:0.025641026 2:12.129088 3:0.025641026 4:82.530045 #Q9A1C7
0.00059837660932080016015083279157238 1:0.051282052 2:14.01292 3:0.051282052 4:43.090542 #P43893
0.00059837660932080016015083279157238 1:0.65384614 2:18.417887 3:0.65384614 4:190.96964 #Q04KI9
0.00059837660932080016015083279157238 1:0.52564102 2:18.350548 3:0.52564102 4:185.59418 #Q04JI2
-0.00059837660932080016015083279157238 1:0.24358974 2:14.968899 3:0.24358974 4:39.137363 #SRS016600.5728
-0.00059837660932080016015083279157238 1:0.14102565 2:17.663561 3:0.14102565 4:160.048 #SRS016503.9170
-0.00059837660932080016015083279157238 1:0.1025641 2:7.4448266 3:0.1025641 4:11.882873 #SRS018661.16238
-0.00059837660932080016015083279157238 1:0.15384616 2:17.567688 3:0.15384616 4:132.29074 #SRS019221.483
-0.00059837660932080016015083279157238 1:0.025641026 2:0.31475496 3:0.025641026 4:2.8682568 #SRS013945.32505
-0.00059837660932080016015083279157238 1:0.1923077 2:17.044622 3:0.1923077 4:82.183182 #SRS017441.8529
-0.00059837660932080016015083279157238 1:0.16666667 2:10.432468 3:0.16666667 4:17.855814 #SRS022721.4289
-0.00059837660932080016015083279157238 1:0.1025641 2:6.3897028 3:0.1025641 4:10.312833 #SRS013711.13221
-0.00059837660932080016015083279157238 1:0.20512821 2:11.438376 3:0.20512821 4:20.576723 #SRS015040.29856
-0.00059837660932080016015083279157238 1:0.11538462 2:4.6625628 3:0.11538462 4:8.1046743 #SRS017013.27315
-0.00059837660932080016015083279157238 1:0.11538462 2:8.4933043 3:0.11538462 4:13.686615 #SRS018149.27658
-0.00059837660932080016015083279157238 1:0.14102565 2:9.8352861 3:0.14102565 4:16.466192 #SRS019329.8422
0.00059837660932080016015083279157238 1:0.46153846 2:18.307323 3:0.46153846 4:180.78207 #P67580
-0.00059837660932080016015083279157238 1:0.23076923 2:14.834725 3:0.23076923 4:38.073425 #SRS024377.5124
-0.00059837660932080016015083279157238 1:0.23076923 2:15.304689 3:0.23076923 4:42.868851 #SRS011247.7839
0.00059837660932080016015083279157238 1:0.57692307 2:18.353809 3:0.57692307 4:181.96429 #Q04N64
-0.00059837660932080016015083279157238 1:0.025641026 2:12.705615 3:0.025641026 4:268.66202 #SRS015646.1005
-0.00059837660932080016015083279157238 1:0.12820514 2:17.609268 3:0.12820514 4:167.3257 #SRS011247.7300
-0.00059837660932080016015083279157238 1:0.14102565 2:17.41312 3:0.14102565 4:123.28163 #SRS016600.1152
-0.00059837660932080016015083279157238 1:0.1923077 2:16.892248 3:0.1923077 4:76.224609 #SRS021473.7314
-0.00059837660932080016015083279157238 1:0.1025641 2:5.7232819 3:0.1025641 4:9.4189186 #SRS015436.8674
0.00059837660932080016015083279157238 1:0.46153846 2:18.265818 3:0.46153846 4:171.23767 #Q97R22
-0.00059837660932080016015083279157238 1:0.16666667 2:16.979752 3:0.16666667 4:82.994057 #SRS050628.8016
0.00059837660932080016015083279157238 1:0.5 2:18.278963 3:0.5 4:171.12247 #Q97T38
-0.00059837660932080016015083279157238 1:0.20512821 2:16.281061 3:0.20512821 4:58.687813 #SRS018149.82113
0.00059837660932080016015083279157238 1:0.92307693 2:18.356096 3:0.92307693 4:170.11731 #Q4QM91
0.00059837660932080016015083279157238 1:0.025641026 2:10.036772 3:0.025641026 4:27.332798 #Q89YW6
0.00059837660932080016015083279157238 1:0.012820513 2:5.1389852 3:0.012820513 4:23.851915 #Q8DUP4
0.00059837660932080016015083279157238 1:0.025641026 2:12.168509 3:0.025641026 4:86.196175 #P61521
0.00059837660932080016015083279157238 1:0.21794872 2:10.140023 3:0.21794872 4:16.974405 #Q8RH47
0.00059837660932080016015083279157238 1:0.025641026 2:9.5000677 3:0.025641026 4:23.395498 #Q65VV2
0.00059837660932080016015083279157238 1:0.025641026 2:12.130218 3:0.025641026 4:82.635483 #Q8DU81
0.00059837660932080016015083279157238 1:0.012820513 2:5.5364761 3:0.012820513 4:40.234646 #A3N3B3
-0.00059837660932080016015083279157238 1:0.07692308 2:16.531456 3:0.07692308 4:102.03023 #SRS024017.10266
0.00059837660932080016015083279157238 1:0.79487181 2:17.693752 3:0.79487181 4:96.431267 #Q4QKG3
