SVM-light Version V6.02
0 # kernel type
3 # kernel parameter -d 
1 # kernel parameter -g 
1 # kernel parameter -s 
1 # kernel parameter -r 
empty# kernel parameter -u 
4 # highest feature index 
8443 # number of training documents 
1686 # number of support vectors plus 1 
1.0007102 # threshold b, each following line is a SV (starting with alpha*y)
-0.00058419544463043492771303633048774 1:0.14102565 2:11.37244 3:0.14102565 4:20.708368 #SRS014126.12401
0.00058419544463043492771303633048774 1:0.41025642 2:18.574612 3:0.41025642 4:320.16608 #Q97Q48
0.00058419544463043492771303633048774 1:0.012820513 2:1.3850054 3:0.012820513 4:4.690115 #P57925
0.00058419544463043492771303633048774 1:0.012820513 2:0.37452322 3:0.012820513 4:3.0238924 #A6LFP0
-0.00058419544463043492771303633048774 1:0.14102565 2:17.030058 3:0.14102565 4:92.025078 #SRS022145.1500
0.00058419544463043492771303633048774 1:0.8974359 2:18.743534 3:0.8974359 4:523.21558 #Q8DNT8
0.00058419544463043492771303633048774 1:0.61538464 2:16.698812 3:0.61538464 4:61.834099 #Q4QN19
-0.00058419544463043492771303633048774 1:0.025641026 2:0.28506604 3:0.025641026 4:2.7957439 #SRS018149.35459
0.00058419544463043492771303633048774 1:0.012820513 2:1.9408407 3:0.012820513 4:5.5947671 #Q5FA19
0.00058419544463043492771303633048774 1:0.012820513 2:5.9334178 3:0.012820513 4:431.66412 #Q3K2S4
0.00058419544463043492771303633048774 1:0.012820513 2:0.42745546 3:0.012820513 4:3.1390576 #Q8R659
0.00058419544463043492771303633048774 1:0.70512819 2:18.724154 3:0.70512819 4:471.37012 #Q04I59
-0.00058419544463043492771303633048774 1:0.025641026 2:12.752851 3:0.025641026 4:556.4082 #SRS016088.7201
0.00058419544463043492771303633048774 1:0.012820513 2:0.57804948 3:0.012820513 4:3.4295981 #Q8R678
0.00058419544463043492771303633048774 1:0.69230771 2:18.717445 3:0.69230771 4:435.0723 #O69076
-0.00058419544463043492771303633048774 1:0.025641026 2:12.752802 3:0.025641026 4:553.58044 #SRS011310.9985
0.00058419544463043492771303633048774 1:0.64102566 2:18.699579 3:0.64102566 4:407.55966 #Q97SR1
0.00058419544463043492771303633048774 1:0.012820513 2:5.9309592 3:0.012820513 4:347.15628 #Q24QE3
-0.00058419544463043492771303633048774 1:0.58974361 2:16.763498 3:0.58974361 4:63.470818 #SRS017687.40741
-0.00058419544463043492771303633048774 1:0.56410259 2:18.682663 3:0.56410259 4:518.69128 #SRS063272.41172
-0.00058419544463043492771303633048774 1:0.051282052 2:16.338581 3:0.051282052 4:196.37349 #SRS014890.862
-0.00058419544463043492771303633048774 1:0.20512821 2:18.147684 3:0.20512821 4:216.55382 #SRS022145.2426
0.00058419544463043492771303633048774 1:0.012820513 2:0.67464989 3:0.012820513 4:3.5975296 #A7ZEZ5
0.00058419544463043492771303633048774 1:0.71794873 2:18.717562 3:0.71794873 4:404.69308 #Q8DQY5
-0.00058419544463043492771303633048774 1:0.025641026 2:12.701744 3:0.025641026 4:262.42026 #SRS024377.892
0.00058419544463043492771303633048774 1:0.012820513 2:5.8707533 3:0.012820513 4:132.96028 #Q57293
0.00058419544463043492771303633048774 1:0.012820513 2:5.9137697 3:0.012820513 4:219.96794 #P72481
0.00058419544463043492771303633048774 1:0.012820513 2:0.82299423 3:0.012820513 4:3.8401897 #C1DCC1
0.00058419544463043492771303633048774 1:0.29487181 2:12.13688 3:0.29487181 4:22.566822 #A8AUN6
0.00058419544463043492771303633048774 1:0.24358974 2:9.0501661 3:0.24358974 4:14.528329 #Q8RHM2
-0.00058419544463043492771303633048774 1:0.025641026 2:12.633361 3:0.025641026 4:202.84401 #SRS011247.10362
0.00058419544463043492771303633048774 1:0.82051283 2:18.728783 3:0.82051283 4:403.92947 #P67595
-0.00058419544463043492771303633048774 1:0.012820513 2:5.9157085 3:0.012820513 4:227.33922 #SRS017127.347
-0.00058419544463043492771303633048774 1:0.025641026 2:12.751395 3:0.025641026 4:490.59311 #SRS045254.15138
-0.00058419544463043492771303633048774 1:0.025641026 2:12.635432 3:0.025641026 4:204.1528 #SRS011310.3558
0.00058419544463043492771303633048774 1:0.65384614 2:18.701441 3:0.65384614 4:397.9205 #Q04HV7
0.00058419544463043492771303633048774 1:0.012820513 2:0.69646788 3:0.012820513 4:3.6353936 #A3N0G0
0.00058419544463043492771303633048774 1:0.29487181 2:16.355898 3:0.29487181 4:57.360855 #Q93IE8
-0.00058419544463043492771303633048774 1:0.025641026 2:12.635534 3:0.025641026 4:204.20772 #SRS021473.1178
0.00058419544463043492771303633048774 1:0.11538462 2:5.6740866 3:0.11538462 4:9.3403063 #A8AXY8
0.00058419544463043492771303633048774 1:0.57692307 2:18.673973 3:0.57692307 4:397.01248 #Q8DRF9
0.00058419544463043492771303633048774 1:0.23076923 2:13.762568 3:0.23076923 4:30.175255 #A3CLD3
-0.00058419544463043492771303633048774 1:0.03846154 2:15.404059 3:0.03846154 4:201.80833 #SRS043646.56
0.00058419544463043492771303633048774 1:0.012820513 2:5.7809501 3:0.012820513 4:77.510429 #P57266
0.00058419544463043492771303633048774 1:0.51282054 2:18.647089 3:0.51282054 4:386.15891 #Q04HV1
-0.00058419544463043492771303633048774 1:0.025641026 2:12.636786 3:0.025641026 4:204.9783 #SRS017537.40
0.00058419544463043492771303633048774 1:0.67948717 2:18.703297 3:0.67948717 4:379.79767 #Q97S93
-0.00058419544463043492771303633048774 1:0.051282052 2:16.352947 3:0.051282052 4:201.79541 #SRS013881.1238
0.00058419544463043492771303633048774 1:0.83333331 2:18.719145 3:0.83333331 4:367.61139 #Q97PT4
-0.00058419544463043492771303633048774 1:0.025641026 2:12.637349 3:0.025641026 4:205.19739 #SRS023354.76
0.00058419544463043492771303633048774 1:0.91025639 2:18.720884 3:0.91025639 4:366.97186 #P0A2U8
-0.00058419544463043492771303633048774 1:0.051282052 2:16.354662 3:0.051282052 4:202.43867 #SRS049283.88
0.00058419544463043492771303633048774 1:0.61538464 2:18.677076 3:0.61538464 4:362.47687 #P72525
-0.00058419544463043492771303633048774 1:0.03846154 2:15.411132 3:0.03846154 4:204.79143 #SRS023354.9427
0.00058419544463043492771303633048774 1:0.07692308 2:17.337206 3:0.07692308 4:360.51331 #P0C0C6
-0.00058419544463043492771303633048774 1:0.025641026 2:12.750089 3:0.025641026 4:457.0882 #SRS015745.1303
-0.00058419544463043492771303633048774 1:0.07692308 2:17.151661 3:0.07692308 4:206.74983 #SRS021473.5569
0.00058419544463043492771303633048774 1:0.73076922 2:18.704351 3:0.73076922 4:355.39816 #P35594
-0.00058419544463043492771303633048774 1:0.051282052 2:16.367174 3:0.051282052 4:206.91972 #SRS016196.912
0.00058419544463043492771303633048774 1:0.58974361 2:18.663263 3:0.58974361 4:352.25763 #Q04JM8
-0.00058419544463043492771303633048774 1:0.051282052 2:16.55188 3:0.051282052 4:453.00449 #SRS019391.414
-0.00058419544463043492771303633048774 1:0.025641026 2:12.637502 3:0.025641026 4:205.30441 #SRS017127.11434
0.00058419544463043492771303633048774 1:0.58974361 2:18.66267 3:0.58974361 4:351.55753 #Q97SE7
-0.00058419544463043492771303633048774 1:0.025641026 2:12.639827 3:0.025641026 4:206.826 #SRS017441.975
0.00058419544463043492771303633048774 1:0.66666669 2:18.684587 3:0.66666669 4:343.13583 #Q04ML5
-0.00058419544463043492771303633048774 1:0.07692308 2:17.172394 3:0.07692308 4:214.3354 #SRS018329.3720
0.00058419544463043492771303633048774 1:0.5 2:18.618023 3:0.5 4:331.16162 #Q97NC9
-0.00058419544463043492771303633048774 1:0.07692308 2:17.316225 3:0.07692308 4:316.04324 #SRS019872.14653
-0.00058419544463043492771303633048774 1:0.089743592 2:17.403149 3:0.089743592 4:221.22049 #SRS017080.18494
-0.00058419544463043492771303633048774 1:0.051282052 2:16.385794 3:0.051282052 4:214.52968 #SRS021473.2664
-0.00058419544463043492771303633048774 1:0.025641026 2:12.643785 3:0.025641026 4:209.73428 #SRS020858.3555
0.00058419544463043492771303633048774 1:0.42307693 2:18.585415 3:0.42307693 4:328.73065 #Q97SE6
-0.00058419544463043492771303633048774 1:0.089743592 2:17.572315 3:0.089743592 4:438.91525 #SRS019872.14759
0.00058419544463043492771303633048774 1:0.53846157 2:18.63084 3:0.53846157 4:328.7424 #P0A3R1
-0.00058419544463043492771303633048774 1:0.025641026 2:12.749988 3:0.025641026 4:453.58728 #SRS018661.3040
-0.00058419544463043492771303633048774 1:0.03846154 2:15.434073 3:0.03846154 4:214.93776 #SRS022532.5956
0.00058419544463043492771303633048774 1:0.75641024 2:18.692068 3:0.75641024 4:327.04977 #Q04I74
-0.00058419544463043492771303633048774 1:0.051282052 2:16.392637 3:0.051282052 4:217.60805 #SRS022532.29275
0.00058419544463043492771303633048774 1:0.85897434 2:18.697227 3:0.85897434 4:322.67416 #P0CC08
-0.00058419544463043492771303633048774 1:0.16666667 2:18.136564 3:0.16666667 4:281.73074 #SRS016503.2621
-0.00058419544463043492771303633048774 1:0.025641026 2:12.645215 3:0.025641026 4:210.72897 #SRS018359.917
-0.00058419544463043492771303633048774 1:0.051282052 2:16.405848 3:0.051282052 4:223.87952 #SRS024377.8702
0.00058419544463043492771303633048774 1:0.78205127 2:18.691429 3:0.78205127 4:319.20844 #Q97R83
0.00058419544463043492771303633048774 1:0.71794873 2:18.681868 3:0.71794873 4:318.61346 #Q04KF8
-0.00058419544463043492771303633048774 1:0.025641026 2:12.645789 3:0.025641026 4:211.08472 #SRS022145.17197
0.00058419544463043492771303633048774 1:0.57692307 2:18.636438 3:0.57692307 4:314.03146 #Q97S25
-0.00058419544463043492771303633048774 1:0.064102568 2:16.896662 3:0.064102568 4:227.01933 #SRS045049.55233
-0.00058419544463043492771303633048774 1:0.07692308 2:17.204556 3:0.07692308 4:228.60081 #SRS018359.1182
0.00058419544463043492771303633048774 1:0.03846154 2:15.533496 3:0.03846154 4:290.72144 #Q04IK8
0.00058419544463043492771303633048774 1:0.21794872 2:18.258577 3:0.21794872 4:249.60712 #Q04IQ2
0.00058419544463043492771303633048774 1:0.21794872 2:18.334459 3:0.21794872 4:310.14236 #Q97TC5
-0.00058419544463043492771303633048774 1:0.025641026 2:12.748279 3:0.025641026 4:429.55695 #SRS014126.1314
-0.00058419544463043492771303633048774 1:0.051282052 2:16.40888 3:0.051282052 4:225.39331 #SRS011247.2418
0.00058419544463043492771303633048774 1:0.26923078 2:18.434666 3:0.26923078 4:302.40674 #Q8DNK7
0.00058419544463043492771303633048774 1:0.48717949 2:18.52137 3:0.48717949 4:249.24503 #Q54869
-0.00058419544463043492771303633048774 1:0.025641026 2:12.648865 3:0.025641026 4:212.91362 #SRS023591.2230
-0.00058419544463043492771303633048774 1:0.051282052 2:16.546034 3:0.051282052 4:404.70993 #SRS050628.81090
0.00058419544463043492771303633048774 1:0.43589744 2:18.505043 3:0.43589744 4:251.35658 #Q97PK6
-0.00058419544463043492771303633048774 1:0.03846154 2:15.448789 3:0.03846154 4:222.62743 #SRS016196.2740
-0.00058419544463043492771303633048774 1:0.051282052 2:16.422203 3:0.051282052 4:232.48354 #SRS055118.2237
0.00058419544463043492771303633048774 1:0.17948718 2:18.198671 3:0.17948718 4:293.20602 #P22291
0.00058419544463043492771303633048774 1:0.6025641 2:18.637995 3:0.6025641 4:302.45197 #P65239
0.00058419544463043492771303633048774 1:0.6025641 2:18.634315 3:0.6025641 4:298.71872 #P63384
0.00058419544463043492771303633048774 1:0.48717949 2:18.524881 3:0.48717949 4:251.20592 #Q04LU1
-0.00058419544463043492771303633048774 1:0.03846154 2:15.575754 3:0.03846154 4:409.31427 #SRS017687.17778
-0.00058419544463043492771303633048774 1:0.03846154 2:15.457845 3:0.03846154 4:227.9863 #SRS016600.1405
0.00058419544463043492771303633048774 1:0.51282054 2:18.597893 3:0.51282054 4:296.50806 #Q97SG0
-0.00058419544463043492771303633048774 1:0.03846154 2:15.459929 3:0.03846154 4:229.34625 #SRS020858.1044
0.00058419544463043492771303633048774 1:0.25641027 2:18.400074 3:0.25641027 4:290.02982 #P68897
-0.00058419544463043492771303633048774 1:0.03846154 2:15.461253 3:0.03846154 4:230.29414 #SRS015646.1078
0.00058419544463043492771303633048774 1:0.42307693 2:18.557272 3:0.42307693 4:292.28616 #Q04JB0
-0.00058419544463043492771303633048774 1:0.025641026 2:12.746997 3:0.025641026 4:410.11456 #SRS019976.1815
-0.00058419544463043492771303633048774 1:0.03846154 2:15.468409 3:0.03846154 4:234.46681 #SRS016600.4570
0.00058419544463043492771303633048774 1:0.24358974 2:18.375185 3:0.24358974 4:289.42831 #Q07296
0.00058419544463043492771303633048774 1:0.67948717 2:18.603216 3:0.67948717 4:256.48825 #P72524
-0.00058419544463043492771303633048774 1:0.03846154 2:15.469583 3:0.03846154 4:235.06822 #SRS020858.2006
-0.00058419544463043492771303633048774 1:0.089743592 2:17.556028 3:0.089743592 4:362.82361 #SRS016600.813
0.00058419544463043492771303633048774 1:0.3974359 2:18.500671 3:0.3974359 4:258.20694 #Q04IK0
0.00058419544463043492771303633048774 1:0.65384614 2:18.642975 3:0.65384614 4:290.78781 #P0A3R3
-0.00058419544463043492771303633048774 1:0.089743592 2:17.482077 3:0.089743592 4:262.26157 #SRS017080.8935
0.00058419544463043492771303633048774 1:0.51282054 2:18.585272 3:0.51282054 4:285.41763 #Q04IM6
-0.00058419544463043492771303633048774 1:0.03846154 2:15.48093 3:0.03846154 4:242.77718 #SRS021473.2486
0.00058419544463043492771303633048774 1:0.53846157 2:18.591867 3:0.53846157 4:282.65259 #Q04IQ3
0.00058419544463043492771303633048774 1:0.62820512 2:18.625668 3:0.62820512 4:282.44409 #P18766
-0.00058419544463043492771303633048774 1:0.089743592 2:17.539871 3:0.089743592 4:327.17865 #SRS049283.525
-0.00058419544463043492771303633048774 1:0.025641026 2:12.648865 3:0.025641026 4:212.91362 #SRS023591.2236
0.00058419544463043492771303633048774 1:0.6025641 2:18.615149 3:0.6025641 4:281.70129 #P35598
-0.00058419544463043492771303633048774 1:0.064102568 2:17.028921 3:0.064102568 4:365.13791 #SRS012281.337
0.00058419544463043492771303633048774 1:0.57692307 2:18.573999 3:0.57692307 4:258.89648 #P0CB57
-0.00058419544463043492771303633048774 1:0.025641026 2:12.648865 3:0.025641026 4:212.91362 #SRS022145.8809
-0.00058419544463043492771303633048774 1:0.03846154 2:15.500011 3:0.03846154 4:255.02753 #SRS022145.1605
0.00058419544463043492771303633048774 1:0.69230771 2:18.640144 3:0.69230771 4:280.198 #B2IPX4
0.00058419544463043492771303633048774 1:0.69230771 2:18.609219 3:0.69230771 4:258.16299 #P0A4I5
0.00058419544463043492771303633048774 1:0.76923078 2:18.652245 3:0.76923078 4:279.85471 #Q04L36
-0.00058419544463043492771303633048774 1:0.025641026 2:12.651619 3:0.025641026 4:214.73297 #SRS023591.1899
0.00058419544463043492771303633048774 1:0.82051283 2:18.654106 3:0.82051283 4:278.07956 #P63733
0.00058419544463043492771303633048774 1:0.62820512 2:18.61211 3:0.62820512 4:272.0831 #Q97QL2
-0.00058419544463043492771303633048774 1:0.025641026 2:12.662779 3:0.025641026 4:223.52086 #SRS011090.797
-0.00058419544463043492771303633048774 1:0.064102568 2:17.007065 3:0.064102568 4:315.81232 #SRS016088.6067
-0.00058419544463043492771303633048774 1:0.051282052 2:16.496479 3:0.051282052 4:287.18509 #SRS017127.2181
-0.00058419544463043492771303633048774 1:0.025641026 2:12.651772 3:0.025641026 4:214.89998 #SRS045262.291
0.00058419544463043492771303633048774 1:0.76923078 2:18.631893 3:0.76923078 4:264.81927 #P0A4L9
0.00058419544463043492771303633048774 1:0.76923078 2:18.630587 3:0.76923078 4:263.63669 #Q04K81
-0.00058419544463043492771303633048774 1:0.025641026 2:12.65241 3:0.025641026 4:215.27025 #SRS014126.2764
-0.00058419544463043492771303633048774 1:0.064102568 2:17.004185 3:0.064102568 4:310.47714 #SRS023534.910
0.00058419544463043492771303633048774 1:0.025641026 2:12.678824 3:0.025641026 4:238.07257 #Q8DQ32
-0.00058419544463043492771303633048774 1:0.025641026 2:12.653531 3:0.025641026 4:216.09598 #SRS015374.7091
-0.00058419544463043492771303633048774 1:0.025641026 2:12.654576 3:0.025641026 4:217.16489 #SRS023987.21
0.00058419544463043492771303633048774 1:0.012820513 2:5.9009266 3:0.012820513 4:183.65895 #P76027
0.00058419544463043492771303633048774 1:0.012820513 2:5.8976851 3:0.012820513 4:176.4343 #A5F3F1
-0.00058419544463043492771303633048774 1:0.025641026 2:12.655519 3:0.025641026 4:217.87932 #SRS015646.264
0.00058419544463043492771303633048774 1:0.012820513 2:5.8834076 3:0.012820513 4:150.30051 #A2RMI2
-0.00058419544463043492771303633048774 1:0.025641026 2:12.659138 3:0.025641026 4:220.67087 #SRS022625.37
0.00058419544463043492771303633048774 1:0.34615386 2:18.447578 3:0.34615386 4:248.70404 #Q04HZ9
-0.00058419544463043492771303633048774 1:0.025641026 2:12.659545 3:0.025641026 4:220.92102 #SRS048719.349
0.00058419544463043492771303633048774 1:0.33333334 2:18.436701 3:0.33333334 4:248.55611 #B2ISI9
-0.00058419544463043492771303633048774 1:0.025641026 2:12.659902 3:0.025641026 4:221.24568 #SRS015040.1829
0.00058419544463043492771303633048774 1:0.38461539 2:18.473431 3:0.38461539 4:248.38324 #Q97TA2
-0.00058419544463043492771303633048774 1:0.025641026 2:12.660462 3:0.025641026 4:221.58774 #SRS017537.1651
0.00058419544463043492771303633048774 1:0.52564102 2:18.525705 3:0.52564102 4:245.14967 #Q04J60
-0.00058419544463043492771303633048774 1:0.025641026 2:12.661646 3:0.025641026 4:222.57663 #SRS045262.861
-0.00058419544463043492771303633048774 1:0.58974361 2:16.076981 3:0.58974361 4:50.388985 #SRS019329.32726
0.00058419544463043492771303633048774 1:0.012820513 2:5.8745518 3:0.012820513 4:137.61723 #P27624
-0.00058419544463043492771303633048774 1:0.47435898 2:14.488233 3:0.47435898 4:34.072559 #SRS022532.15149
-0.00058419544463043492771303633048774 1:0.42307693 2:18.07476 3:0.42307693 4:140.79535 #SRS017810.48305
-0.00058419544463043492771303633048774 1:0.44871795 2:17.713917 3:0.44871795 4:103.74609 #SRS019221.10892
0.00058419544463043492771303633048774 1:0.012820513 2:5.8690991 3:0.012820513 4:131.0623 #Q3JZK2
0.00058419544463043492771303633048774 1:0.65384614 2:18.570465 3:0.65384614 4:244.31265 #Q04HZ7
0.00058419544463043492771303633048774 1:0.1923077 2:17.971815 3:0.1923077 4:177.26184 #Q8DVV2
0.00058419544463043492771303633048774 1:0.12820514 2:17.799854 3:0.12820514 4:222.69321 #Q8KY50
-0.00058419544463043492771303633048774 1:0.42307693 2:17.998693 3:0.42307693 4:130.85533 #SRS014686.25788
-0.00058419544463043492771303633048774 1:0.24358974 2:18.053165 3:0.24358974 4:166.45897 #SRS045049.55366
-0.00058419544463043492771303633048774 1:0.03846154 2:15.525246 3:0.03846154 4:280.36102 #SRS023591.131
0.00058419544463043492771303633048774 1:0.34615386 2:18.261467 3:0.34615386 4:184.45351 #Q97PS1
0.00058419544463043492771303633048774 1:0.57692307 2:18.353809 3:0.57692307 4:181.96429 #Q04N64
0.00058419544463043492771303633048774 1:0.26923078 2:18.333244 3:0.26923078 4:235.57712 #P95830
-0.00058419544463043492771303633048774 1:0.07692308 2:17.111919 3:0.07692308 4:193.66023 #SRS011310.3688
0.00058419544463043492771303633048774 1:0.88461536 2:18.414991 3:0.88461536 4:183.60553 #P44400
0.00058419544463043492771303633048774 1:0.33333334 2:18.311371 3:0.33333334 4:200.94452 #B5E4U6
0.00058419544463043492771303633048774 1:0.52564102 2:18.350548 3:0.52564102 4:185.59418 #Q04JI2
-0.00058419544463043492771303633048774 1:0.025641026 2:12.693361 3:0.025641026 4:252.96031 #SRS011090.1257
-0.00058419544463043492771303633048774 1:0.025641026 2:12.686287 3:0.025641026 4:245.50797 #SRS020858.1043
0.00058419544463043492771303633048774 1:0.51282054 2:18.357941 3:0.51282054 4:188.51578 #Q97RH6
-0.00058419544463043492771303633048774 1:0.025641026 2:12.690269 3:0.025641026 4:249.36752 #SRS019391.662
0.00058419544463043492771303633048774 1:0.69230771 2:18.442698 3:0.69230771 4:195.19675 #Q04N63
-0.00058419544463043492771303633048774 1:0.051282052 2:16.29007 3:0.051282052 4:181.00423 #SRS021473.3820
0.00058419544463043492771303633048774 1:0.76923078 2:18.459677 3:0.76923078 4:196.3511 #Q57538
0.00058419544463043492771303633048774 1:0.34615386 2:18.42474 3:0.34615386 4:238.01141 #Q97PI4
0.00058419544463043492771303633048774 1:0.38461539 2:18.361519 3:0.38461539 4:204.74416 #P64166
-0.00058419544463043492771303633048774 1:0.03846154 2:15.389559 3:0.03846154 4:195.73199 #SRS016039.1977
-0.00058419544463043492771303633048774 1:0.025641026 2:12.683851 3:0.025641026 4:243.2437 #SRS045262.2425
0.00058419544463043492771303633048774 1:0.42307693 2:18.382132 3:0.42307693 4:204.99631 #Q8DNR5
-0.00058419544463043492771303633048774 1:0.03846154 2:15.387426 3:0.03846154 4:195.09612 #SRS052874.6454
-0.00058419544463043492771303633048774 1:0.025641026 2:12.680373 3:0.025641026 4:239.69223 #SRS015895.1259
0.00058419544463043492771303633048774 1:0.80769229 2:18.493166 3:0.80769229 4:205.10204 #P44410
-0.00058419544463043492771303633048774 1:0.03846154 2:15.353257 3:0.03846154 4:182.78143 #SRS016088.4070
-0.00058419544463043492771303633048774 1:0.025641026 2:12.673209 3:0.025641026 4:232.82381 #SRS056892.13610
0.00058419544463043492771303633048774 1:0.35897437 2:18.372297 3:0.35897437 4:213.2338 #Q8DPB4
-0.00058419544463043492771303633048774 1:0.03846154 2:15.387274 3:0.03846154 4:195.04575 #SRS021473.37
0.00058419544463043492771303633048774 1:0.69230771 2:18.486538 3:0.69230771 4:207.69904 #Q97SR6
-0.00058419544463043492771303633048774 1:0.03846154 2:15.378244 3:0.03846154 4:191.42122 #SRS016088.7658
0.00058419544463043492771303633048774 1:0.85897434 2:18.502193 3:0.85897434 4:207.08055 #P45187
-0.00058419544463043492771303633048774 1:0.025641026 2:12.671454 3:0.025641026 4:231.2739 #SRS017687.13651
0.00058419544463043492771303633048774 1:0.55128205 2:18.464745 3:0.55128205 4:215.27934 #Q97RS9
-0.00058419544463043492771303633048774 1:0.03846154 2:15.370049 3:0.03846154 4:188.46709 #SRS011090.585
0.00058419544463043492771303633048774 1:0.3974359 2:18.41168 3:0.3974359 4:218.85481 #Q97RU8
-0.00058419544463043492771303633048774 1:0.03846154 2:15.368637 3:0.03846154 4:188.00183 #SRS022532.8405
0.00058419544463043492771303633048774 1:0.41025642 2:18.417822 3:0.41025642 4:218.81078 #Q04MQ9
-0.00058419544463043492771303633048774 1:0.03846154 2:15.36467 3:0.03846154 4:186.59293 #SRS015154.202
0.00058419544463043492771303633048774 1:0.41025642 2:18.442739 3:0.41025642 4:228.45552 #Q8DRM0
-0.00058419544463043492771303633048774 1:0.07692308 2:2.1431105 3:0.07692308 4:5.2394161 #SRS015436.41710
0.00058419544463043492771303633048774 1:0.6025641 2:18.484697 3:0.6025641 4:215.61295 #Q97SG5
-0.00058419544463043492771303633048774 1:0.025641026 2:12.671201 3:0.025641026 4:231.09279 #SRS015646.123
0.00058419544463043492771303633048774 1:0.61538464 2:18.495867 3:0.61538464 4:218.24707 #Q04JY7
-0.00058419544463043492771303633048774 1:0.025641026 2:12.670921 3:0.025641026 4:230.71568 #SRS052874.3200
0.00058419544463043492771303633048774 1:0.38461539 2:18.437235 3:0.38461539 4:231.75534 #Q97S34
0.00058419544463043492771303633048774 1:0.65384614 2:18.53455 3:0.65384614 4:228.23543 #Q97NG1
-0.00058419544463043492771303633048774 1:0.025641026 2:12.670006 3:0.025641026 4:230.22136 #SRS015040.6207
-0.00058419544463043492771303633048774 1:0.025641026 2:12.668149 3:0.025641026 4:228.30466 #SRS042457.785
0.00058419544463043492771303633048774 1:0.64102566 2:18.53429 3:0.64102566 4:229.88045 #Q04L24
-0.00058419544463043492771303633048774 1:0.025641026 2:12.66792 3:0.025641026 4:228.03265 #SRS015374.3640
0.00058419544463043492771303633048774 1:0.53846157 2:18.509966 3:0.53846157 4:235.46295 #Q04M48
0.00058419544463043492771303633048774 1:0.66666669 2:18.542303 3:0.66666669 4:230.27754 #Q59961
-0.00058419544463043492771303633048774 1:0.025641026 2:12.667437 3:0.025641026 4:227.59296 #SRS019221.2410
-0.00058419544463043492771303633048774 1:0.025641026 2:12.666927 3:0.025641026 4:227.02504 #SRS014126.1106
0.00058419544463043492771303633048774 1:0.88461536 2:18.570215 3:0.88461536 4:231.45364 #Q04MW7
-0.00058419544463043492771303633048774 1:0.025641026 2:12.666062 3:0.025641026 4:226.40242 #SRS015895.7024
0.00058419544463043492771303633048774 1:0.52564102 2:18.510389 3:0.52564102 4:237.81186 #Q54900
-0.00058419544463043492771303633048774 1:0.03846154 2:15.56509 3:0.03846154 4:357.95108 #SRS024377.4334
0.00058419544463043492771303633048774 1:0.012820513 2:0.88685054 3:0.012820513 4:3.9399137 #Q8RII8
-0.00058419544463043492771303633048774 1:0.051282052 2:16.504848 3:0.051282052 4:297.24045 #SRS021473.3911
0.00058419544463043492771303633048774 1:0.012820513 2:5.8592901 3:0.012820513 4:121.63284 #Q59925
0.00058419544463043492771303633048774 1:0.025641026 2:0.90059859 3:0.025641026 4:3.8586843 #C4ZBL1
-0.00058419544463043492771303633048774 1:0.25641027 2:9.8830309 3:0.25641027 4:16.303904 #SRS015745.4411
-0.00058419544463043492771303633048774 1:0.52564102 2:15.350088 3:0.52564102 4:41.48328 #SRS023987.34200
-0.00058419544463043492771303633048774 1:0.35897437 2:18.027052 3:0.35897437 4:139.0706 #SRS022625.12637
-0.00058419544463043492771303633048774 1:0.58974361 2:16.723074 3:0.58974361 4:62.610134 #SRS011090.4053
-0.00058419544463043492771303633048774 1:0.03846154 2:15.582152 3:0.03846154 4:484.48792 #SRS020336.4036
0.00058419544463043492771303633048774 1:0.012820513 2:1.2832283 3:0.012820513 4:4.5372219 #Q8DS57
-0.00058419544463043492771303633048774 1:0.46153846 2:13.711802 3:0.46153846 4:29.178774 #SRS015154.5173
0.00058419544463043492771303633048774 1:0.012820513 2:1.3478329 3:0.012820513 4:4.6363878 #A9M0K2
0.00058419544463043492771303633048774 1:0.025641026 2:1.3431723 3:0.025641026 4:4.4114795 #Q65TI2
-0.00058419544463043492771303633048774 1:0.38461539 2:12.246865 3:0.38461539 4:22.830534 #SRS017215.16986
0.00058419544463043492771303633048774 1:0.012820513 2:5.8428068 3:0.012820513 4:107.54375 #Q5M011
0.00058419544463043492771303633048774 1:0.025641026 2:1.4426373 3:0.025641026 4:4.5269804 #B8F6L5
-0.00058419544463043492771303633048774 1:0.58974361 2:16.429735 3:0.58974361 4:56.369637 #SRS014126.6368
-0.00058419544463043492771303633048774 1:0.44871795 2:14.312201 3:0.44871795 4:32.891567 #SRS019221.10972
-0.00058419544463043492771303633048774 1:0.58974361 2:16.202646 3:0.58974361 4:52.453682 #SRS017080.43151
-0.00058419544463043492771303633048774 1:0.5 2:15.279094 3:0.5 4:40.810978 #SRS019329.35699
-0.00058419544463043492771303633048774 1:0.30769232 2:18.035524 3:0.30769232 4:146.97551 #SRS019221.8918
-0.00058419544463043492771303633048774 1:0.34615386 2:11.834297 3:0.34615386 4:21.510735 #SRS022721.8133
0.00058419544463043492771303633048774 1:0.012820513 2:1.7635005 3:0.012820513 4:5.2953777 #A7GT08
-0.00058419544463043492771303633048774 1:0.51282054 2:15.659289 3:0.51282054 4:45.02916 #SRS011090.8226
-0.00058419544463043492771303633048774 1:0.23076923 2:17.692898 3:0.23076923 4:119.08408 #SRS019587.37704
-0.00058419544463043492771303633048774 1:0.25641027 2:9.954504 3:0.25641027 4:16.474226 #SRS017013.9573
-0.00058419544463043492771303633048774 1:0.5 2:17.365778 3:0.5 4:83.016243 #SRS015436.4623
-0.00058419544463043492771303633048774 1:0.20512821 2:8.4895592 3:0.20512821 4:13.483276 #SRS045049.53477
0.00058419544463043492771303633048774 1:0.012820513 2:1.7818495 3:0.012820513 4:5.3260827 #A0RNU3
-0.00058419544463043492771303633048774 1:0.47435898 2:17.411266 3:0.47435898 4:85.538811 #SRS050628.166
-0.00058419544463043492771303633048774 1:0.1923077 2:6.8658996 3:0.1923077 4:10.87437 #SRS017810.24207
0.00058419544463043492771303633048774 1:0.012820513 2:1.8012266 3:0.012820513 4:5.3578744 #Q8REH1
-0.00058419544463043492771303633048774 1:0.20512821 2:7.4329267 3:0.20512821 4:11.705053 #SRS050029.15065
-0.00058419544463043492771303633048774 1:0.53846157 2:17.027483 3:0.53846157 4:70.846466 #SRS019391.3042
0.00058419544463043492771303633048774 1:0.012820513 2:1.8682115 3:0.012820513 4:5.4694557 #A8Z6M1
-0.00058419544463043492771303633048774 1:0.3974359 2:17.411171 3:0.3974359 4:86.93631 #SRS048719.26425
-0.00058419544463043492771303633048774 1:0.15384616 2:15.911695 3:0.15384616 4:54.49897 #SRS019329.39467
0.00058419544463043492771303633048774 1:0.012820513 2:1.9267583 3:0.012820513 4:5.5709777 #A6LDG8
-0.00058419544463043492771303633048774 1:0.57692307 2:16.474796 3:0.57692307 4:57.271336 #SRS015895.29426
-0.00058419544463043492771303633048774 1:0.35897437 2:12.31214 3:0.35897437 4:23.085093 #SRS022532.7667
0.00058419544463043492771303633048774 1:0.57692307 2:18.533508 3:0.57692307 4:239.53831 #Q97QI2
0.00058419544463043492771303633048774 1:0.29487181 2:12.90497 3:0.29487181 4:25.553787 #A8AUJ9
0.00058419544463043492771303633048774 1:0.064102568 2:2.3201296 3:0.064102568 4:5.4391704 #Q8RF63
0.00058419544463043492771303633048774 1:0.012820513 2:2.1011238 3:0.012820513 4:5.8959513 #Q93GF1
0.00058419544463043492771303633048774 1:0.41025642 2:18.246935 3:0.41025642 4:171.97084 #Q97QZ6
0.00058419544463043492771303633048774 1:0.65384614 2:18.350986 3:0.65384614 4:175.00079 #Q8DPA2
0.00058419544463043492771303633048774 1:0.46153846 2:18.265818 3:0.46153846 4:171.23767 #Q97R22
0.00058419544463043492771303633048774 1:0.025641026 2:12.50631 3:0.025641026 4:145.78934 #C0M858
0.00058419544463043492771303633048774 1:0.17948718 2:16.855644 3:0.17948718 4:76.295204 #A6VLE0
0.00058419544463043492771303633048774 1:0.5 2:18.278963 3:0.5 4:171.12247 #Q97T38
0.00058419544463043492771303633048774 1:0.012820513 2:5.8390794 3:0.012820513 4:105.04554 #B2GGP0
0.00058419544463043492771303633048774 1:0.012820513 2:5.7956157 3:0.012820513 4:82.521194 #Q3K051
0.00058419544463043492771303633048774 1:0.012820513 2:5.7884617 3:0.012820513 4:79.974312 #A3N2Q0
0.00058419544463043492771303633048774 1:0.012820513 2:5.7766542 3:0.012820513 4:76.132164 #Q1QZX3
0.00058419544463043492771303633048774 1:0.012820513 2:5.7745891 3:0.012820513 4:75.498955 #A6KZM1
-0.00058419544463043492771303633048774 1:0.025641026 2:12.471879 3:0.025641026 4:135.38463 #SRS043646.2007
0.00058419544463043492771303633048774 1:0.16666667 2:16.809559 3:0.16666667 4:76.192635 #Q5M0C5
-0.00058419544463043492771303633048774 1:0.089743592 2:17.029968 3:0.089743592 4:132.56308 #SRS048719.16642
0.00058419544463043492771303633048774 1:0.025641026 2:12.045057 3:0.025641026 4:76.060638 #Q8DYV1
-0.00058419544463043492771303633048774 1:0.025641026 2:12.471905 3:0.025641026 4:135.38542 #SRS015374.7508
0.00058419544463043492771303633048774 1:0.064102568 2:15.783201 3:0.064102568 4:75.103935 #Q0I2M9
-0.00058419544463043492771303633048774 1:0.051282052 2:16.07078 3:0.051282052 4:132.92497 #SRS050029.5012
-0.00058419544463043492771303633048774 1:0.15384616 2:17.729959 3:0.15384616 4:158.21741 #SRS063287.5222
0.00058419544463043492771303633048774 1:0.12820514 2:16.593287 3:0.12820514 4:75.630783 #Q5LXQ9
-0.00058419544463043492771303633048774 1:0.1025641 2:17.19525 3:0.1025641 4:134.13893 #SRS023534.2542
-0.00058419544463043492771303633048774 1:0.12820514 2:17.135496 3:0.12820514 4:105.20158 #SRS016503.2277
-0.00058419544463043492771303633048774 1:0.025641026 2:12.472612 3:0.025641026 4:135.51283 #SRS017810.967
0.00058419544463043492771303633048774 1:0.07692308 2:15.997995 3:0.07692308 4:73.305519 #B0BR94
0.00058419544463043492771303633048774 1:0.03846154 2:14.458011 3:0.03846154 4:72.402504 #Q8E2J5
-0.00058419544463043492771303633048774 1:0.025641026 2:12.47523 3:0.025641026 4:136.26561 #SRS013506.29761
-0.00058419544463043492771303633048774 1:0.025641026 2:12.566339 3:0.025641026 4:167.8248 #SRS015895.474
-0.00058419544463043492771303633048774 1:0.07692308 2:16.944885 3:0.07692308 4:152.79895 #SRS013239.3934
0.00058419544463043492771303633048774 1:0.34615386 2:18.169634 3:0.34615386 4:164.34666 #P65504
-0.00058419544463043492771303633048774 1:0.025641026 2:12.475309 3:0.025641026 4:136.27969 #SRS013945.219
0.00058419544463043492771303633048774 1:0.025641026 2:3.0414181 3:0.025641026 4:6.4789948 #A0LZH8
-0.00058419544463043492771303633048774 1:0.03846154 2:15.165223 3:0.03846154 4:135.04543 #SRS011090.202
-0.00058419544463043492771303633048774 1:0.025641026 2:12.475335 3:0.025641026 4:136.28093 #SRS011247.2861
0.00058419544463043492771303633048774 1:0.84615386 2:18.37035 3:0.84615386 4:173.42639 #Q02322
-0.00058419544463043492771303633048774 1:0.051282052 2:16.558443 3:0.051282052 4:668.84088 #SRS019872.14710
0.00058419544463043492771303633048774 1:0.064102568 2:2.9029119 3:0.064102568 4:6.0909452 #Q8R6C8
-0.00058419544463043492771303633048774 1:0.025641026 2:12.478135 3:0.025641026 4:137.08714 #SRS018359.493
0.00058419544463043492771303633048774 1:0.012820513 2:2.1818233 3:0.012820513 4:6.0528116 #Q7MVE5
0.00058419544463043492771303633048774 1:0.92307693 2:18.356096 3:0.92307693 4:170.11731 #Q4QM91
0.00058419544463043492771303633048774 1:0.75641024 2:18.291767 3:0.75641024 4:159.61089 #Q97RS6
-0.00058419544463043492771303633048774 1:0.12820514 2:17.438938 3:0.12820514 4:137.06409 #SRS015040.1074
0.00058419544463043492771303633048774 1:0.064102568 2:16.599379 3:0.064102568 4:143.54369 #B8F772
-0.00058419544463043492771303633048774 1:0.03846154 2:15.1696 3:0.03846154 4:135.86235 #SRS022721.8471
-0.00058419544463043492771303633048774 1:0.064102568 2:16.557003 3:0.064102568 4:136.22504 #SRS042457.7170
0.00058419544463043492771303633048774 1:0.48717949 2:18.165102 3:0.48717949 4:150.84323 #B5E2W4
-0.00058419544463043492771303633048774 1:0.051282052 2:16.090784 3:0.051282052 4:136.13544 #SRS050628.15085
0.00058419544463043492771303633048774 1:0.84615386 2:18.274464 3:0.84615386 4:155.49849 #P43726
0.00058419544463043492771303633048774 1:0.83333331 2:18.247139 3:0.83333331 4:150.66589 #P45127
-0.00058419544463043492771303633048774 1:0.12820514 2:17.450689 3:0.12820514 4:138.92052 #SRS017810.26025
0.00058419544463043492771303633048774 1:0.064102568 2:16.555574 3:0.064102568 4:136.04552 #A7FPE0
-0.00058419544463043492771303633048774 1:0.051282052 2:16.094879 3:0.051282052 4:136.69463 #SRS017080.39618
0.00058419544463043492771303633048774 1:0.79487181 2:18.230581 3:0.79487181 4:148.55295 #P45066
-0.00058419544463043492771303633048774 1:0.12820514 2:17.454062 3:0.12820514 4:139.38342 #SRS022145.4721
0.00058419544463043492771303633048774 1:0.025641026 2:12.436693 3:0.025641026 4:127.12464 #P57877
-0.00058419544463043492771303633048774 1:0.025641026 2:12.47858 3:0.025641026 4:137.2005 #SRS019391.1211
-0.00058419544463043492771303633048774 1:0.14102565 2:17.653854 3:0.14102565 4:158.05995 #SRS013239.4337
-0.00058419544463043492771303633048774 1:0.025641026 2:12.564351 3:0.025641026 4:167.05382 #SRS015436.1608
0.00058419544463043492771303633048774 1:0.14102565 2:17.251362 3:0.14102565 4:107.46446 #Q9CIW1
0.00058419544463043492771303633048774 1:0.1025641 2:17.000975 3:0.1025641 4:112.44243 #P36432
0.00058419544463043492771303633048774 1:0.80769229 2:18.216194 3:0.80769229 4:146.03194 #P43754
0.00058419544463043492771303633048774 1:0.58974361 2:16.617844 3:0.58974361 4:60.188534 #P43775
0.00058419544463043492771303633048774 1:0.025641026 2:3.158128 3:0.025641026 4:6.6296687 #P37518
0.00058419544463043492771303633048774 1:0.65384614 2:18.162188 3:0.65384614 4:141.6673 #P43701
0.00058419544463043492771303633048774 1:0.012820513 2:2.2244575 3:0.012820513 4:6.136652 #A6VL81
-0.00058419544463043492771303633048774 1:0.1923077 2:2.9352536 3:0.1923077 4:6.0894895 #SRS013945.27608
-0.00058419544463043492771303633048774 1:0.1923077 2:8.1465006 3:0.1923077 4:12.892609 #SRS013945.55134
0.00058419544463043492771303633048774 1:0.79487181 2:18.193384 3:0.79487181 4:142.77705 #A3N2U4
-0.00058419544463043492771303633048774 1:0.1923077 2:8.5127659 3:0.1923077 4:13.541555 #SRS017810.40885
-0.00058419544463043492771303633048774 1:0.1025641 2:8.3076496 3:0.1025641 4:13.385598 #SRS013945.55353
-0.00058419544463043492771303633048774 1:0.57692307 2:16.186333 3:0.57692307 4:52.23558 #SRS017080.40725
0.00058419544463043492771303633048774 1:0.012820513 2:5.8385439 3:0.012820513 4:104.72596 #Q65TH4
-0.00058419544463043492771303633048774 1:0.16666667 2:13.058937 3:0.16666667 4:26.942831 #SRS022145.672
-0.00058419544463043492771303633048774 1:0.17948718 2:5.2612133 3:0.17948718 4:8.7927208 #SRS045262.45303
-0.00058419544463043492771303633048774 1:0.46153846 2:14.480192 3:0.46153846 4:34.035686 #SRS019976.15757
0.00058419544463043492771303633048774 1:0.012820513 2:5.833797 3:0.012820513 4:101.75332 #Q8A8R5
0.00058419544463043492771303633048774 1:0.70512819 2:18.168165 3:0.70512819 4:140.71896 #P44551
-0.00058419544463043492771303633048774 1:0.21794872 2:10.161064 3:0.21794872 4:17.025579 #SRS018149.19479
0.00058419544463043492771303633048774 1:0.79487181 2:18.184866 3:0.79487181 4:141.52116 #Q4QNM1
-0.00058419544463043492771303633048774 1:0.34615386 2:12.418529 3:0.34615386 4:23.481009 #SRS013945.31775
0.00058419544463043492771303633048774 1:0.025641026 2:12.391446 3:0.025641026 4:117.51238 #A6VM63
-0.00058419544463043492771303633048774 1:0.23076923 2:10.524556 3:0.23076923 4:17.925365 #SRS023534.5345
0.00058419544463043492771303633048774 1:0.012820513 2:2.2389817 3:0.012820513 4:6.1663966 #P03707
-0.00058419544463043492771303633048774 1:0.33333334 2:12.489318 3:0.33333334 4:23.766615 #SRS015154.10265
0.00058419544463043492771303633048774 1:0.88461536 2:18.185005 3:0.88461536 4:140.94112 #P43835
0.00058419544463043492771303633048774 1:0.012820513 2:5.8271651 3:0.012820513 4:97.614098 #Q3K1W9
-0.00058419544463043492771303633048774 1:0.24358974 2:10.992033 3:0.24358974 4:19.143423 #SRS052874.11342
-0.00058419544463043492771303633048774 1:0.53846157 2:16.337978 3:0.53846157 4:55.013237 #SRS019329.36550
0.00058419544463043492771303633048774 1:0.012820513 2:2.3143866 3:0.012820513 4:6.3184786 #B7VJT0
-0.00058419544463043492771303633048774 1:0.51282054 2:16.438961 3:0.51282054 4:56.92255 #SRS017127.35030
0.00058419544463043492771303633048774 1:0.03846154 2:14.786593 3:0.03846154 4:90.870522 #B8F892
0.00058419544463043492771303633048774 1:0.70512819 2:18.145332 3:0.70512819 4:137.57381 #P45125
-0.00058419544463043492771303633048774 1:0.5 2:15.642899 3:0.5 4:44.871292 #SRS017810.7528
-0.00058419544463043492771303633048774 1:0.07692308 2:0.69384629 3:0.07692308 4:3.5449939 #SRS017013.12428
0.00058419544463043492771303633048774 1:0.089743592 2:16.19273 3:0.089743592 4:73.613922 #A3N1Q1
-0.00058419544463043492771303633048774 1:0.48717949 2:16.363361 3:0.48717949 4:55.738918 #SRS018329.9448
0.00058419544463043492771303633048774 1:0.051282052 2:15.459215 3:0.051282052 4:79.4953 #A6W3S8
0.00058419544463043492771303633048774 1:0.012820513 2:2.6001031 3:0.012820513 4:6.9544039 #Q7VKR6
-0.00058419544463043492771303633048774 1:0.14102565 2:10.934525 3:0.14102565 4:19.365559 #SRS023987.35517
-0.00058419544463043492771303633048774 1:0.47435898 2:15.798783 3:0.47435898 4:46.91531 #SRS017013.38456
0.00058419544463043492771303633048774 1:0.012820513 2:5.8203964 3:0.012820513 4:93.794724 #Q8FRZ3
0.00058419544463043492771303633048774 1:0.14102565 2:16.764637 3:0.14102565 4:79.020699 #Q03LN0
-0.00058419544463043492771303633048774 1:0.14102565 2:17.257107 3:0.14102565 4:107.89299 #SRS016039.12097
-0.00058419544463043492771303633048774 1:0.11538462 2:1.5872289 3:0.11538462 4:4.6348557 #SRS018149.78036
0.00058419544463043492771303633048774 1:0.064102568 2:15.540706 3:0.064102568 4:66.851135 #Q5M2T7
-0.00058419544463043492771303633048774 1:0.42307693 2:17.126055 3:0.42307693 4:75.074387 #SRS020858.22468
-0.00058419544463043492771303633048774 1:0.46153846 2:15.192922 3:0.46153846 4:40.061256 #SRS014126.12518
0.00058419544463043492771303633048774 1:0.012820513 2:2.6504223 3:0.012820513 4:7.0719786 #Q6NJ38
-0.00058419544463043492771303633048774 1:0.03846154 2:0.21723859 3:0.03846154 4:2.6143744 #SRS018149.38632
0.00058419544463043492771303633048774 1:0.82051283 2:18.138727 3:0.82051283 4:134.98643 #P43818
0.00058419544463043492771303633048774 1:0.012820513 2:2.6582122 3:0.012820513 4:7.0896082 #Q02TL3
-0.00058419544463043492771303633048774 1:0.43589744 2:15.565713 3:0.43589744 4:44.155949 #SRS021473.3386
0.00058419544463043492771303633048774 1:0.051282052 2:15.475179 3:0.051282052 4:80.287354 #Q9A1P0
0.00058419544463043492771303633048774 1:0.03846154 2:14.319994 3:0.03846154 4:67.060524 #P69883
-0.00058419544463043492771303633048774 1:0.43589744 2:16.778631 3:0.43589744 4:65.088821 #SRS019391.9577
0.00058419544463043492771303633048774 1:0.03846154 2:10.987442 3:0.03846154 4:23.395697 #Q8R5Z5
0.00058419544463043492771303633048774 1:0.089743592 2:16.120714 3:0.089743592 4:71.110504 #Q9ZA98
-0.00058419544463043492771303633048774 1:0.025641026 2:0.11064924 3:0.025641026 4:2.1951299 #SRS018149.34325
-0.00058419544463043492771303633048774 1:0.41025642 2:17.247034 3:0.41025642 4:79.58503 #SRS015374.2450
0.00058419544463043492771303633048774 1:0.012820513 2:2.7273529 3:0.012820513 4:7.2533555 #Q8RH03
0.00058419544463043492771303633048774 1:0.025641026 2:3.2153358 3:0.025641026 4:6.7082386 #Q8RHB5
-0.00058419544463043492771303633048774 1:0.3974359 2:16.026539 3:0.3974359 4:50.508904 #SRS023987.20765
0.00058419544463043492771303633048774 1:0.75641024 2:18.120546 3:0.75641024 4:133.27908 #P44808
0.00058419544463043492771303633048774 1:0.012820513 2:2.8168988 3:0.012820513 4:7.4733968 #Q9CJU5
-0.00058419544463043492771303633048774 1:0.051282052 2:0.40940136 3:0.051282052 4:3.0624309 #SRS050628.68052
-0.00058419544463043492771303633048774 1:0.025641026 2:0.13711493 3:0.025641026 4:2.3246043 #SRS018149.66296
-0.00058419544463043492771303633048774 1:0.025641026 2:12.735977 3:0.025641026 4:341.7962 #SRS019391.1348
-0.00058419544463043492771303633048774 1:0.38461539 2:16.302071 3:0.38461539 4:55.283314 #SRS011090.4006
-0.00058419544463043492771303633048774 1:0.37179488 2:17.417839 3:0.37179488 4:87.953339 #SRS022721.22689
0.00058419544463043492771303633048774 1:0.012820513 2:2.8803203 3:0.012820513 4:7.628459 #Q7P097
-0.00058419544463043492771303633048774 1:0.07692308 2:0.79090375 3:0.07692308 4:3.6860347 #SRS017127.19802
0.00058419544463043492771303633048774 1:0.051282052 2:15.551348 3:0.051282052 4:84.202827 #Q9CKR4
-0.00058419544463043492771303633048774 1:0.38461539 2:14.722941 3:0.38461539 4:36.06168 #SRS018329.883
0.00058419544463043492771303633048774 1:0.025641026 2:12.129088 3:0.025641026 4:82.530045 #Q9A1C7
0.00058419544463043492771303633048774 1:0.051282052 2:9.695734 3:0.051282052 4:17.35709 #Q9K089
0.00058419544463043492771303633048774 1:0.064102568 2:16.162136 3:0.064102568 4:95.237366 #A6VMK8
0.00058419544463043492771303633048774 1:0.012820513 2:2.8879626 3:0.012820513 4:7.6468158 #A7ZCA8
-0.00058419544463043492771303633048774 1:0.1025641 2:5.1264057 3:0.1025641 4:8.6814032 #SRS018359.29990
0.00058419544463043492771303633048774 1:0.051282052 2:3.729893 3:0.051282052 4:7.0892801 #Q8RGE1
0.00058419544463043492771303633048774 1:0.03846154 2:8.1021347 3:0.03846154 4:14.056361 #P57923
-0.00058419544463043492771303633048774 1:0.37179488 2:14.207031 3:0.37179488 4:32.350571 #SRS017810.17049
0.00058419544463043492771303633048774 1:0.051282052 2:15.645661 3:0.051282052 4:90.016739 #B0US05
-0.00058419544463043492771303633048774 1:0.38461539 2:15.414664 3:0.38461539 4:42.646484 #SRS014472.7967
-0.00058419544463043492771303633048774 1:0.12820514 2:2.9697092 3:0.12820514 4:6.1356177 #SRS050029.42703
0.00058419544463043492771303633048774 1:0.051282052 2:15.744739 3:0.051282052 4:97.272575 #Q9CM80
0.00058419544463043492771303633048774 1:0.025641026 2:3.2957573 3:0.025641026 4:6.8192997 #Q65T71
0.00058419544463043492771303633048774 1:0.012820513 2:5.8187551 3:0.012820513 4:92.899063 #Q831U2
-0.00058419544463043492771303633048774 1:0.29487181 2:12.249474 3:0.29487181 4:22.967617 #SRS020858.8612
0.00058419544463043492771303633048774 1:0.07692308 2:16.627153 3:0.07692308 4:110.12543 #P57098
-0.00058419544463043492771303633048774 1:0.33333334 2:15.77948 3:0.33333334 4:47.436363 #SRS022625.11677
-0.00058419544463043492771303633048774 1:0.064102568 2:0.71720225 3:0.064102568 4:3.5820944 #SRS019587.36022
0.00058419544463043492771303633048774 1:0.025641026 2:3.4448943 3:0.025641026 4:7.0216012 #P57859
0.00058419544463043492771303633048774 1:0.03846154 2:5.2910271 3:0.03846154 4:9.1663284 #Q9K0D9
0.00058419544463043492771303633048774 1:0.089743592 2:15.986609 3:0.089743592 4:67.058296 #Q5M175
0.00058419544463043492771303633048774 1:0.025641026 2:3.5509381 3:0.025641026 4:7.1593881 #B8F8G9
0.00058419544463043492771303633048774 1:0.75641024 2:18.102032 3:0.75641024 4:131.09729 #P45049
0.00058419544463043492771303633048774 1:0.11538462 2:4.2885575 3:0.11538462 4:7.6595435 #Q8GR69
0.00058419544463043492771303633048774 1:0.07692308 2:4.49718 3:0.07692308 4:7.9509168 #Q8RGE5
0.00058419544463043492771303633048774 1:0.064102568 2:7.0086241 3:0.064102568 4:11.381465 #D1BMT0
0.00058419544463043492771303633048774 1:0.03846154 2:4.7496214 3:0.03846154 4:8.4485245 #A9M393
0.00058419544463043492771303633048774 1:0.03846154 2:4.8588367 3:0.03846154 4:8.5857182 #B2RHF5
-0.00058419544463043492771303633048774 1:0.089743592 2:16.335993 3:0.089743592 4:78.990837 #SRS016196.4444
0.00058419544463043492771303633048774 1:0.025641026 2:4.1473207 3:0.025641026 4:8.0009556 #Q9JYQ9
-0.00058419544463043492771303633048774 1:0.025641026 2:0.14989844 3:0.025641026 4:2.3707821 #SRS018149.36572
0.00058419544463043492771303633048774 1:0.012820513 2:2.9315221 3:0.012820513 4:7.7640224 #Q3K368
-0.00058419544463043492771303633048774 1:0.025641026 2:0.15042286 3:0.025641026 4:2.373333 #SRS017127.25408
-0.00058419544463043492771303633048774 1:0.11538462 2:2.4039583 3:0.11538462 4:5.5098577 #SRS019587.6061
-0.00058419544463043492771303633048774 1:0.17948718 2:8.4717836 3:0.17948718 4:13.484353 #SRS022145.16836
-0.00058419544463043492771303633048774 1:0.03846154 2:4.4828739 3:0.03846154 4:8.0956306 #SRS056892.20224
-0.00058419544463043492771303633048774 1:0.24358974 2:11.161401 3:0.24358974 4:19.622307 #SRS045049.53066
-0.00058419544463043492771303633048774 1:0.26923078 2:11.881475 3:0.26923078 4:21.77755 #SRS019976.3882
-0.00058419544463043492771303633048774 1:0.03846154 2:15.558101 3:0.03846154 4:338.46921 #SRS017537.251
-0.00058419544463043492771303633048774 1:0.32051283 2:17.48945 3:0.32051283 4:93.854782 #SRS019872.11519
0.00058419544463043492771303633048774 1:0.012820513 2:2.9630578 3:0.012820513 4:7.8482533 #Q8GJ01
-0.00058419544463043492771303633048774 1:0.35897437 2:15.846797 3:0.35897437 4:48.168121 #SRS013881.34253
-0.00058419544463043492771303633048774 1:0.37179488 2:15.015555 3:0.37179488 4:38.650612 #SRS021473.7895
0.00058419544463043492771303633048774 1:0.012820513 2:2.9766316 3:0.012820513 4:7.8842373 #B8F773
0.00058419544463043492771303633048774 1:0.089743592 2:13.367461 3:0.089743592 4:30.691557 #P45288
0.00058419544463043492771303633048774 1:0.012820513 2:3.0195374 3:0.012820513 4:8.0018778 #Q9K118
-0.00058419544463043492771303633048774 1:0.025641026 2:0.15542768 3:0.025641026 4:2.397357 #SRS013945.56803
0.00058419544463043492771303633048774 1:0.03846154 2:13.98289 3:0.03846154 4:56.474617 #Q5LXJ3
-0.00058419544463043492771303633048774 1:0.21794872 2:10.415677 3:0.21794872 4:17.663841 #SRS063287.19086
0.00058419544463043492771303633048774 1:0.012820513 2:5.6608152 3:0.012820513 4:52.822334 #Q8A753
-0.00058419544463043492771303633048774 1:0.16666667 2:7.8114586 3:0.16666667 4:12.356519 #SRS019329.32505
0.00058419544463043492771303633048774 1:0.012820513 2:5.6579008 3:0.012820513 4:52.412514 #P44541
0.00058419544463043492771303633048774 1:0.012820513 2:5.6406698 3:0.012820513 4:50.146423 #A4SPN5
-0.00058419544463043492771303633048774 1:0.12820514 2:5.6828794 3:0.12820514 4:9.3383112 #SRS045262.42355
0.00058419544463043492771303633048774 1:0.012820513 2:5.6392956 3:0.012820513 4:50.00095 #Q6CYJ3
-0.00058419544463043492771303633048774 1:0.12820514 2:5.6239381 3:0.12820514 4:9.2680798 #SRS050628.68449
0.00058419544463043492771303633048774 1:0.012820513 2:5.6390433 3:0.012820513 4:49.975498 #Q8A414
-0.00058419544463043492771303633048774 1:0.11538462 2:3.7083533 3:0.11538462 4:6.9911761 #SRS015436.56399
-0.00058419544463043492771303633048774 1:0.025641026 2:0.16447911 3:0.025641026 4:2.4335561 #SRS017215.22991
0.00058419544463043492771303633048774 1:0.012820513 2:3.0323284 3:0.012820513 4:8.0364637 #Q7VNF0
0.00058419544463043492771303633048774 1:0.03846154 2:13.94688 3:0.03846154 4:55.605545 #Q5M067
-0.00058419544463043492771303633048774 1:0.14102565 2:7.0314946 3:0.14102565 4:11.165642 #SRS015646.15494
-0.00058419544463043492771303633048774 1:0.32051283 2:16.021719 3:0.32051283 4:51.073589 #SRS015895.11588
-0.00058419544463043492771303633048774 1:0.025641026 2:0.17009734 3:0.025641026 4:2.4575973 #SRS018149.35966
-0.00058419544463043492771303633048774 1:0.35897437 2:15.772431 3:0.35897437 4:47.120911 #SRS011090.9362
0.00058419544463043492771303633048774 1:0.012820513 2:3.114362 3:0.012820513 4:8.2653666 #B8F5E2
-0.00058419544463043492771303633048774 1:0.03846154 2:0.28128123 3:0.03846154 4:2.78284 #SRS063287.23384
0.00058419544463043492771303633048774 1:0.12820514 2:15.872405 3:0.12820514 4:56.298847 #Q5M397
0.00058419544463043492771303633048774 1:0.012820513 2:3.126425 3:0.012820513 4:8.299367 #B0UUA1
-0.00058419544463043492771303633048774 1:0.11538462 2:2.9663007 3:0.11538462 4:6.1342988 #SRS023987.25197
0.00058419544463043492771303633048774 1:0.012820513 2:5.6370625 3:0.012820513 4:49.747707 #A3N121
-0.00058419544463043492771303633048774 1:0.32051283 2:15.561187 3:0.32051283 4:44.74213 #SRS019587.1315
-0.00058419544463043492771303633048774 1:0.33333334 2:14.037434 3:0.33333334 4:31.357687 #SRS014686.25461
0.00058419544463043492771303633048774 1:0.025641026 2:11.514971 3:0.025641026 4:51.509399 #Q5XCJ9
0.00058419544463043492771303633048774 1:0.051282052 2:14.684714 3:0.051282052 4:54.81168 #Q0VKX4
0.00058419544463043492771303633048774 1:0.012820513 2:3.171505 3:0.012820513 4:8.4365559 #Q5F7G4
-0.00058419544463043492771303633048774 1:0.025641026 2:0.17533247 3:0.025641026 4:2.4782369 #SRS063287.24668
-0.00058419544463043492771303633048774 1:0.33333334 2:15.116732 3:0.33333334 4:39.792297 #SRS056892.48067
-0.00058419544463043492771303633048774 1:0.051282052 2:0.49150291 3:0.051282052 4:3.222851 #SRS013881.29290
0.00058419544463043492771303633048774 1:0.20512821 2:16.159748 3:0.20512821 4:56.265739 #P51718
0.00058419544463043492771303633048774 1:0.012820513 2:3.1842346 3:0.012820513 4:8.4711742 #C0MCV8
-0.00058419544463043492771303633048774 1:0.26923078 2:15.953332 3:0.26923078 4:50.775028 #SRS013881.7895
-0.00058419544463043492771303633048774 1:0.025641026 2:0.17923366 3:0.025641026 4:2.495333 #SRS017013.11012
0.00058419544463043492771303633048774 1:0.012820513 2:3.2445815 3:0.012820513 4:8.6490765 #C4Z3R4
0.00058419544463043492771303633048774 1:0.051282052 2:14.641285 3:0.051282052 4:53.863316 #Q8CWX7
0.00058419544463043492771303633048774 1:0.012820513 2:5.6066756 3:0.012820513 4:46.354031 #P44604
-0.00058419544463043492771303633048774 1:0.32051283 2:13.122197 3:0.32051283 4:26.439453 #SRS011247.10161
-0.00058419544463043492771303633048774 1:0.32051283 2:15.355628 3:0.32051283 4:42.385307 #SRS017215.15353
0.00058419544463043492771303633048774 1:0.03846154 2:13.551999 3:0.03846154 4:47.092678 #Q03MA3
-0.00058419544463043492771303633048774 1:0.089743592 2:1.5004284 3:0.089743592 4:4.540462 #SRS019587.31532
0.00058419544463043492771303633048774 1:0.051282052 2:14.598269 3:0.051282052 4:52.988636 #A6VP68
0.00058419544463043492771303633048774 1:0.012820513 2:3.2542026 3:0.012820513 4:8.6792288 #P44088
0.00058419544463043492771303633048774 1:0.012820513 2:5.5824823 3:0.012820513 4:44.03363 #P95787
-0.00058419544463043492771303633048774 1:0.07692308 2:1.1907848 3:0.07692308 4:4.1914821 #SRS013239.34138
0.00058419544463043492771303633048774 1:0.051282052 2:14.517938 3:0.051282052 4:51.270733 #Q5LZ72
-0.00058419544463043492771303633048774 1:0.2820513 2:15.839834 3:0.2820513 4:48.90258 #SRS016503.1354
-0.00058419544463043492771303633048774 1:0.17948718 2:9.2346897 3:0.17948718 4:15.006379 #SRS050628.2622
-0.00058419544463043492771303633048774 1:0.15384616 2:12.556135 3:0.15384616 4:24.826416 #SRS045049.54518
-0.00058419544463043492771303633048774 1:0.2820513 2:12.249505 3:0.2820513 4:22.99542 #SRS014126.12218
0.00058419544463043492771303633048774 1:0.012820513 2:5.5813065 3:0.012820513 4:43.922577 #P57822
-0.00058419544463043492771303633048774 1:0.32051283 2:14.505489 3:0.32051283 4:34.611046 #SRS011247.57268
0.00058419544463043492771303633048774 1:0.012820513 2:3.4989483 3:0.012820513 4:9.4598026 #P46399
0.00058419544463043492771303633048774 1:0.14102565 2:15.859429 3:0.14102565 4:54.679672 #Q5M5R1
-0.00058419544463043492771303633048774 1:0.025641026 2:0.18180208 3:0.025641026 4:2.5042007 #SRS013945.49658
0.00058419544463043492771303633048774 1:0.012820513 2:3.5017226 3:0.012820513 4:9.4701862 #C1D5G2
-0.00058419544463043492771303633048774 1:0.03846154 2:0.31237286 3:0.03846154 4:2.8570619 #SRS013945.42923
0.00058419544463043492771303633048774 1:0.089743592 2:15.158529 3:0.089743592 4:49.020378 #Q5M4R9
-0.00058419544463043492771303633048774 1:0.2820513 2:15.750318 3:0.2820513 4:47.619251 #SRS024377.7204
0.00058419544463043492771303633048774 1:0.012820513 2:5.5364761 3:0.012820513 4:40.234646 #A3N3B3
0.00058419544463043492771303633048774 1:0.025641026 2:4.505456 3:0.025641026 4:8.5299873 #Q5F775
0.00058419544463043492771303633048774 1:0.025641026 2:11.413662 3:0.025641026 4:48.617962 #A7MMW9
-0.00058419544463043492771303633048774 1:0.20512821 2:10.289605 3:0.20512821 4:17.370705 #SRS022532.26818
-0.00058419544463043492771303633048774 1:0.20512821 2:15.866263 3:0.20512821 4:51.058861 #SRS013506.24309
0.00058419544463043492771303633048774 1:0.11538462 2:15.483562 3:0.11538462 4:50.704704 #Q5M105
-0.00058419544463043492771303633048774 1:0.025641026 2:0.18475038 3:0.025641026 4:2.514653 #SRS013945.2483
0.00058419544463043492771303633048774 1:0.35897437 2:16.314631 3:0.35897437 4:55.747974 #P40134
-0.00058419544463043492771303633048774 1:0.11538462 2:15.546571 3:0.11538462 4:51.782135 #SRS017013.23551
0.00058419544463043492771303633048774 1:0.012820513 2:3.5717356 3:0.012820513 4:9.7204647 #Q332W9
-0.00058419544463043492771303633048774 1:0.20512821 2:15.844734 3:0.20512821 4:50.7318 #SRS016503.7687
-0.00058419544463043492771303633048774 1:0.025641026 2:0.20299588 3:0.025641026 4:2.5767734 #SRS050029.29956
0.00058419544463043492771303633048774 1:0.38461539 2:16.329084 3:0.38461539 4:55.768608 #B5E551
0.00058419544463043492771303633048774 1:0.03846154 2:5.1452932 3:0.03846154 4:8.9705706 #P57036
0.00058419544463043492771303633048774 1:0.012820513 2:3.6351995 3:0.012820513 4:9.9575148 #Q7VMA4
-0.00058419544463043492771303633048774 1:0.025641026 2:0.21220388 3:0.025641026 4:2.6020403 #SRS013945.54054
0.00058419544463043492771303633048774 1:0.16666667 2:15.900888 3:0.16666667 4:53.460751 #Q57213
-0.00058419544463043492771303633048774 1:0.14102565 2:15.678189 3:0.14102565 4:51.368542 #SRS018149.81262
-0.00058419544463043492771303633048774 1:0.1923077 2:15.802517 3:0.1923077 4:50.543926 #SRS043646.9183
-0.00058419544463043492771303633048774 1:0.025641026 2:0.21524012 3:0.025641026 4:2.6117344 #SRS017127.33915
-0.00058419544463043492771303633048774 1:0.30769232 2:15.189033 3:0.30769232 4:40.673409 #SRS015154.3555
0.00058419544463043492771303633048774 1:0.012820513 2:3.6733036 3:0.012820513 4:10.10635 #Q8GLU7
0.00058419544463043492771303633048774 1:0.12820514 2:15.640843 3:0.12820514 4:52.018715 #A6VQA3
-0.00058419544463043492771303633048774 1:0.32051283 2:14.295455 3:0.32051283 4:33.117985 #SRS017080.42067
0.00058419544463043492771303633048774 1:0.012820513 2:5.5269332 3:0.012820513 4:39.550648 #A6KXF7
-0.00058419544463043492771303633048774 1:0.012820513 2:5.6287408 3:0.012820513 4:48.792015 #SRS013711.12844
-0.00058419544463043492771303633048774 1:0.025641026 2:0.22311206 3:0.025641026 4:2.6329384 #SRS018149.32301
0.00058419544463043492771303633048774 1:0.064102568 2:14.693625 3:0.064102568 4:47.854305 #P43777
0.00058419544463043492771303633048774 1:0.051282052 2:11.311743 3:0.051282052 4:22.780453 #Q8RHN5
0.00058419544463043492771303633048774 1:0.012820513 2:3.7387445 3:0.012820513 4:10.380842 #Q7MUV7
0.00058419544463043492771303633048774 1:0.44871795 2:16.248777 3:0.44871795 4:53.884472 #A6VN04
0.00058419544463043492771303633048774 1:0.07692308 2:5.5463676 3:0.07692308 4:9.2503767 #Q9JXS9
-0.00058419544463043492771303633048774 1:0.14102565 2:15.663142 3:0.14102565 4:51.125278 #SRS013945.25782
-0.00058419544463043492771303633048774 1:0.025641026 2:0.22462898 3:0.025641026 4:2.6390464 #SRS013945.33526
0.00058419544463043492771303633048774 1:0.03846154 2:5.8422356 3:0.03846154 4:9.9350462 #P65532
0.00058419544463043492771303633048774 1:0.53846157 2:16.302441 3:0.53846157 4:54.363155 #P44424
0.00058419544463043492771303633048774 1:0.051282052 2:5.8199115 3:0.051282052 4:9.7218637 #Q8RG98
-0.00058419544463043492771303633048774 1:0.2820513 2:15.724111 3:0.2820513 4:47.2281 #SRS013945.8454
-0.00058419544463043492771303633048774 1:0.30769232 2:14.720559 3:0.30769232 4:36.372128 #SRS017810.16117
0.00058419544463043492771303633048774 1:0.012820513 2:5.5188842 3:0.012820513 4:38.971695 #Q99YI7
0.00058419544463043492771303633048774 1:0.03846154 2:7.5722208 3:0.03846154 4:12.918777 #A7ZC67
-0.00058419544463043492771303633048774 1:0.025641026 2:0.22624053 3:0.025641026 4:2.6426322 #SRS052874.1890
-0.00058419544463043492771303633048774 1:0.064102568 2:0.89715421 3:0.064102568 4:3.8308041 #SRS050628.59450
0.00058419544463043492771303633048774 1:0.012820513 2:3.7675214 3:0.012820513 4:10.502697 #Q07636
-0.00058419544463043492771303633048774 1:0.1025641 2:15.410951 3:0.1025641 4:51.090851 #SRS016039.9234
0.00058419544463043492771303633048774 1:0.012820513 2:3.7941065 3:0.012820513 4:10.613552 #A7ZD85
-0.00058419544463043492771303633048774 1:0.25641027 2:11.83115 3:0.25641027 4:21.641523 #SRS023837.6563
-0.00058419544463043492771303633048774 1:0.16666667 2:15.744447 3:0.16666667 4:50.752216 #SRS011090.6586
0.00058419544463043492771303633048774 1:0.025641026 2:5.4574347 3:0.025641026 4:10.046415 #Q8DWI4
0.00058419544463043492771303633048774 1:0.55128205 2:16.288494 3:0.55128205 4:54.029636 #Q4QL43
-0.00058419544463043492771303633048774 1:0.14102565 2:11.817407 3:0.14102565 4:22.138308 #SRS063272.9823
-0.00056394381820999706089736491776421 1:0.051282052 2:14.527927 3:0.051282052 4:51.490883 #SRS016503.7802
-0.00058419544463043492771303633048774 1:0.2820513 2:13.954913 3:0.2820513 4:31.036694 #SRS017127.35337
0.00058419544463043492771303633048774 1:0.012820513 2:5.5125675 3:0.012820513 4:38.514442 #A8Z6P5
-0.00058419544463043492771303633048774 1:0.012820513 2:5.6213512 3:0.012820513 4:47.928341 #SRS018149.73786
0.00058419544463043492771303633048774 1:0.051282052 2:5.8522568 3:0.051282052 4:9.7671165 #Q9JRP9
-0.00058419544463043492771303633048774 1:0.03846154 2:0.38142356 3:0.03846154 4:3.0098555 #SRS050029.41537
0.00058419544463043492771303633048774 1:0.07692308 2:14.773112 3:0.07692308 4:45.592121 #Q5LZU2
-0.00058419544463043492771303633048774 1:0.089743592 2:15.27438 3:0.089743592 4:50.876503 #SRS014575.13923
0.00058419544463043492771303633048774 1:0.012820513 2:3.8153858 3:0.012820513 4:10.710633 #A8EV72
-0.00058419544463043492771303633048774 1:0.03846154 2:0.38909206 3:0.03846154 4:3.0222075 #SRS056892.26323
0.00058419544463043492771303633048774 1:0.11538462 2:15.429327 3:0.11538462 4:49.856995 #Q5LZ70
-0.00058419544463043492771303633048774 1:0.23076923 2:15.783514 3:0.23076923 4:49.079258 #SRS018359.5871
0.00058419544463043492771303633048774 1:0.012820513 2:3.8269808 3:0.012820513 4:10.762686 #Q9KDF2
0.00058419544463043492771303633048774 1:0.064102568 2:14.43935 3:0.064102568 4:44.08287 #P57829
0.00058419544463043492771303633048774 1:0.012820513 2:5.4451137 3:0.012820513 4:34.481812 #A7ZF35
-0.00058419544463043492771303633048774 1:0.12820514 2:15.522924 3:0.12820514 4:50.044216 #SRS022145.2778
-0.00058419544463043492771303633048774 1:0.2820513 2:15.647458 3:0.2820513 4:46.219864 #SRS015895.3500
0.00058419544463043492771303633048774 1:0.012820513 2:3.9756796 3:0.012820513 4:11.458851 #Q6NF05
0.00058419544463043492771303633048774 1:0.11538462 2:15.410069 3:0.11538462 4:49.55249 #Q5XEB4
0.00058419544463043492771303633048774 1:0.23076923 2:15.929292 3:0.23076923 4:51.24968 #Q03IL2
-0.00058419544463043492771303633048774 1:0.064102568 2:14.898377 3:0.064102568 4:51.322624 #SRS056892.26360
-0.00058419544463043492771303633048774 1:0.012820513 2:4.7288432 3:0.012820513 4:17.298462 #SRS018149.46526
0.00058419544463043492771303633048774 1:0.11538462 2:6.0503969 3:0.11538462 4:9.8248796 #A8AX56
-0.00058419544463043492771303633048774 1:0.2820513 2:15.589048 3:0.2820513 4:45.467533 #SRS018359.9095
0.00058419544463043492771303633048774 1:0.025641026 2:5.6233253 3:0.025641026 4:10.354928 #Q7VKB3
-0.00058419544463043492771303633048774 1:0.07692308 2:8.8377113 3:0.07692308 4:14.65752 #SRS017215.45445
0.00058419544463043492771303633048774 1:0.15384616 2:15.594503 3:0.15384616 4:49.154896 #Q57399
0.00058419544463043492771303633048774 1:0.12820514 2:15.251101 3:0.12820514 4:46.024117 #Q5M153
-0.00058419544463043492771303633048774 1:0.14102565 2:11.995364 3:0.14102565 4:22.75914 #SRS063272.38910
0.00058419544463043492771303633048774 1:0.56410259 2:16.295279 3:0.56410259 4:54.084984 #Q57190
-0.00053184197045700112860266983716429 1:0.051282052 2:14.518081 3:0.051282052 4:51.273125 #SRS013881.6551
0.00058419544463043492771303633048774 1:0.03846154 2:5.9889255 3:0.03846154 4:10.156446 #P37094
-0.00058419544463043492771303633048774 1:0.089743592 2:2.9158683 3:0.089743592 4:6.0895481 #SRS018149.25952
-0.00058419544463043492771303633048774 1:0.20512821 2:15.66166 3:0.20512821 4:48.003029 #SRS015895.9796
0.00058419544463043492771303633048774 1:0.012820513 2:4.0065145 3:0.012820513 4:11.619555 #A3MY92
0.00058419544463043492771303633048774 1:0.1923077 2:15.755889 3:0.1923077 4:49.85442 #P31309
-0.00058419544463043492771303633048774 1:0.12820514 2:9.6265602 3:0.12820514 4:16.029152 #SRS052874.39196
0.00058419544463043492771303633048774 1:0.58974361 2:16.296774 3:0.58974361 4:53.990635 #P44723
-0.00058419544463043492771303633048774 1:0.15384616 2:13.089047 3:0.15384616 4:27.250839 #SRS017127.7567
-0.00058419544463043492771303633048774 1:0.15384616 2:11.408306 3:0.15384616 4:20.722765 #SRS011247.59505
-0.00058419544463043492771303633048774 1:0.089743592 2:8.9115467 3:0.089743592 4:14.693181 #SRS017013.43236
-0.00058419544463043492771303633048774 1:0.07692308 2:1.5433121 3:0.07692308 4:4.593925 #SRS045049.37046
-0.00058419544463043492771303633048774 1:0.16666667 2:9.3634758 3:0.16666667 4:15.30469 #SRS045049.49613
-0.00058419544463043492771303633048774 1:0.2820513 2:15.341639 3:0.2820513 4:42.577629 #SRS015745.9002
-0.00058419544463043492771303633048774 1:0.12820514 2:15.518161 3:0.12820514 4:49.975594 #SRS063272.36095
-0.00058419544463043492771303633048774 1:0.012820513 2:5.0704517 3:0.012820513 4:22.422602 #SRS016039.33422
-0.00058419544463043492771303633048774 1:0.16666667 2:9.4969854 3:0.16666667 4:15.600963 #SRS015745.21569
-0.00058419544463043492771303633048774 1:0.24358974 2:11.37203 3:0.24358974 4:20.260818 #SRS052874.12640
-0.00058419544463043492771303633048774 1:0.26923078 2:15.545179 3:0.26923078 4:45.09042 #SRS019329.4152
-0.00058419544463043492771303633048774 1:0.29487181 2:14.63998 3:0.29487181 4:35.796658 #SRS045262.3740
0.00058419544463043492771303633048774 1:0.064102568 2:16.185343 3:0.064102568 4:96.925606 #Q3K1K4
0.00058419544463043492771303633048774 1:0.03846154 2:6.0819068 3:0.03846154 4:10.307666 #A7ZCV2
-0.00058419544463043492771303633048774 1:0.16666667 2:12.740033 3:0.16666667 4:25.495783 #SRS017013.49843
-1.4214605632967736333072128473987e-05 1:0.12820514 2:10.44908 3:0.12820514 4:18.112217 #SRS023987.35542
0.00058419544463043492771303633048774 1:0.87179488 2:18.118135 3:0.87179488 4:132.15695 #P44619
0.00058419544463043492771303633048774 1:0.07692308 2:6.3189549 3:0.07692308 4:10.282297 #Q7DDR9
-0.00058419544463043492771303633048774 1:0.012820513 2:5.6150336 3:0.012820513 4:47.218204 #SRS022532.15862
-0.00058419544463043492771303633048774 1:0.15384616 2:11.673459 3:0.15384616 4:21.555166 #SRS045262.21391
0.00058419544463043492771303633048774 1:0.025641026 2:5.6408329 3:0.025641026 4:10.387062 #Q03K77
-0.00058419544463043492771303633048774 1:0.012820513 2:5.1448922 3:0.012820513 4:23.98337 #SRS050628.62344
0.00058419544463043492771303633048774 1:0.11538462 2:17.062792 3:0.11538462 4:107.21114 #Q5M355
0.00058419544463043492771303633048774 1:0.089743592 2:6.3673911 3:0.089743592 4:10.311997 #Q9JS04
-0.00058419544463043492771303633048774 1:0.12820514 2:16.250183 3:0.12820514 4:65.172752 #SRS022721.12125
0.00058419544463043492771303633048774 1:0.1025641 2:6.5635958 3:0.1025641 4:10.555451 #A8AX10
-0.00058419544463043492771303633048774 1:0.1025641 2:3.9026387 3:0.1025641 4:7.2204604 #SRS017810.21140
-0.00058419544463043492771303633048774 1:0.12820514 2:9.9804087 3:0.12820514 4:16.890633 #SRS019329.38990
0.00058419544463043492771303633048774 1:0.74358976 2:18.094856 3:0.74358976 4:130.472 #P43794
0.00058419544463043492771303633048774 1:0.15384616 2:6.5281324 3:0.15384616 4:10.430635 #Q8RFV0
-0.00058419544463043492771303633048774 1:0.14102565 2:10.085821 3:0.14102565 4:17.077108 #SRS019329.39928
0.00058419544463043492771303633048774 1:0.025641026 2:5.8159308 3:0.025641026 4:10.714354 #B0BNR1
-0.00058419544463043492771303633048774 1:0.14102565 2:11.911983 3:0.14102565 4:22.468466 #SRS017215.47583
0.00058419544463043492771303633048774 1:0.14102565 2:17.228523 3:0.14102565 4:105.63939 #A6VL59
0.00058419544463043492771303633048774 1:0.03846154 2:6.4424682 3:0.03846154 4:10.872899 #P45336
-0.00058419544463043492771303633048774 1:0.12820514 2:7.2186422 3:0.12820514 4:11.466682 #SRS013506.30258
-0.00058419544463043492771303633048774 1:0.012820513 2:5.1519742 3:0.012820513 4:24.154991 #SRS013881.30548
0.00058419544463043492771303633048774 1:0.11538462 2:6.725883 3:0.11538462 4:10.766818 #A3CNZ0
0.00058419544463043492771303633048774 1:0.064102568 2:6.672164 3:0.064102568 4:10.861814 #Q9JTZ6
-0.00058419544463043492771303633048774 1:0.11538462 2:17.474577 3:0.11538462 4:161.27185 #SRS045049.55345
-0.00058419544463043492771303633048774 1:0.051282052 2:14.499376 3:0.051282052 4:50.932903 #SRS045262.37644
0.00058419544463043492771303633048774 1:0.21794872 2:17.535686 3:0.21794872 4:107.49149 #Q5M6I1
0.00058419544463043492771303633048774 1:0.1025641 2:13.112935 3:0.1025641 4:28.573072 #Q59619
0.00058419544463043492771303633048774 1:0.064102568 2:6.7458606 3:0.064102568 4:10.97277 #Q8REI2
-0.00053695303717073150640004541855888 1:0.025641026 2:11.485648 3:0.025641026 4:50.617393 #SRS016039.1411
-0.00058419544463043492771303633048774 1:0.12820514 2:16.250883 3:0.12820514 4:65.190125 #SRS018359.5230
0.00058419544463043492771303633048774 1:0.82051283 2:18.105619 3:0.82051283 4:130.9035 #A5UD89
0.00058419544463043492771303633048774 1:0.11538462 2:6.8932972 3:0.11538462 4:11.00485 #Q8RFE4
-0.00058419544463043492771303633048774 1:0.12820514 2:9.9870777 3:0.12820514 4:16.906656 #SRS018359.30141
-0.00058419544463043492771303633048774 1:0.012820513 2:5.2321196 3:0.012820513 4:26.218182 #SRS013711.4485
0.00058419544463043492771303633048774 1:0.064102568 2:7.2077484 3:0.064102568 4:11.700542 #Q9JW39
-0.00058419544463043492771303633048774 1:0.012820513 2:5.5548329 3:0.012820513 4:41.667385 #SRS013239.12272
0.00058419544463043492771303633048774 1:0.55128205 2:17.985855 3:0.55128205 4:124.67113 #A8AYH2
-9.9043795506709164655489985307213e-05 1:0.1025641 2:7.7737699 3:0.1025641 4:12.448004 #SRS017215.18947
0.00058419544463043492771303633048774 1:0.03846154 2:7.040657 3:0.03846154 4:11.893476 #Q9K1A2
-0.00058419544463043492771303633048774 1:0.12820514 2:9.558629 3:0.12820514 4:15.877379 #SRS019329.37970
0.00058419544463043492771303633048774 1:0.03846154 2:7.1684151 3:0.03846154 4:12.132103 #A7ZAW7
-0.00058419544463043492771303633048774 1:0.14102565 2:12.908517 3:0.14102565 4:26.574102 #SRS063272.13310
0.00058419544463043492771303633048774 1:0.025641026 2:6.4531579 3:0.025641026 4:12.019972 #A7GZB9
-0.00058419544463043492771303633048774 1:0.15384616 2:12.362861 3:0.15384616 4:24.015921 #SRS014126.10284
0.00058419544463043492771303633048774 1:0.03846154 2:7.3216534 3:0.03846154 4:12.433664 #A7ZBR7
0.00058419544463043492771303633048774 1:0.29487181 2:17.641863 3:0.29487181 4:105.79866 #A8AVM1
0.00058419544463043492771303633048774 1:0.11538462 2:13.886892 3:0.11538462 4:33.133453 #A3MZ06
-0.00058419544463043492771303633048774 1:0.089743592 2:3.5532625 3:0.089743592 4:6.8257589 #SRS015154.13288
0.00058419544463043492771303633048774 1:0.11538462 2:7.7335258 3:0.11538462 4:12.333176 #Q8RG14
-0.00058419544463043492771303633048774 1:0.14102565 2:12.48291 3:0.14102565 4:24.674603 #SRS011310.44730
-0.00058419544463043492771303633048774 1:0.12820514 2:15.746943 3:0.12820514 4:53.90649 #SRS021473.13574
0.00058419544463043492771303633048774 1:0.025641026 2:6.531055 3:0.025641026 4:12.194359 #A7ZEK1
-0.00058419544463043492771303633048774 1:0.15384616 2:12.391714 3:0.15384616 4:24.139069 #SRS045049.53174
0.00058419544463043492771303633048774 1:0.21794872 2:17.163237 3:0.21794872 4:84.535744 #Q5M1Y6
0.00058419544463043492771303633048774 1:0.1025641 2:14.24032 3:0.1025641 4:36.665375 #P57878
0.00058419544463043492771303633048774 1:0.03846154 2:7.3753605 3:0.03846154 4:12.53797 #Q9JXQ3
0.00058419544463043492771303633048774 1:0.064102568 2:9.0237188 3:0.064102568 4:15.25427 #A7ZC35
-0.00058419544463043492771303633048774 1:0.14102565 2:11.145345 3:0.14102565 4:19.994856 #SRS045049.54416
-0.00058419544463043492771303633048774 1:0.17948718 2:9.2815952 3:0.17948718 4:15.1101 #SRS022625.12352
0.00058419544463043492771303633048774 1:0.83333331 2:18.097549 3:0.83333331 4:129.93716 #P44871
0.00058419544463043492771303633048774 1:0.012820513 2:4.0998106 3:0.012820513 4:12.126166 #Q9CDT4
-0.00058419544463043492771303633048774 1:0.07692308 2:15.105239 3:0.07692308 4:50.821136 #SRS019221.1158
0.00058419544463043492771303633048774 1:0.012820513 2:4.1090531 3:0.012820513 4:12.179562 #Q9CMQ8
-0.00058419544463043492771303633048774 1:0.064102568 2:14.865637 3:0.064102568 4:50.750076 #SRS016503.18277
-0.00058419544463043492771303633048774 1:0.012820513 2:5.5484452 3:0.012820513 4:41.143208 #SRS017215.18133
0.00058419544463043492771303633048774 1:0.12820514 2:14.582916 3:0.12820514 4:38.386932 #Q5LZI0
-0.00058419544463043492771303633048774 1:0.14102565 2:12.181527 3:0.14102565 4:23.441545 #SRS045049.54291
0.00058419544463043492771303633048774 1:0.11538462 2:7.9024229 3:0.11538462 4:12.625799 #Q9JRV8
-0.00058419544463043492771303633048774 1:0.12820514 2:9.6763201 3:0.12820514 4:16.156303 #SRS013881.11109
-0.00029142497927871734153537630618303 1:0.025641026 2:7.6124082 3:0.025641026 4:15.115951 #SRS011310.23959
-0.00058419544463043492771303633048774 1:0.012820513 2:5.4136019 3:0.012820513 4:32.909744 #SRS022532.12282
0.00058419544463043492771303633048774 1:0.089743592 2:11.068526 3:0.089743592 4:20.36817 #Q9JXQ1
0.00058419544463043492771303633048774 1:0.14102565 2:7.9055839 3:0.14102565 4:12.56489 #A3CMP3
-0.00058419544463043492771303633048774 1:0.051282052 2:14.477152 3:0.051282052 4:50.523827 #SRS042457.6758
-0.00058419544463043492771303633048774 1:0.14102565 2:10.454892 3:0.14102565 4:18.040443 #SRS017127.3033
0.00058419544463043492771303633048774 1:0.11538462 2:15.876551 3:0.11538462 4:58.130608 #Q03KB7
-0.00058419544463043492771303633048774 1:0.064102568 2:14.852273 3:0.064102568 4:50.509983 #SRS016039.15331
0.00058419544463043492771303633048774 1:0.012820513 2:4.2036319 3:0.012820513 4:12.753293 #A7GYN4
0.00058419544463043492771303633048774 1:0.14102565 2:16.629087 3:0.14102565 4:74.151215 #Q5M1J9
0.00058419544463043492771303633048774 1:0.14102565 2:7.9412594 3:0.14102565 4:12.62483 #A3CMQ4
-0.00058419544463043492771303633048774 1:0.07692308 2:15.081663 3:0.07692308 4:50.394962 #SRS017127.2897
-0.00058419544463043492771303633048774 1:0.012820513 2:5.4156017 3:0.012820513 4:33.004025 #SRS056892.20594
0.00058419544463043492771303633048774 1:0.07692308 2:11.833722 3:0.07692308 4:23.360207 #Q8DS85
0.00058419544463043492771303633048774 1:0.80769229 2:18.093233 3:0.80769229 4:129.53787 #P44530
0.00058419544463043492771303633048774 1:0.20512821 2:7.9949751 3:0.20512821 4:12.625854 #Q8GJ00
-0.00058419544463043492771303633048774 1:0.12820514 2:15.947849 3:0.12820514 4:57.811966 #SRS019329.3769
0.00058419544463043492771303633048774 1:0.03846154 2:7.6377206 3:0.03846154 4:13.051102 #P00552
0.00058419544463043492771303633048774 1:0.24358974 2:17.229378 3:0.24358974 4:85.262817 #Q5M2S3
0.00058419544463043492771303633048774 1:0.012820513 2:4.2551465 3:0.012820513 4:13.082052 #A7GXU4
-0.00058419544463043492771303633048774 1:0.07692308 2:15.075049 3:0.07692308 4:50.294693 #SRS015436.42094
-0.00058419544463043492771303633048774 1:0.012820513 2:5.4289784 3:0.012820513 4:33.642723 #SRS013239.23062
0.00058419544463043492771303633048774 1:0.11538462 2:16.101591 3:0.11538462 4:63.509464 #Q5M4U2
-0.00058419544463043492771303633048774 1:0.089743592 2:15.234109 3:0.089743592 4:50.201393 #SRS045262.9394
-0.00058419544463043492771303633048774 1:0.14102565 2:11.580931 3:0.14102565 4:21.361897 #SRS019329.33479
0.00058419544463043492771303633048774 1:0.064102568 2:7.9725728 3:0.064102568 4:13.048179 #Q8R635
0.00058419544463043492771303633048774 1:0.1025641 2:8.1426735 3:0.1025641 4:13.086381 #A8AZE2
-0.00058419544463043492771303633048774 1:0.025641026 2:11.447517 3:0.025641026 4:49.545582 #SRS017127.202
0.00058419544463043492771303633048774 1:0.07692308 2:12.838766 3:0.07692308 4:28.184107 #Q8RGW9
0.00058419544463043492771303633048774 1:0.1923077 2:16.841824 3:0.1923077 4:74.585243 #Q5M126
0.00058419544463043492771303633048774 1:0.051282052 2:8.1734247 3:0.051282052 4:13.663072 #A7ZEH3
-0.00058419544463043492771303633048774 1:0.11538462 2:6.4943523 3:0.11538462 4:10.436571 #SRS050029.29856
-0.00058419544463043492771303633048774 1:0.14102565 2:12.224009 3:0.14102565 4:23.613344 #SRS011310.24137
0.00058419544463043492771303633048774 1:0.12820514 2:16.169268 3:0.12820514 4:63.089691 #P28903
0.00058419544463043492771303633048774 1:0.1025641 2:8.2119541 3:0.1025641 4:13.210888 #A9M198
-0.00058419544463043492771303633048774 1:0.064102568 2:14.841424 3:0.064102568 4:50.313499 #SRS018149.16816
-0.00025758145419535471987160235585179 1:0.025641026 2:7.6231022 3:0.025641026 4:15.148803 #SRS015154.7530
-0.00058419544463043492771303633048774 1:0.11538462 2:9.0576792 3:0.11538462 4:14.841189 #SRS056892.53502
-0.00058419544463043492771303633048774 1:0.07692308 2:3.4243858 3:0.07692308 4:6.6819615 #SRS022145.11817
0.00058419544463043492771303633048774 1:0.051282052 2:8.6540813 3:0.051282052 4:14.724508 #Q9JV95
0.00058419544463043492771303633048774 1:0.17948718 2:8.4311934 3:0.17948718 4:13.404638 #A3CQ50
-0.00058419544463043492771303633048774 1:0.1025641 2:5.7232819 3:0.1025641 4:9.4189186 #SRS015436.8674
0.00058419544463043492771303633048774 1:0.012820513 2:4.324892 3:0.012820513 4:13.56227 #A7ZDJ9
-0.00058419544463043492771303633048774 1:0.11538462 2:6.293242 3:0.11538462 4:10.148476 #SRS050628.82707
0.00058419544463043492771303633048774 1:0.70512819 2:18.048103 3:0.70512819 4:126.44276 #P71359
-0.00058419544463043492771303633048774 1:0.025641026 2:11.43636 3:0.025641026 4:49.232651 #SRS022532.7620
-0.00058419544463043492771303633048774 1:0.12820514 2:9.3986645 3:0.12820514 4:15.52406 #SRS013881.9878
0.00058419544463043492771303633048774 1:0.12820514 2:8.4960032 3:0.12820514 4:13.644656 #P47848
0.00058419544463043492771303633048774 1:0.07692308 2:8.4686623 3:0.07692308 4:13.865474 #Q9JZ88
-0.00058419544463043492771303633048774 1:0.025641026 2:11.435663 3:0.025641026 4:49.202587 #SRS013506.1651
-0.00051516988565130164556826741772966 1:0.025641026 2:7.6307712 3:0.025641026 4:15.169977 #SRS063272.13177
0.00058419544463043492771303633048774 1:0.78205127 2:18.057259 3:0.78205127 4:126.2017 #P43809
0.00058419544463043492771303633048774 1:0.23076923 2:8.4866161 3:0.23076923 4:13.448249 #A3CQ51
-0.00058419544463043492771303633048774 1:0.025641026 2:11.430169 3:0.025641026 4:49.060833 #SRS013825.15567
-0.00058419544463043492771303633048774 1:0.11538462 2:17.531891 3:0.11538462 4:173.39928 #SRS019221.6721
0.00058419544463043492771303633048774 1:0.16666667 2:8.6413183 3:0.16666667 4:13.814144 #Q9HCC0
0.00058419544463043492771303633048774 1:0.025641026 2:7.2156019 3:0.025641026 4:13.911611 #A7ZCB6
-0.00058419544463043492771303633048774 1:0.025641026 2:11.417739 3:0.025641026 4:48.729378 #SRS014890.2152
-0.00032316688230355980482322308944276 1:0.12820514 2:9.9983482 3:0.12820514 4:16.932634 #SRS017441.8829
0.00058419544463043492771303633048774 1:0.1025641 2:12.299404 3:0.1025641 4:24.577612 #A3N1S5
0.00058419544463043492771303633048774 1:0.80769229 2:18.06041 3:0.80769229 4:126.43157 #P43873
-0.00058419544463043492771303633048774 1:0.051282052 2:14.435165 3:0.051282052 4:49.791313 #SRS011247.26288
0.00058419544463043492771303633048774 1:0.20512821 2:8.7828808 3:0.20512821 4:14.039737 #Q8RFY0
-0.00058419544463043492771303633048774 1:0.025641026 2:11.415275 3:0.025641026 4:48.666634 #SRS019221.4514
0.00058419544463043492771303633048774 1:0.1025641 2:8.9681625 3:0.1025641 4:14.726483 #A8AWF1
-0.00058419544463043492771303633048774 1:0.025641026 2:11.411836 3:0.025641026 4:48.578777 #SRS056892.17976
0.00058419544463043492771303633048774 1:0.025641026 2:7.3754454 3:0.025641026 4:14.386676 #Q9CKV0
-8.5869746205568392438678415601316e-05 1:0.11538462 2:8.1539412 3:0.11538462 4:13.058838 #SRS017013.16607
-0.00058419544463043492771303633048774 1:0.025641026 2:11.409034 3:0.025641026 4:48.483208 #SRS016039.13011
0.00058419544463043492771303633048774 1:0.26923078 2:17.337616 3:0.26923078 4:88.598534 #Q5M283
0.00058419544463043492771303633048774 1:0.75641024 2:18.029573 3:0.75641024 4:123.72409 #P44681
-0.00058419544463043492771303633048774 1:0.12820514 2:9.9823341 3:0.12820514 4:16.895121 #SRS019329.12564
0.00058419544463043492771303633048774 1:0.12820514 2:9.1280222 3:0.12820514 4:14.932976 #Q8REV1
-0.00058303050978528864201066994610301 1:0.051282052 2:14.426084 3:0.051282052 4:49.621822 #SRS022625.34679
0.00058419544463043492771303633048774 1:0.012820513 2:4.3390365 3:0.012820513 4:13.662135 #Q51567
-0.00058419544463043492771303633048774 1:0.12820514 2:16.23271 3:0.12820514 4:64.688995 #SRS024017.11273
0.00058419544463043492771303633048774 1:0.089743592 2:9.4610271 3:0.089743592 4:15.915693 #Q8RG42
-0.00020929052925977228993836831705266 1:0.025641026 2:0.14160013 3:0.025641026 4:2.3405476 #SRS018149.56426
0.00058419544463043492771303633048774 1:0.11538462 2:12.495702 3:0.11538462 4:25.157078 #P44656
0.00058419544463043492771303633048774 1:0.73076922 2:18.021233 3:0.73076922 4:123.15829 #P46398
0.00058419544463043492771303633048774 1:0.26923078 2:9.0089741 3:0.26923078 4:14.426574 #Q8RHI9
-0.00058419544463043492771303633048774 1:0.1025641 2:5.4186301 3:0.1025641 4:9.0420179 #SRS013506.33379
-0.00058419544463043492771303633048774 1:0.025641026 2:11.398398 3:0.025641026 4:48.166161 #SRS045049.4598
0.00058419544463043492771303633048774 1:0.15384616 2:9.1494551 3:0.15384616 4:14.88595 #A8AVL4
-0.00058419544463043492771303633048774 1:0.025641026 2:11.387563 3:0.025641026 4:47.8661 #SRS017687.4018
-0.00058419544463043492771303633048774 1:0.14102565 2:11.300693 3:0.14102565 4:20.482618 #SRS018149.12797
0.00058419544463043492771303633048774 1:0.012820513 2:4.3482265 3:0.012820513 4:13.729731 #Q9CN36
0.00058419544463043492771303633048774 1:0.12820514 2:15.059514 3:0.12820514 4:43.559761 #Q5M0D5
0.00058419544463043492771303633048774 1:0.064102568 2:9.1741133 3:0.064102568 4:15.610014 #A3MYB6
-0.00058419544463043492771303633048774 1:0.12820514 2:9.9929886 3:0.12820514 4:16.921585 #SRS023987.32462
-0.00058240893004146612049742870453883 1:0.051282052 2:13.584788 3:0.051282052 4:37.88876 #SRS011247.2083
-0.00058419544463043492771303633048774 1:0.14102565 2:12.538268 3:0.14102565 4:24.914013 #SRS016600.17704
-0.00058419544463043492771303633048774 1:0.025641026 2:11.384813 3:0.025641026 4:47.802006 #SRS017810.32144
0.00058419544463043492771303633048774 1:0.16666667 2:9.2081642 3:0.16666667 4:14.976607 #A3CL56
0.00058419544463043492771303633048774 1:0.03846154 2:8.5092573 3:0.03846154 4:15.039793 #B0UU42
-0.00058419544463043492771303633048774 1:0.025641026 2:11.383653 3:0.025641026 4:47.769672 #SRS018149.12398
0.00058419544463043492771303633048774 1:0.61538464 2:17.936152 3:0.61538464 4:117.48457 #Q97P83
0.00058419544463043492771303633048774 1:0.089743592 2:9.5280371 3:0.089743592 4:16.076275 #Q8RHL0
0.00058419544463043492771303633048774 1:0.71794873 2:18.005157 3:0.71794873 4:121.86977 #P43833
-0.00058419544463043492771303633048774 1:0.025641026 2:11.38298 3:0.025641026 4:47.751896 #SRS045254.13796
0.00058419544463043492771303633048774 1:0.12820514 2:9.2566175 3:0.12820514 4:15.209565 #A3CKI0
-0.00058419544463043492771303633048774 1:0.14102565 2:13.743997 3:0.14102565 4:31.293303 #SRS011310.42952
0.00058419544463043492771303633048774 1:0.025641026 2:7.5087886 3:0.025641026 4:14.792166 #A7ZFA0
-0.00058419544463043492771303633048774 1:0.064102568 2:14.792047 3:0.064102568 4:49.497299 #SRS016196.22325
-0.00058419544463043492771303633048774 1:0.025641026 2:11.379679 3:0.025641026 4:47.662251 #SRS056892.33427
0.00058419544463043492771303633048774 1:0.03846154 2:8.640729 3:0.03846154 4:15.371818 #Q9K0I1
0.00058419544463043492771303633048774 1:0.74358976 2:18.001816 3:0.74358976 4:121.03874 #P44338
-0.00058419544463043492771303633048774 1:0.025641026 2:11.365815 3:0.025641026 4:47.266998 #SRS013506.10268
-0.00058419544463043492771303633048774 1:0.012820513 2:5.9339566 3:0.012820513 4:480.86469 #SRS023534.4423
-0.00058419544463043492771303633048774 1:0.12820514 2:15.488779 3:0.12820514 4:49.522041 #SRS024377.3650
-0.00058419544463043492771303633048774 1:0.15384616 2:12.6356 3:0.15384616 4:25.16514 #SRS017127.1574
-0.00058419544463043492771303633048774 1:0.14102565 2:12.574774 3:0.14102565 4:25.075476 #SRS016196.23378
-1.2204454283685790133562321102545e-05 1:0.12820514 2:10.18562 3:0.12820514 4:17.403877 #SRS020858.28054
-0.00058419544463043492771303633048774 1:0.064102568 2:14.784859 3:0.064102568 4:49.385384 #SRS011090.3312
-0.00058419544463043492771303633048774 1:0.025641026 2:11.361249 3:0.025641026 4:47.145912 #SRS016297.2753
-0.00058419544463043492771303633048774 1:0.064102568 2:14.774023 3:0.064102568 4:49.193298 #SRS018149.15842
-0.00058419544463043492771303633048774 1:0.15384616 2:15.57999 3:0.15384616 4:48.941544 #SRS017810.27050
0.00058419544463043492771303633048774 1:0.025641026 2:7.5511441 3:0.025641026 4:14.918915 #Q8DT12
-0.00058419544463043492771303633048774 1:0.012820513 2:5.8156466 3:0.012820513 4:91.318291 #SRS016503.11108
0.00058419544463043492771303633048774 1:0.051282052 2:14.915655 3:0.051282052 4:60.405624 #Q5LXJ4
-0.00058419544463043492771303633048774 1:0.26923078 2:17.603373 3:0.26923078 4:105.28532 #SRS011090.4928
0.00058419544463043492771303633048774 1:0.012820513 2:4.4791503 3:0.012820513 4:14.794922 #Q65QB0
-0.00058419544463043492771303633048774 1:0.14102565 2:9.2707157 3:0.14102565 4:15.18697 #SRS017013.1641
-0.00058419544463043492771303633048774 1:0.1025641 2:8.9756079 3:0.1025641 4:14.74263 #SRS013239.12275
0.00058419544463043492771303633048774 1:0.6025641 2:17.405531 3:0.6025641 4:83.272423 #P45061
-0.00058419544463043492771303633048774 1:0.025641026 2:12.743728 3:0.025641026 4:380.36234 #SRS017441.14049
0.00058419544463043492771303633048774 1:0.3974359 2:17.311119 3:0.3974359 4:82.333939 #Q65U55
-0.00058419544463043492771303633048774 1:0.29487181 2:14.783505 3:0.29487181 4:37.015423 #SRS045254.19177
0.00058419544463043492771303633048774 1:0.012820513 2:5.7274523 3:0.012820513 4:63.965176 #P0ABU3
0.00058419544463043492771303633048774 1:0.25641027 2:17.134388 3:0.25641027 4:80.191963 #Q5M6I4
0.00058419544463043492771303633048774 1:0.012820513 2:4.5027699 3:0.012820513 4:14.998852 #P44124
0.00058419544463043492771303633048774 1:0.58974361 2:17.375101 3:0.58974361 4:82.17852 #P43827
0.00058419544463043492771303633048774 1:0.025641026 2:11.919105 3:0.025641026 4:68.357933 #Q7VNH1
-0.00058419544463043492771303633048774 1:0.26923078 2:13.464689 3:0.26923078 4:28.274996 #SRS019221.10829
0.00058419544463043492771303633048774 1:0.012820513 2:5.7041178 3:0.012820513 4:59.451786 #Q8RET9
-0.00058419544463043492771303633048774 1:0.11538462 2:9.0773029 3:0.11538462 4:14.886845 #SRS045049.41485
-0.00058419544463043492771303633048774 1:0.15384616 2:9.4675837 3:0.15384616 4:15.567307 #SRS011310.16741
0.00058419544463043492771303633048774 1:0.73076922 2:17.434698 3:0.73076922 4:83.221909 #P71377
0.00058419544463043492771303633048774 1:0.012820513 2:4.5103064 3:0.012820513 4:15.068733 #Q8RF94
0.00058419544463043492771303633048774 1:0.012820513 2:5.700459 3:0.012820513 4:58.77549 #Q8DT23
-0.00058419544463043492771303633048774 1:0.23076923 2:12.076661 3:0.23076923 4:22.522184 #SRS017127.15485
0.00058419544463043492771303633048774 1:0.24358974 2:17.036495 3:0.24358974 4:77.301598 #Q65QU0
-0.00058419544463043492771303633048774 1:0.12820514 2:9.2038937 3:0.12820514 4:15.101378 #SRS023987.20128
0.00058419544463043492771303633048774 1:0.051282052 2:14.863718 3:0.051282052 4:58.985825 #Q8REH4
-0.00058419544463043492771303633048774 1:0.1025641 2:15.2825 3:0.1025641 4:49.063168 #SRS011310.8516
-0.00058419544463043492771303633048774 1:0.07692308 2:14.997136 3:0.07692308 4:49.049412 #SRS050029.19287
0.00058419544463043492771303633048774 1:0.1923077 2:9.3032398 3:0.1923077 4:15.129096 #A8B000
-0.00058419544463043492771303633048774 1:0.14102565 2:12.812952 3:0.14102565 4:26.138567 #SRS023987.35402
0.00058419544463043492771303633048774 1:0.07692308 2:12.709579 3:0.07692308 4:27.454332 #Q8RGA0
-0.00058419544463043492771303633048774 1:0.025641026 2:11.360881 3:0.025641026 4:47.135094 #SRS016039.13062
0.00058419544463043492771303633048774 1:0.07692308 2:13.091001 3:0.07692308 4:29.727657 #Q3JYG1
-0.00058419544463043492771303633048774 1:0.064102568 2:12.83859 3:0.064102568 4:29.239294 #SRS011247.28001
0.00058419544463043492771303633048774 1:0.52564102 2:16.68708 3:0.52564102 4:62.228386 #P45256
0.00058419544463043492771303633048774 1:0.16666667 2:9.335741 3:0.16666667 4:15.246311 #Q9AET6
-0.00058419544463043492771303633048774 1:0.12820514 2:15.436193 3:0.12820514 4:48.742207 #SRS019391.339
0.00058419544463043492771303633048774 1:0.025641026 2:7.7643294 3:0.025641026 4:15.604343 #A7ZDK1
0.00058419544463043492771303633048774 1:0.16666667 2:16.461124 3:0.16666667 4:65.666512 #Q5M6H2
-0.00058419544463043492771303633048774 1:0.07692308 2:14.98835 3:0.07692308 4:48.898781 #SRS018149.25747
-0.00032661399043071304149066236277577 1:0.12820514 2:11.079643 3:0.12820514 4:19.902433 #SRS019329.38556
0.00058419544463043492771303633048774 1:0.051282052 2:9.175909 3:0.051282052 4:15.964378 #Q8RGM4
-0.00058419544463043492771303633048774 1:0.064102568 2:14.755019 3:0.064102568 4:48.880184 #SRS018149.20499
0.00058419544463043492771303633048774 1:0.1025641 2:9.5410089 3:0.1025641 4:15.99061 #P10640
0.00058419544463043492771303633048774 1:0.57692307 2:17.34551 3:0.57692307 4:81.181999 #P44645
0.00058419544463043492771303633048774 1:0.20512821 2:9.39221 3:0.20512821 4:15.291101 #Q8RFN7
-0.00057950739242313559218544583018229 1:0.11538462 2:8.4917898 3:0.11538462 4:13.683559 #SRS013506.17445
-0.00058419544463043492771303633048774 1:0.14102565 2:12.829963 3:0.14102565 4:26.213573 #SRS045049.49296
-0.00058419544463043492771303633048774 1:0.07692308 2:14.962967 3:0.07692308 4:48.503311 #SRS011310.37145
0.00058419544463043492771303633048774 1:0.14102565 2:9.4717684 3:0.14102565 4:15.629246 #P29842
0.00058419544463043492771303633048774 1:0.67948717 2:17.403997 3:0.67948717 4:82.338104 #P43948
-0.00058419544463043492771303633048774 1:0.051282052 2:14.359766 3:0.051282052 4:48.459629 #SRS018149.15879
0.00058419544463043492771303633048774 1:0.14102565 2:9.4913645 3:0.14102565 4:15.674627 #A8AW75
-0.00058419544463043492771303633048774 1:0.089743592 2:2.5097392 3:0.089743592 4:5.6306744 #SRS013239.33457
-0.00058419544463043492771303633048774 1:0.064102568 2:14.731175 3:0.064102568 4:48.494862 #SRS013825.15036
0.00058419544463043492771303633048774 1:0.025641026 2:7.8162098 3:0.025641026 4:15.77074 #A7ZDQ0
0.00058419544463043492771303633048774 1:0.33333334 2:17.115318 3:0.33333334 4:76.34272 #P71331
0.00058419544463043492771303633048774 1:0.17948718 2:9.4990244 3:0.17948718 4:15.572413 #A8AVZ4
-0.00058419544463043492771303633048774 1:0.1025641 2:4.4057808 3:0.1025641 4:7.8119454 #SRS050029.41098
-0.00058419544463043492771303633048774 1:0.12820514 2:9.4963369 3:0.12820514 4:15.740706 #SRS015436.56010
0.00058419544463043492771303633048774 1:0.58974361 2:17.330153 3:0.58974361 4:80.431015 #P43773
-0.00058419544463043492771303633048774 1:0.12820514 2:15.413335 3:0.12820514 4:48.367966 #SRS018149.30770
0.00058419544463043492771303633048774 1:0.012820513 2:4.5590844 3:0.012820513 4:15.514273 #P69452
-0.00058419544463043492771303633048774 1:0.025641026 2:11.359962 3:0.025641026 4:47.118702 #SRS013506.17970
-0.00058419544463043492771303633048774 1:0.07692308 2:2.3761444 3:0.07692308 4:5.4919605 #SRS013945.785
0.00058419544463043492771303633048774 1:0.53846157 2:17.29388 3:0.53846157 4:79.706451 #A3N3K0
-0.00058419544463043492771303633048774 1:0.064102568 2:14.727977 3:0.064102568 4:48.437214 #SRS013945.14224
0.00058419544463043492771303633048774 1:0.17948718 2:9.5732069 3:0.17948718 4:15.737058 #P42361
0.00058419544463043492771303633048774 1:0.1025641 2:9.5757551 3:0.1025641 4:16.076109 #A3CPJ9
-0.00058419544463043492771303633048774 1:0.025641026 2:11.359808 3:0.025641026 4:47.114552 #SRS017687.7472
-0.00058419544463043492771303633048774 1:0.14102565 2:13.485188 3:0.14102565 4:29.675837 #SRS045049.4527
-0.00058419544463043492771303633048774 1:0.14102565 2:15.482031 3:0.14102565 4:48.3437 #SRS018661.18147
0.00058419544463043492771303633048774 1:0.14102565 2:9.6299057 3:0.14102565 4:15.977869 #Q8RI93
0.00058419544463043492771303633048774 1:0.61538464 2:17.336079 3:0.61538464 4:80.321655 #P45081
0.00058419544463043492771303633048774 1:0.11538462 2:9.6469259 3:0.11538462 4:16.16124 #Q8RGX1
-0.00058419544463043492771303633048774 1:0.089743592 2:15.119009 3:0.089743592 4:48.392128 #SRS018149.30782
-0.00058419544463043492771303633048774 1:0.14102565 2:11.10577 3:0.14102565 4:19.868856 #SRS017127.8595
0.00058419544463043492771303633048774 1:0.20512821 2:9.6293354 3:0.20512821 4:15.805769 #Q8RFN2
-0.00058419544463043492771303633048774 1:0.07692308 2:14.954377 3:0.07692308 4:48.348843 #SRS015646.19170
0.00058419544463043492771303633048774 1:0.32051283 2:17.089775 3:0.32051283 4:75.783401 #A3CLP4
0.00058419544463043492771303633048774 1:0.03846154 2:9.0244284 3:0.03846154 4:16.395967 #Q9F1T6
-0.00058419544463043492771303633048774 1:0.14102565 2:13.765998 3:0.14102565 4:31.448553 #SRS048719.26000
-1.1858429802377723483175486762775e-05 1:0.11538462 2:11.229354 3:0.11538462 4:20.506718 #SRS018149.11107
0.00058419544463043492771303633048774 1:0.20512821 2:9.7661152 3:0.20512821 4:16.112009 #Q8RFS6
-0.00058419544463043492771303633048774 1:0.051282052 2:14.345382 3:0.051282052 4:48.190613 #SRS015745.49115
0.00058419544463043492771303633048774 1:0.14102565 2:9.8276987 3:0.14102565 4:16.44908 #Q8RFK2
0.00058419544463043492771303633048774 1:0.57692307 2:17.257605 3:0.57692307 4:77.853584 #P45128
-0.00058419544463043492771303633048774 1:0.025641026 2:11.355023 3:0.025641026 4:47.004623 #SRS017215.47594
0.00058419544463043492771303633048774 1:0.07692308 2:10.101767 3:0.07692308 4:17.726717 #Q8R5N8
-0.00058419544463043492771303633048774 1:0.15384616 2:13.052907 3:0.15384616 4:27.058125 #SRS045049.53196
-0.00058419544463043492771303633048774 1:0.12820514 2:8.5337191 3:0.12820514 4:13.718505 #SRS011247.26333
0.00058419544463043492771303633048774 1:0.17948718 2:16.187313 3:0.17948718 4:58.133476 #Q5LXM9
0.00058419544463043492771303633048774 1:0.012820513 2:4.5837631 3:0.012820513 4:15.745472 #A1R7V5
-0.00058419544463043492771303633048774 1:0.1025641 2:15.220916 3:0.1025641 4:48.090691 #SRS019976.22507
0.00058419544463043492771303633048774 1:0.07692308 2:10.166838 3:0.07692308 4:17.915203 #Q8RH44
-0.00058419544463043492771303633048774 1:0.025641026 2:11.3495 3:0.025641026 4:46.848335 #SRS011247.28935
0.00058419544463043492771303633048774 1:0.051282052 2:9.9992056 3:0.051282052 4:18.249332 #Q8RHK9
0.00058419544463043492771303633048774 1:0.14102565 2:15.40098 3:0.14102565 4:47.129925 #Q5M117
0.00058419544463043492771303633048774 1:0.46153846 2:17.181839 3:0.46153846 4:76.43541 #P57897
-0.00058419544463043492771303633048774 1:0.14102565 2:10.480536 3:0.14102565 4:18.110592 #SRS018149.21026
0.00058419544463043492771303633048774 1:0.012820513 2:4.6535573 3:0.012820513 4:16.460495 #F2XG53
-0.00058419544463043492771303633048774 1:0.07692308 2:14.927641 3:0.07692308 4:47.913094 #SRS018149.21285
-0.0002002061184838413096520604028683 1:0.025641026 2:11.343142 3:0.025641026 4:46.67617 #SRS063272.28383
0.00058419544463043492771303633048774 1:0.62820512 2:17.28166 3:0.62820512 4:78.121826 #P44406
-0.00058419544463043492771303633048774 1:0.14102565 2:10.459111 3:0.14102565 4:18.051315 #SRS015154.1038
0.00058419544463043492771303633048774 1:0.24358974 2:9.8179951 3:0.24358974 4:16.175419 #Q8RGA3
0.00058419544463043492771303633048774 1:0.1923077 2:9.8366089 3:0.1923077 4:16.303282 #A8AYI5
-0.00058419544463043492771303633048774 1:0.07692308 2:14.927326 3:0.07692308 4:47.909126 #SRS011144.12156
0.00058419544463043492771303633048774 1:0.089743592 2:10.200264 3:0.089743592 4:17.797504 #Q8RHD0
-0.00058419544463043492771303633048774 1:0.14102565 2:11.854916 3:0.14102565 4:22.264641 #SRS023987.9934
-0.00058419544463043492771303633048774 1:0.16666667 2:10.635268 3:0.16666667 4:18.390938 #SRS021473.5059
0.00058419544463043492771303633048774 1:0.07692308 2:14.264164 3:0.07692308 4:39.366837 #Q03LG8
-0.00058419544463043492771303633048774 1:0.025641026 2:11.4457 3:0.025641026 4:49.487247 #SRS063287.10850
0.00058419544463043492771303633048774 1:0.51282054 2:17.194511 3:0.51282054 4:76.322334 #Q65SH4
-0.00058419544463043492771303633048774 1:0.07692308 2:14.926225 3:0.07692308 4:47.885124 #SRS063287.7676
0.00058419544463043492771303633048774 1:0.025641026 2:8.2038879 3:0.025641026 4:17.165712 #Q48QS8
-0.00058419544463043492771303633048774 1:0.12820514 2:9.3055754 3:0.12820514 4:15.316294 #SRS017687.28696
0.00058419544463043492771303633048774 1:0.03846154 2:9.5508528 3:0.03846154 4:17.979713 #A3MYR6
0.00058419544463043492771303633048774 1:0.03846154 2:14.31153 3:0.03846154 4:66.759727 #P48209
0.00058419544463043492771303633048774 1:0.62820512 2:17.261297 3:0.62820512 4:77.408302 #P44496
0.00058419544463043492771303633048774 1:0.20512821 2:9.9174109 3:0.20512821 4:16.469379 #O86224
-0.00058419544463043492771303633048774 1:0.089743592 2:15.077863 3:0.089743592 4:47.747841 #SRS017687.33119
-0.00014992376814277480479020709935867 1:0.089743592 2:6.7918463 3:0.089743592 4:10.922921 #SRS018149.76890
-0.00058419544463043492771303633048774 1:0.11538462 2:7.4466605 3:0.11538462 4:11.849746 #SRS018329.22930
0.00058419544463043492771303633048774 1:0.14102565 2:9.9985714 3:0.14102565 4:16.857731 #A8AVE1
-0.00058419544463043492771303633048774 1:0.12820514 2:9.5868959 3:0.12820514 4:15.939454 #SRS017215.35290
-0.00058419544463043492771303633048774 1:0.12820514 2:16.187057 3:0.12820514 4:63.464573 #SRS017687.41397
0.00058419544463043492771303633048774 1:0.57692307 2:17.228809 3:0.57692307 4:76.786011 #P44308
0.00058419544463043492771303633048774 1:0.012820513 2:4.7044754 3:0.012820513 4:17.021719 #Q3A946
-0.00058419544463043492771303633048774 1:0.14102565 2:15.426994 3:0.14102565 4:47.529526 #SRS016349.12638
-0.00058419544463043492771303633048774 1:0.025641026 2:11.334548 3:0.025641026 4:46.47472 #SRS021473.5395
0.00058419544463043492771303633048774 1:0.1923077 2:10.02947 3:0.1923077 4:16.760296 #Q8RHZ9
-0.00058419544463043492771303633048774 1:0.089743592 2:4.0232038 3:0.089743592 4:7.3708591 #SRS063272.31778
0.00058419544463043492771303633048774 1:0.37179488 2:16.852602 3:0.37179488 4:67.717903 #Q0I200
0.00058419544463043492771303633048774 1:0.025641026 2:8.2286539 3:0.025641026 4:17.256407 #A7ZDQ1
-0.00058419544463043492771303633048774 1:0.07692308 2:14.910166 3:0.07692308 4:47.645363 #SRS015154.496
-0.00058419544463043492771303633048774 1:0.025641026 2:11.330778 3:0.025641026 4:46.376095 #SRS019872.5212
0.00058419544463043492771303633048774 1:0.1025641 2:10.241548 3:0.1025641 4:17.75843 #A3CM36
-0.00058419544463043492771303633048774 1:0.14102565 2:10.45217 3:0.14102565 4:18.03301 #SRS045049.49231
0.00058419544463043492771303633048774 1:0.65384614 2:17.226513 3:0.65384614 4:75.911629 #P44940
0.00058419544463043492771303633048774 1:0.025641026 2:8.2329855 3:0.025641026 4:17.275375 #B2RJ90
-0.00058419544463043492771303633048774 1:0.064102568 2:14.679277 3:0.064102568 4:47.62714 #SRS021473.9837
-0.00058419544463043492771303633048774 1:0.025641026 2:11.324311 3:0.025641026 4:46.217468 #SRS015895.12485
-0.00058419544463043492771303633048774 1:0.14102565 2:10.570476 3:0.14102565 4:18.348818 #SRS019587.6640
-0.00058419544463043492771303633048774 1:0.1025641 2:4.3277588 3:0.1025641 4:7.7149148 #SRS017215.23344
0.00058419544463043492771303633048774 1:0.03846154 2:14.042204 3:0.03846154 4:58.041626 #Q03H14
0.00058419544463043492771303633048774 1:0.25641027 2:10.122539 3:0.25641027 4:16.869408 #A3CRB8
-0.00058419544463043492771303633048774 1:0.1025641 2:15.183221 3:0.1025641 4:47.525379 #SRS017537.9604
0.00058419544463043492771303633048774 1:0.012820513 2:4.7267179 3:0.012820513 4:17.275135 #A7ZE20
-0.00058419544463043492771303633048774 1:0.14102565 2:13.684089 3:0.14102565 4:30.905363 #SRS045262.45244
0.00058419544463043492771303633048774 1:0.56410259 2:17.124161 3:0.56410259 4:73.566681 #P31767
-0.00057633968583190899048762645406896 1:0.064102568 2:14.677394 3:0.064102568 4:47.603313 #SRS045049.44865
-0.00058419544463043492771303633048774 1:0.14102565 2:12.243887 3:0.14102565 4:23.689819 #SRS011310.17748
0.00058419544463043492771303633048774 1:0.16666667 2:10.182208 3:0.16666667 4:17.209352 #A3CMR4
-0.00058419544463043492771303633048774 1:0.089743592 2:3.9590156 3:0.089743592 4:7.295011 #SRS018149.78666
0.00058419544463043492771303633048774 1:0.66666669 2:17.220171 3:0.66666669 4:75.590469 #P44785
0.00058419544463043492771303633048774 1:0.20512821 2:10.184554 3:0.20512821 4:17.106483 #A8AWX1
-0.00058419544463043492771303633048774 1:0.07692308 2:2.1008272 3:0.07692308 4:5.190248 #SRS018149.26033
0.00058419544463043492771303633048774 1:0.11538462 2:10.318898 3:0.11538462 4:17.856045 #Q8RDQ4
0.00058419544463043492771303633048774 1:0.07692308 2:11.924086 3:0.07692308 4:23.739426 #Q8CWY6
-0.00058419544463043492771303633048774 1:0.025641026 2:11.322494 3:0.025641026 4:46.17617 #SRS013239.9334
0.00058419544463043492771303633048774 1:0.064102568 2:12.753119 3:0.064102568 4:28.712715 #B8F7C2
-0.00058419544463043492771303633048774 1:0.17948718 2:10.868467 3:0.17948718 4:18.975986 #SRS015040.9338
0.00058419544463043492771303633048774 1:0.1025641 2:14.794194 3:0.1025641 4:42.409336 #Q5LXT2
0.00058419544463043492771303633048774 1:0.025641026 2:8.355154 3:0.025641026 4:17.761162 #Q5M575
-0.00058419544463043492771303633048774 1:0.16666667 2:15.495 3:0.16666667 4:47.043304 #SRS017537.4843
-0.00058419544463043492771303633048774 1:0.12820514 2:10.317537 3:0.12820514 4:17.751368 #SRS045049.11439
0.00058419544463043492771303633048774 1:0.1923077 2:10.233983 3:0.1923077 4:17.258451 #Q8RI80
-0.00058419544463043492771303633048774 1:0.26923078 2:15.503501 3:0.26923078 4:44.594112 #SRS045254.19438
0.00058419544463043492771303633048774 1:0.03846154 2:9.8932695 3:0.03846154 4:19.093636 #Q7VMA0
-0.00058419544463043492771303633048774 1:0.12820514 2:10.518991 3:0.12820514 4:18.30147 #SRS015436.55940
0.00058419544463043492771303633048774 1:0.1025641 2:14.79048 3:0.1025641 4:42.357204 #Q5LXZ8
0.00058419544463043492771303633048774 1:0.07692308 2:10.587631 3:0.07692308 4:19.115505 #A3N1A1
-0.00058419544463043492771303633048774 1:0.14102565 2:13.083003 3:0.14102565 4:27.421465 #SRS019587.12168
-0.00058419544463043492771303633048774 1:0.12820514 2:15.341953 3:0.12820514 4:47.285103 #SRS013945.29772
0.00058419544463043492771303633048774 1:0.25641027 2:16.559942 3:0.25641027 4:62.938763 #Q03MK9
-0.00057555055087413035941334982226181 1:0.025641026 2:11.319719 3:0.025641026 4:46.109371 #SRS045049.53777
0.00058419544463043492771303633048774 1:0.1025641 2:10.427217 3:0.1025641 4:18.270407 #B8F3B8
-8.5694276012460157687655737390742e-06 1:0.051282052 2:2.7053077 3:0.051282052 4:5.8785768 #SRS022145.13953
-0.00058419544463043492771303633048774 1:0.24358974 2:15.464528 3:0.24358974 4:44.514 #SRS018359.30279
