SVM-light Version V6.02
0 # kernel type
3 # kernel parameter -d 
1 # kernel parameter -g 
1 # kernel parameter -s 
1 # kernel parameter -r 
empty# kernel parameter -u 
4 # highest feature index 
8413 # number of training documents 
1642 # number of support vectors plus 1 
1.0065874 # threshold b, each following line is a SV (starting with alpha*y)
-0.0005966676141740538978283647786327 1:0.16666667 2:14.441409 3:0.16666667 4:35.772915 #SRS023987.30109
0.0005966676141740538978283647786327 1:0.012820513 2:3.1842346 3:0.012820513 4:8.4711742 #C0MCV8
-0.0005966676141740538978283647786327 1:0.051282052 2:16.392637 3:0.051282052 4:217.60805 #SRS022532.29275
0.0005966676141740538978283647786327 1:0.8974359 2:18.743534 3:0.8974359 4:523.21558 #Q8DNT8
0.0005966676141740538978283647786327 1:0.012820513 2:5.2335377 3:0.012820513 4:26.258669 #A7ZC38
0.0005966676141740538978283647786327 1:0.21794872 2:7.9402862 3:0.21794872 4:12.523615 #Q8R679
0.0005966676141740538978283647786327 1:0.12820514 2:6.9943042 3:0.12820514 4:11.128929 #Q8REV7
0.0005966676141740538978283647786327 1:0.11538462 2:6.0503969 3:0.11538462 4:9.8248796 #A8AX56
0.0005966676141740538978283647786327 1:0.11538462 2:5.6740866 3:0.11538462 4:9.3403063 #A8AXY8
0.0005966676141740538978283647786327 1:0.11538462 2:4.2885575 3:0.11538462 4:7.6595435 #Q8GR69
0.0005966676141740538978283647786327 1:0.51282054 2:18.357941 3:0.51282054 4:188.51578 #Q97RH6
-0.0005966676141740538978283647786327 1:0.1025641 2:4.4057808 3:0.1025641 4:7.8119454 #SRS050029.41098
-0.0005966676141740538978283647786327 1:0.051282052 2:16.558655 3:0.051282052 4:701.89215 #SRS011247.13334
-0.0005966676141740538978283647786327 1:0.17948718 2:11.744263 3:0.17948718 4:21.635443 #SRS011247.59722
-0.0005966676141740538978283647786327 1:0.11538462 2:8.8580847 3:0.11538462 4:14.425013 #SRS050029.44047
-0.0005966676141740538978283647786327 1:0.012820513 2:5.8995895 3:0.012820513 4:180.6579 #SRS017127.1690
-0.0005966676141740538978283647786327 1:0.11538462 2:9.3248253 3:0.11538462 4:15.423836 #SRS019329.6218
0.0005966676141740538978283647786327 1:0.012820513 2:0.25462529 3:0.012820513 4:2.7338765 #Q9AGW0
0.0005966676141740538978283647786327 1:0.012820513 2:5.9336572 3:0.012820513 4:445.89706 #Q8DRR1
-0.0005966676141740538978283647786327 1:0.025641026 2:12.707487 3:0.025641026 4:271.61411 #SRS023534.5832
0.0005966676141740538978283647786327 1:0.70512819 2:18.724154 3:0.70512819 4:471.37012 #Q04I59
-0.0005966676141740538978283647786327 1:0.025641026 2:12.733131 3:0.025641026 4:330.62943 #SRS016039.15584
-0.0005966676141740538978283647786327 1:0.12820514 2:12.935176 3:0.12820514 4:26.931881 #SRS019329.10638
0.0005966676141740538978283647786327 1:0.012820513 2:5.9334178 3:0.012820513 4:431.66412 #Q3K2S4
-0.0005966676141740538978283647786327 1:0.34615386 2:12.418529 3:0.34615386 4:23.481009 #SRS013945.31775
-0.0005966676141740538978283647786327 1:0.12820514 2:10.593426 3:0.12820514 4:18.504446 #SRS015745.32092
0.0005966676141740538978283647786327 1:0.012820513 2:0.42745546 3:0.012820513 4:3.1390576 #Q8R659
-0.0005966676141740538978283647786327 1:0.11538462 2:8.7660122 3:0.11538462 4:14.231565 #SRS018149.12771
-5.7568735456563300406651606522246e-05 1:0.089743592 2:6.4822593 3:0.089743592 4:10.476528 #SRS018149.76929
0.0005966676141740538978283647786327 1:0.52564102 2:18.657036 3:0.52564102 4:412.51877 #Q97N51
0.0005966676141740538978283647786327 1:0.012820513 2:0.53074753 3:0.012820513 4:3.3449543 #P52357
-0.0005966676141740538978283647786327 1:0.15384616 2:10.519232 3:0.15384616 4:18.144003 #SRS018149.4281
0.0005966676141740538978283647786327 1:0.012820513 2:5.8707533 3:0.012820513 4:132.96028 #Q57293
0.0005966676141740538978283647786327 1:0.64102566 2:18.699579 3:0.64102566 4:407.55966 #Q97SR1
-0.0005966676141740538978283647786327 1:0.025641026 2:12.752802 3:0.025641026 4:553.58044 #SRS011310.9985
-0.0005966676141740538978283647786327 1:0.12820514 2:13.333938 3:0.12820514 4:29.094179 #SRS014686.26861
0.0005966676141740538978283647786327 1:0.012820513 2:0.67464989 3:0.012820513 4:3.5975296 #A7ZEZ5
-0.0005966676141740538978283647786327 1:0.07692308 2:2.7573011 3:0.07692308 4:5.9166155 #SRS018329.23077
-0.0005966676141740538978283647786327 1:0.14102565 2:12.574774 3:0.14102565 4:25.075476 #SRS016196.23378
0.0005966676141740538978283647786327 1:0.012820513 2:5.9186506 3:0.012820513 4:239.79768 #Q9CDZ7
0.0005966676141740538978283647786327 1:0.71794873 2:18.717562 3:0.71794873 4:404.69308 #Q8DQY5
0.0005966676141740538978283647786327 1:0.012820513 2:0.69646788 3:0.012820513 4:3.6353936 #A3N0G0
-0.0005966676141740538978283647786327 1:0.12820514 2:9.558629 3:0.12820514 4:15.877379 #SRS019329.37970
0.0005966676141740538978283647786327 1:0.012820513 2:0.82299423 3:0.012820513 4:3.8401897 #C1DCC1
-0.0005966676141740538978283647786327 1:0.089743592 2:5.216692 3:0.089743592 4:8.8094454 #SRS050628.50334
0.0005966676141740538978283647786327 1:0.012820513 2:0.88685054 3:0.012820513 4:3.9399137 #Q8RII8
-0.0005966676141740538978283647786327 1:0.12820514 2:10.317537 3:0.12820514 4:17.751368 #SRS045049.11439
-0.0005966676141740538978283647786327 1:0.14102565 2:8.7871027 3:0.14102565 4:14.176617 #SRS014126.9994
0.0005966676141740538978283647786327 1:0.025641026 2:0.90059859 3:0.025641026 4:3.8586843 #C4ZBL1
-0.0005966676141740538978283647786327 1:0.14102565 2:14.914661 3:0.14102565 4:41.126476 #SRS017127.5957
0.0005966676141740538978283647786327 1:0.012820513 2:0.92244709 3:0.012820513 4:3.9931793 #Q8RGE3
-0.0005966676141740538978283647786327 1:0.14102565 2:11.911983 3:0.14102565 4:22.468466 #SRS017215.47583
-0.0005966676141740538978283647786327 1:0.15384616 2:12.6356 3:0.15384616 4:25.16514 #SRS017127.1574
-0.0005966676141740538978283647786327 1:0.16666667 2:14.350415 3:0.16666667 4:35.045135 #SRS013825.15298
0.0005966676141740538978283647786327 1:0.012820513 2:1.0080792 3:0.012820513 4:4.123807 #A6VNB3
0.0005966676141740538978283647786327 1:0.52564102 2:16.812506 3:0.52564102 4:65.205925 #P44407
0.0005966676141740538978283647786327 1:0.012820513 2:1.1185832 3:0.012820513 4:4.2895694 #Q93GW2
-0.0005966676141740538978283647786327 1:0.14102565 2:9.022891 3:0.14102565 4:14.665827 #SRS063272.38234
-0.0005966676141740538978283647786327 1:0.14102565 2:9.2707157 3:0.14102565 4:15.18697 #SRS017013.1641
0.0005966676141740538978283647786327 1:0.11538462 2:6.8932972 3:0.11538462 4:11.00485 #Q8RFE4
0.0005966676141740538978283647786327 1:0.012820513 2:1.2179308 3:0.012820513 4:4.440567 #A4W1V9
-0.0005966676141740538978283647786327 1:0.15384616 2:12.068878 3:0.15384616 4:22.908773 #SRS011310.11125
0.0005966676141740538978283647786327 1:0.87179488 2:18.118135 3:0.87179488 4:132.15695 #P44619
0.0005966676141740538978283647786327 1:0.089743592 2:9.5280371 3:0.089743592 4:16.076275 #Q8RHL0
0.0005966676141740538978283647786327 1:0.012820513 2:1.2832283 3:0.012820513 4:4.5372219 #Q8DS57
-0.0005966676141740538978283647786327 1:0.15384616 2:12.556135 3:0.15384616 4:24.826416 #SRS045049.54518
0.0005966676141740538978283647786327 1:0.012820513 2:1.3478329 3:0.012820513 4:4.6363878 #A9M0K2
-0.0005966676141740538978283647786327 1:0.15384616 2:13.985263 3:0.15384616 4:32.614342 #SRS045049.55203
-0.00058507902806870237810699109104462 1:0.07692308 2:4.2215319 3:0.07692308 4:7.6164184 #SRS013945.24206
0.0005966676141740538978283647786327 1:0.012820513 2:1.7818495 3:0.012820513 4:5.3260827 #A0RNU3
-0.0005966676141740538978283647786327 1:0.15384616 2:13.196496 3:0.15384616 4:27.801235 #SRS017013.46914
0.0005966676141740538978283647786327 1:0.012820513 2:1.8012266 3:0.012820513 4:5.3578744 #Q8REH1
-0.0005966676141740538978283647786327 1:0.15384616 2:12.831325 3:0.15384616 4:26.050783 #SRS019329.12849
-0.0005966676141740538978283647786327 1:0.16666667 2:11.836677 3:0.16666667 4:21.999771 #SRS018329.3214
0.0005966676141740538978283647786327 1:0.15384616 2:11.93587 3:0.15384616 4:22.427456 #Q5M1Y4
0.0005966676141740538978283647786327 1:0.012820513 2:1.8682115 3:0.012820513 4:5.4694557 #A8Z6M1
-0.0005966676141740538978283647786327 1:0.025641026 2:12.732274 3:0.025641026 4:327.80502 #SRS014126.261
0.0005966676141740538978283647786327 1:0.012820513 2:1.9267583 3:0.012820513 4:5.5709777 #A6LDG8
-0.0005966676141740538978283647786327 1:0.12820514 2:8.0606966 3:0.12820514 4:12.861872 #SRS022625.54863
0.0005966676141740538978283647786327 1:0.012820513 2:1.9400253 3:0.012820513 4:5.5932527 #C0QYF1
-0.0005966676141740538978283647786327 1:0.025641026 2:12.704173 3:0.025641026 4:266.05231 #SRS024377.735
-0.0005966676141740538978283647786327 1:0.11538462 2:3.7083533 3:0.11538462 4:6.9911761 #SRS015436.56399
0.0005966676141740538978283647786327 1:0.064102568 2:2.3201296 3:0.064102568 4:5.4391704 #Q8RF63
-0.0005966676141740538978283647786327 1:0.15384616 2:13.052907 3:0.15384616 4:27.058125 #SRS045049.53196
0.0005966676141740538978283647786327 1:0.025641026 2:2.2751067 3:0.025641026 4:5.5039287 #Q7VLL3
-0.0005966676141740538978283647786327 1:0.15384616 2:12.195583 3:0.15384616 4:23.350012 #SRS020858.4802
0.0005966676141740538978283647786327 1:0.03846154 2:3.2585235 3:0.03846154 4:6.5707955 #A3MZ05
-0.0005966676141740538978283647786327 1:0.11538462 2:2.9663007 3:0.11538462 4:6.1342988 #SRS023987.25197
0.0005966676141740538978283647786327 1:0.064102568 2:5.7992606 3:0.064102568 4:9.6110725 #Q8RI76
-0.0005966676141740538978283647786327 1:0.089743592 2:2.105701 3:0.089743592 4:5.191915 #SRS018149.77770
0.0005966676141740538978283647786327 1:0.012820513 2:1.9408407 3:0.012820513 4:5.5947671 #Q5FA19
-0.0005966676141740538978283647786327 1:0.15384616 2:10.632999 3:0.15384616 4:18.44561 #SRS023987.18569
0.0005966676141740538978283647786327 1:0.051282052 2:2.655308 3:0.051282052 4:5.8203673 #Q8REJ7
-0.0005966676141740538978283647786327 1:0.14102565 2:10.270598 3:0.14102565 4:17.54991 #SRS045049.51052
0.0005966676141740538978283647786327 1:0.012820513 2:2.0775344 3:0.012820513 4:5.8494601 #P0A2V4
-0.0005966676141740538978283647786327 1:0.12820514 2:9.2962704 3:0.12820514 4:15.296971 #SRS015040.11679
0.0005966676141740538978283647786327 1:0.11538462 2:6.725883 3:0.11538462 4:10.766818 #A3CNZ0
0.0005966676141740538978283647786327 1:0.012820513 2:2.1011238 3:0.012820513 4:5.8959513 #Q93GF1
-0.0005966676141740538978283647786327 1:0.07692308 2:0.69384629 3:0.07692308 4:3.5449939 #SRS017013.12428
0.0005966676141740538978283647786327 1:0.064102568 2:15.540706 3:0.064102568 4:66.851135 #Q5M2T7
-0.0005966676141740538978283647786327 1:0.1025641 2:2.4375534 3:0.1025641 4:5.5484281 #SRS022625.19393
0.0005966676141740538978283647786327 1:0.012820513 2:2.1818233 3:0.012820513 4:6.0528116 #Q7MVE5
-0.0005966676141740538978283647786327 1:0.14102565 2:10.454892 3:0.14102565 4:18.040443 #SRS017127.3033
0.0005966676141740538978283647786327 1:0.012820513 2:2.2244575 3:0.012820513 4:6.136652 #A6VL81
-0.0005966676141740538978283647786327 1:0.12820514 2:11.099829 3:0.12820514 4:19.964348 #SRS015374.16237
0.0005966676141740538978283647786327 1:0.012820513 2:2.2389817 3:0.012820513 4:6.1663966 #P03707
-0.0005966676141740538978283647786327 1:0.11538462 2:7.4466605 3:0.11538462 4:11.849746 #SRS018329.22930
0.0005966676141740538978283647786327 1:0.012820513 2:2.3143866 3:0.012820513 4:6.3184786 #B7VJT0
-0.0005966676141740538978283647786327 1:0.12820514 2:10.378783 3:0.12820514 4:17.923286 #SRS017127.36766
0.0005966676141740538978283647786327 1:0.025641026 2:3.2153358 3:0.025641026 4:6.7082386 #Q8RHB5
-0.0005966676141740538978283647786327 1:0.14102565 2:10.459111 3:0.14102565 4:18.051315 #SRS015154.1038
0.0005966676141740538978283647786327 1:0.025641026 2:3.4448943 3:0.025641026 4:7.0216012 #P57859
-0.0005966676141740538978283647786327 1:0.12820514 2:11.639086 3:0.12820514 4:21.68186 #SRS018149.5807
-0.0005966676141740538978283647786327 1:0.089743592 2:1.5004284 3:0.089743592 4:4.540462 #SRS019587.31532
0.0005966676141740538978283647786327 1:0.07692308 2:5.5463676 3:0.07692308 4:9.2503767 #Q9JXS9
0.0005966676141740538978283647786327 1:0.012820513 2:2.544312 3:0.012820513 4:6.8259792 #Q487R0
-0.0005966676141740538978283647786327 1:0.14102565 2:11.085563 3:0.14102565 4:19.808172 #SRS052874.18682
0.0005966676141740538978283647786327 1:0.012820513 2:2.5892591 3:0.012820513 4:6.9289269 #Q9JXR2
-0.0005966676141740538978283647786327 1:0.12820514 2:8.5337191 3:0.12820514 4:13.718505 #SRS011247.26333
0.0005966676141740538978283647786327 1:0.025641026 2:3.5110087 3:0.025641026 4:7.1094971 #A3MYN0
-0.0005966676141740538978283647786327 1:0.064102568 2:0.4307743 3:0.064102568 4:3.1021671 #SRS013945.55597
-0.0005966676141740538978283647786327 1:0.16666667 2:11.173855 3:0.16666667 4:19.918348 #SRS019329.12025
0.0005966676141740538978283647786327 1:0.03846154 2:4.2181301 3:0.03846154 4:7.7567458 #P57031
0.0005966676141740538978283647786327 1:0.012820513 2:2.6582122 3:0.012820513 4:7.0896082 #Q02TL3
-0.0005966676141740538978283647786327 1:0.07692308 2:1.8876157 3:0.07692308 4:4.9614944 #SRS013945.20221
0.0005966676141740538978283647786327 1:0.025641026 2:3.5509381 3:0.025641026 4:7.1593881 #B8F8G9
-0.0005966676141740538978283647786327 1:0.07692308 2:2.1008272 3:0.07692308 4:5.190248 #SRS018149.26033
0.0005966676141740538978283647786327 1:0.025641026 2:4.1473207 3:0.025641026 4:8.0009556 #Q9JYQ9
-0.0005966676141740538978283647786327 1:0.11538462 2:8.4917898 3:0.11538462 4:13.683559 #SRS013506.17445
0.0005966676141740538978283647786327 1:0.03846154 2:4.7496214 3:0.03846154 4:8.4485245 #A9M393
-0.0005966676141740538978283647786327 1:0.12820514 2:10.521081 3:0.12820514 4:18.306286 #SRS017810.2911
0.0005966676141740538978283647786327 1:0.012820513 2:2.7273529 3:0.012820513 4:7.2533555 #Q8RH03
0.0005966676141740538978283647786327 1:0.1025641 2:8.1426735 3:0.1025641 4:13.086381 #A8AZE2
-0.0005966676141740538978283647786327 1:0.089743592 2:2.3457863 3:0.089743592 4:5.4549599 #SRS019587.37119
0.0005966676141740538978283647786327 1:0.012820513 2:2.761951 3:0.012820513 4:7.3333983 #Q8DU24
-0.0005966676141740538978283647786327 1:0.1025641 2:6.7943783 3:0.1025641 4:10.890861 #SRS045049.49787
0.0005966676141740538978283647786327 1:0.03846154 2:4.8588367 3:0.03846154 4:8.5857182 #B2RHF5
-0.0005966676141740538978283647786327 1:0.14102565 2:13.743997 3:0.14102565 4:31.293303 #SRS011310.42952
0.0005966676141740538978283647786327 1:0.012820513 2:2.8168988 3:0.012820513 4:7.4733968 #Q9CJU5
-0.0005966676141740538978283647786327 1:0.089743592 2:1.5826933 3:0.089743592 4:4.6331615 #SRS013945.28373
0.0005966676141740538978283647786327 1:0.03846154 2:5.1452932 3:0.03846154 4:8.9705706 #P57036
-0.0005966676141740538978283647786327 1:0.089743592 2:6.3354802 3:0.089743592 4:10.262871 #SRS018329.16241
0.0005966676141740538978283647786327 1:0.012820513 2:2.8803203 3:0.012820513 4:7.628459 #Q7P097
-0.00059659410586801464582151766080642 1:0.064102568 2:1.2586564 3:0.064102568 4:4.2700992 #SRS013945.43672
0.0005966676141740538978283647786327 1:0.025641026 2:4.505456 3:0.025641026 4:8.5299873 #Q5F775
-0.0005966676141740538978283647786327 1:0.089743592 2:2.3979669 3:0.089743592 4:5.5096464 #SRS017215.24362
0.0005966676141740538978283647786327 1:0.03846154 2:5.2348766 3:0.03846154 4:9.0908689 #Q6NHT1
-0.0005966676141740538978283647786327 1:0.11538462 2:8.0897598 3:0.11538462 4:12.945851 #SRS024017.10232
0.0005966676141740538978283647786327 1:0.012820513 2:2.8879626 3:0.012820513 4:7.6468158 #A7ZCA8
-0.0005966676141740538978283647786327 1:0.089743592 2:2.5097392 3:0.089743592 4:5.6306744 #SRS013239.33457
0.0005966676141740538978283647786327 1:0.03846154 2:5.2910271 3:0.03846154 4:9.1663284 #Q9K0D9
-0.0005966676141740538978283647786327 1:0.1025641 2:5.4186301 3:0.1025641 4:9.0420179 #SRS013506.33379
0.0005966676141740538978283647786327 1:0.012820513 2:2.9315221 3:0.012820513 4:7.7640224 #Q3K368
-0.0005966676141740538978283647786327 1:0.089743592 2:2.6445024 3:0.089743592 4:5.7795868 #SRS011310.26101
0.0005966676141740538978283647786327 1:0.012820513 2:2.9630578 3:0.012820513 4:7.8482533 #Q8GJ01
-0.0005966676141740538978283647786327 1:0.1025641 2:5.5752378 3:0.1025641 4:9.2359724 #SRS018149.24520
0.0005966676141740538978283647786327 1:0.051282052 2:5.8199115 3:0.051282052 4:9.7218637 #Q8RG98
0.0005966676141740538978283647786327 1:0.16666667 2:16.461124 3:0.16666667 4:65.666512 #Q5M6H2
-0.0005966676141740538978283647786327 1:0.14102565 2:13.949989 3:0.14102565 4:32.705772 #SRS045049.50228
0.0005966676141740538978283647786327 1:0.012820513 2:2.9766316 3:0.012820513 4:7.8842373 #B8F773
-0.0005966676141740538978283647786327 1:0.12820514 2:10.742811 3:0.12820514 4:18.915682 #SRS023987.7975
0.0005966676141740538978283647786327 1:0.012820513 2:3.0323284 3:0.012820513 4:8.0364637 #Q7VNF0
-0.0005966676141740538978283647786327 1:0.14102565 2:11.912693 3:0.14102565 4:22.47028 #SRS050628.10770
0.0005966676141740538978283647786327 1:0.012820513 2:3.0974348 3:0.012820513 4:8.215498 #P57090
-0.0005966676141740538978283647786327 1:0.089743592 2:3.4305017 3:0.089743592 4:6.6788535 #SRS017810.22929
0.0005966676141740538978283647786327 1:0.012820513 2:3.126425 3:0.012820513 4:8.299367 #B0UUA1
-0.0005966676141740538978283647786327 1:0.1025641 2:6.2336888 3:0.1025641 4:10.090142 #SRS063272.28820
0.0005966676141740538978283647786327 1:0.012820513 2:3.2542026 3:0.012820513 4:8.6792288 #P44088
-0.00050139973005743402288680865552806 1:0.089743592 2:6.0990682 3:0.089743592 4:9.9315977 #SRS045049.50897
0.0005966676141740538978283647786327 1:0.012820513 2:3.3173156 3:0.012820513 4:8.8711319 #Q47WQ9
-0.0005966676141740538978283647786327 1:0.064102568 2:0.71720225 3:0.064102568 4:3.5820944 #SRS019587.36022
0.0005966676141740538978283647786327 1:0.012820513 2:3.3772721 3:0.012820513 4:9.0633211 #B7J7X9
-0.0005966676141740538978283647786327 1:0.1025641 2:6.3794117 3:0.1025641 4:10.299299 #SRS015436.41046
0.0005966676141740538978283647786327 1:0.025641026 2:4.8772588 3:0.025641026 4:9.1012392 #A7ZEJ3
0.0005966676141740538978283647786327 1:0.012820513 2:3.4930961 3:0.012820513 4:9.4411469 #Q8Y4F6
-0.0005966676141740538978283647786327 1:0.1025641 2:6.3897028 3:0.1025641 4:10.312833 #SRS013711.13221
0.0005966676141740538978283647786327 1:0.012820513 2:3.6625733 3:0.012820513 4:10.062278 #O68195
-0.0005966676141740538978283647786327 1:0.14102565 2:10.898659 3:0.14102565 4:19.265713 #SRS019329.39167
0.0005966676141740538978283647786327 1:0.012820513 2:3.6733036 3:0.012820513 4:10.10635 #Q8GLU7
-0.0005966676141740538978283647786327 1:0.1025641 2:6.4410987 3:0.1025641 4:10.384692 #SRS018149.29673
0.0005966676141740538978283647786327 1:0.051282052 2:5.8522568 3:0.051282052 4:9.7671165 #Q9JRP9
0.0005966676141740538978283647786327 1:0.012820513 2:5.7274523 3:0.012820513 4:63.965176 #P0ABU3
-0.00059658268961347094352931641481064 1:0.07692308 2:4.2008567 3:0.07692308 4:7.5924125 #SRS011310.44791
0.0005966676141740538978283647786327 1:0.012820513 2:3.7675214 3:0.012820513 4:10.502697 #Q07636
-0.0005966676141740538978283647786327 1:0.025641026 2:12.715297 3:0.025641026 4:284.21133 #SRS018329.2911
0.0005966676141740538978283647786327 1:0.012820513 2:3.8269808 3:0.012820513 4:10.762686 #Q9KDF2
-0.0005966676141740538978283647786327 1:0.11538462 2:4.6625628 3:0.11538462 4:8.1046743 #SRS017013.27315
0.0005966676141740538978283647786327 1:0.025641026 2:5.4574347 3:0.025641026 4:10.046415 #Q8DWI4
-0.0005966676141740538978283647786327 1:0.1025641 2:6.9632163 3:0.1025641 4:11.136506 #SRS056892.19897
0.0005966676141740538978283647786327 1:0.03846154 2:5.8422356 3:0.03846154 4:9.9350462 #P65532
0.0005966676141740538978283647786327 1:0.012820513 2:3.9145126 3:0.012820513 4:11.161218 #Q4JUK0
-0.0005966676141740538978283647786327 1:0.12820514 2:10.555561 3:0.12820514 4:18.394728 #SRS052874.16145
0.0005966676141740538978283647786327 1:0.012820513 2:3.9756796 3:0.012820513 4:11.458851 #Q6NF05
-0.0005966676141740538978283647786327 1:0.12820514 2:12.506553 3:0.12820514 4:24.97192 #SRS050628.4032
0.0005966676141740538978283647786327 1:0.03846154 2:5.9889255 3:0.03846154 4:10.156446 #P37094
0.0005966676141740538978283647786327 1:0.012820513 2:4.0065145 3:0.012820513 4:11.619555 #A3MY92
-0.0005966676141740538978283647786327 1:0.12820514 2:10.251184 3:0.12820514 4:17.579037 #SRS023987.27758
0.0005966676141740538978283647786327 1:0.025641026 2:5.6233253 3:0.025641026 4:10.354928 #Q7VKB3
-0.0005966676141740538978283647786327 1:0.07692308 2:1.3810648 3:0.07692308 4:4.410459 #SRS050029.33782
0.0005966676141740538978283647786327 1:0.012820513 2:4.0998106 3:0.012820513 4:12.126166 #Q9CDT4
-0.0005966676141740538978283647786327 1:0.089743592 2:3.5532625 3:0.089743592 4:6.8257589 #SRS015154.13288
0.0005966676141740538978283647786327 1:0.012820513 2:4.1090531 3:0.012820513 4:12.179562 #Q9CMQ8
-0.0005966676141740538978283647786327 1:0.14102565 2:12.047064 3:0.14102565 4:22.9585 #SRS013881.24393
0.0005966676141740538978283647786327 1:0.012820513 2:4.2070961 3:0.012820513 4:12.773404 #C4Z0Q6
-0.0005966676141740538978283647786327 1:0.064102568 2:1.033892 3:0.064102568 4:4.0024533 #SRS017127.19028
-0.0005966676141740538978283647786327 1:0.1025641 2:7.2217946 3:0.1025641 4:11.534608 #SRS056892.50813
0.0005966676141740538978283647786327 1:0.03846154 2:6.0819068 3:0.03846154 4:10.307666 #A7ZCV2
-0.0005966676141740538978283647786327 1:0.025641026 2:12.695768 3:0.025641026 4:254.65297 #SRS023837.1450
0.0005966676141740538978283647786327 1:0.012820513 2:4.2551465 3:0.012820513 4:13.082052 #A7GXU4
-0.0005966676141740538978283647786327 1:0.025641026 2:12.713124 3:0.025641026 4:280.52209 #SRS050029.5074
0.0005966676141740538978283647786327 1:0.025641026 2:5.8159308 3:0.025641026 4:10.714354 #B0BNR1
-0.0005966676141740538978283647786327 1:0.12820514 2:9.9870777 3:0.12820514 4:16.906656 #SRS018359.30141
0.0005966676141740538978283647786327 1:0.012820513 2:4.324892 3:0.012820513 4:13.56227 #A7ZDJ9
-0.0005966676141740538978283647786327 1:0.025641026 2:12.713604 3:0.025641026 4:281.24994 #SRS011247.596
0.0005966676141740538978283647786327 1:0.012820513 2:4.3390365 3:0.012820513 4:13.662135 #Q51567
-0.0005966676141740538978283647786327 1:0.12820514 2:9.8405418 3:0.12820514 4:16.548773 #SRS063272.39772
0.0005966676141740538978283647786327 1:0.025641026 2:5.8820453 3:0.025641026 4:10.837295 #Q9K141
0.0005966676141740538978283647786327 1:0.07692308 2:6.3189549 3:0.07692308 4:10.282297 #Q7DDR9
-4.9485905266669072410934404615546e-05 1:0.07692308 2:4.7163911 3:0.07692308 4:8.2132883 #SRS011247.20377
-0.0005966676141740538978283647786327 1:0.14102565 2:12.243887 3:0.14102565 4:23.689819 #SRS011310.17748
0.0005966676141740538978283647786327 1:0.03846154 2:6.4424682 3:0.03846154 4:10.872899 #P45336
0.0005966676141740538978283647786327 1:0.012820513 2:4.5027699 3:0.012820513 4:14.998852 #P44124
-0.0005966676141740538978283647786327 1:0.12820514 2:10.932871 3:0.12820514 4:19.459761 #SRS056892.20498
-0.0005966676141740538978283647786327 1:0.064102568 2:1.5244315 3:0.064102568 4:4.5745487 #SRS017127.28077
-0.0005966676141740538978283647786327 1:0.12820514 2:10.044003 3:0.12820514 4:17.045301 #SRS018149.28407
-0.0005966676141740538978283647786327 1:0.12820514 2:9.4963369 3:0.12820514 4:15.740706 #SRS015436.56010
-0.0005966676141740538978283647786327 1:0.56410259 2:18.682663 3:0.56410259 4:518.69128 #SRS063272.41172
0.0005966676141740538978283647786327 1:0.012820513 2:4.5103064 3:0.012820513 4:15.068733 #Q8RF94
-0.0005966676141740538978283647786327 1:0.025641026 2:12.671454 3:0.025641026 4:231.2739 #SRS017687.13651
-0.0005966676141740538978283647786327 1:0.089743592 2:17.572315 3:0.089743592 4:438.91525 #SRS019872.14759
0.0005966676141740538978283647786327 1:0.012820513 2:4.5590844 3:0.012820513 4:15.514273 #P69452
-0.0005966676141740538978283647786327 1:0.051282052 2:16.55188 3:0.051282052 4:453.00449 #SRS019391.414
0.0005966676141740538978283647786327 1:0.012820513 2:5.9062219 3:0.012820513 4:196.83769 #P0AES7
0.0005966676141740538978283647786327 1:0.064102568 2:6.672164 3:0.064102568 4:10.861814 #Q9JTZ6
-0.0005966676141740538978283647786327 1:0.064102568 2:1.6223148 3:0.064102568 4:4.677516 #SRS050628.54413
-0.0005966676141740538978283647786327 1:0.089743592 2:4.0232038 3:0.089743592 4:7.3708591 #SRS063272.31778
0.0005966676141740538978283647786327 1:0.012820513 2:5.9009266 3:0.012820513 4:183.65895 #P76027
-0.0005966676141740538978283647786327 1:0.025641026 2:12.749988 3:0.025641026 4:453.58728 #SRS018661.3040
-0.0005966676141740538978283647786327 1:0.07692308 2:4.034039 3:0.07692308 4:7.4015803 #SRS017810.11796
0.0005966676141740538978283647786327 1:0.43589744 2:18.40604 3:0.43589744 4:210.77487 #Q04JT1
0.0005966676141740538978283647786327 1:0.012820513 2:5.8976851 3:0.012820513 4:176.4343 #A5F3F1
-0.0005966676141740538978283647786327 1:0.064102568 2:1.6235847 3:0.064102568 4:4.6794157 #SRS013239.28585
0.0005966676141740538978283647786327 1:0.064102568 2:7.0086241 3:0.064102568 4:11.381465 #D1BMT0
0.0005966676141740538978283647786327 1:0.012820513 2:5.8760056 3:0.012820513 4:139.52623 #Q9L7Q5
-0.0005966676141740538978283647786327 1:0.12820514 2:10.518991 3:0.12820514 4:18.30147 #SRS015436.55940
0.0005966676141740538978283647786327 1:0.42307693 2:18.382132 3:0.42307693 4:204.99631 #Q8DNR5
-0.0005966676141740538978283647786327 1:0.07692308 2:4.0222969 3:0.07692308 4:7.3858309 #SRS022625.27201
0.0005966676141740538978283647786327 1:0.012820513 2:4.7044754 3:0.012820513 4:17.021719 #Q3A946
0.0005966676141740538978283647786327 1:0.025641026 2:6.531055 3:0.025641026 4:12.194359 #A7ZEK1
-0.0005966676141740538978283647786327 1:0.20512821 2:18.147684 3:0.20512821 4:216.55382 #SRS022145.2426
0.0005966676141740538978283647786327 1:0.012820513 2:5.7041178 3:0.012820513 4:59.451786 #Q8RET9
-0.0005966676141740538978283647786327 1:0.025641026 2:12.706349 3:0.025641026 4:269.6955 #SRS050007.1988
0.0005966676141740538978283647786327 1:0.012820513 2:5.6978397 3:0.012820513 4:58.320606 #A3N0Y3
-0.0005966676141740538978283647786327 1:0.089743592 2:3.9590156 3:0.089743592 4:7.295011 #SRS018149.78666
-0.0005966676141740538978283647786327 1:0.14102565 2:12.592567 3:0.14102565 4:25.147898 #SRS045049.50871
0.0005966676141740538978283647786327 1:0.012820513 2:5.693964 3:0.012820513 4:57.671967 #P43847
0.0005966676141740538978283647786327 1:0.012820513 2:5.6608152 3:0.012820513 4:52.822334 #Q8A753
-0.0005273255973890830089478853892615 1:0.064102568 2:1.3483738 3:0.064102568 4:4.373703 #SRS019587.16736
0.0005966676141740538978283647786327 1:0.012820513 2:5.6579008 3:0.012820513 4:52.412514 #P44541
0.0005966676141740538978283647786327 1:0.012820513 2:4.7117152 3:0.012820513 4:17.099354 #P81284
-3.6080723993644515934509087173865e-05 1:0.07692308 2:4.4574752 3:0.07692308 4:7.8999715 #SRS015745.37192
-0.0005966676141740538978283647786327 1:0.14102565 2:11.300693 3:0.14102565 4:20.482618 #SRS018149.12797
0.0005966676141740538978283647786327 1:0.012820513 2:5.6406698 3:0.012820513 4:50.146423 #A4SPN5
0.0005966676141740538978283647786327 1:0.012820513 2:5.6390433 3:0.012820513 4:49.975498 #Q8A414
-0.00050580734335891122666062358348427 1:0.064102568 2:1.1544122 3:0.064102568 4:4.1516032 #SRS050628.82686
0.0005966676141740538978283647786327 1:0.012820513 2:5.6066756 3:0.012820513 4:46.354031 #P44604
-0.0005966676141740538978283647786327 1:0.03846154 2:15.575754 3:0.03846154 4:409.31427 #SRS017687.17778
-0.0005966676141740538978283647786327 1:0.11538462 2:9.5112638 3:0.11538462 4:15.83825 #SRS045049.49375
-0.0005966676141740538978283647786327 1:0.089743592 2:17.399731 3:0.089743592 4:219.85567 #SRS023591.841
-0.0005966676141740538978283647786327 1:0.12820514 2:10.368619 3:0.12820514 4:17.891819 #SRS019329.37238
-0.0005966676141740538978283647786327 1:0.11538462 2:9.1457338 3:0.11538462 4:15.033932 #SRS011310.23578
0.0005966676141740538978283647786327 1:0.012820513 2:5.5813065 3:0.012820513 4:43.922577 #P57822
0.0005966676141740538978283647786327 1:0.012820513 2:5.5518417 3:0.012820513 4:41.404789 #Q332R7
-0.0005966676141740538978283647786327 1:0.089743592 2:17.403149 3:0.089743592 4:221.22049 #SRS017080.18494
0.0005966676141740538978283647786327 1:0.012820513 2:4.7267179 3:0.012820513 4:17.275135 #A7ZE20
-0.0005966676141740538978283647786327 1:0.1025641 2:3.9026387 3:0.1025641 4:7.2204604 #SRS017810.21140
0.0005966676141740538978283647786327 1:0.55128205 2:16.859703 3:0.55128205 4:66.208504 #P43872
-0.0005966676141740538978283647786327 1:0.12820514 2:10.110594 3:0.12820514 4:17.215492 #SRS017127.2095
0.0005966676141740538978283647786327 1:0.012820513 2:5.5493827 3:0.012820513 4:41.212337 #Q03EZ6
-0.0005966676141740538978283647786327 1:0.11538462 2:10.185232 3:0.11538462 4:17.496866 #SRS019221.9385
0.0005966676141740538978283647786327 1:0.012820513 2:5.5364761 3:0.012820513 4:40.234646 #A3N3B3
0.0005966676141740538978283647786327 1:0.012820513 2:5.5200748 3:0.012820513 4:39.047394 #P08973
-0.0005966676141740538978283647786327 1:0.12820514 2:11.577314 3:0.12820514 4:21.47995 #SRS011247.5261
0.0005966676141740538978283647786327 1:0.012820513 2:5.4834113 3:0.012820513 4:36.668411 #A6L686
-0.0005966676141740538978283647786327 1:0.14102565 2:11.297064 3:0.14102565 4:20.471972 #SRS020858.8492
0.0005966676141740538978283647786327 1:0.012820513 2:5.4565067 3:0.012820513 4:35.089592 #Q8E061
-0.0005966676141740538978283647786327 1:0.14102565 2:14.888283 3:0.14102565 4:40.840576 #SRS015895.7665
-0.0005966676141740538978283647786327 1:0.07692308 2:17.204556 3:0.07692308 4:228.60081 #SRS018359.1182
-0.0005966676141740538978283647786327 1:0.11538462 2:17.796799 3:0.11538462 4:282.98355 #SRS015436.56109
0.0005966676141740538978283647786327 1:0.012820513 2:5.8745518 3:0.012820513 4:137.61723 #P27624
0.0005966676141740538978283647786327 1:0.012820513 2:4.7504287 3:0.012820513 4:17.56448 #A4W1V8
0.0005966676141740538978283647786327 1:0.012820513 2:5.8690991 3:0.012820513 4:131.0623 #Q3JZK2
-0.0005966676141740538978283647786327 1:0.089743592 2:17.482077 3:0.089743592 4:262.26157 #SRS017080.8935
0.0005966676141740538978283647786327 1:0.012820513 2:5.8629818 3:0.012820513 4:125.13868 #Q3K326
-0.0005966676141740538978283647786327 1:0.14102565 2:3.1401494 3:0.14102565 4:6.3235474 #SRS013239.33710
0.0005966676141740538978283647786327 1:0.03846154 2:15.533496 3:0.03846154 4:290.72144 #Q04IK8
0.0005966676141740538978283647786327 1:0.051282052 2:7.0547805 3:0.051282052 4:11.598043 #Q9JYY3
0.0005966676141740538978283647786327 1:0.65384614 2:18.701441 3:0.65384614 4:397.9205 #Q04HV7
-0.0005966676141740538978283647786327 1:0.064102568 2:16.896662 3:0.064102568 4:227.01933 #SRS045049.55233
0.0005966676141740538978283647786327 1:0.57692307 2:18.673973 3:0.57692307 4:397.01248 #Q8DRF9
0.0005966676141740538978283647786327 1:0.012820513 2:5.8592901 3:0.012820513 4:121.63284 #Q59925
-0.0005966676141740538978283647786327 1:0.051282052 2:16.352947 3:0.051282052 4:201.79541 #SRS013881.1238
-0.0005966676141740538978283647786327 1:0.064102568 2:16.959934 3:0.064102568 4:263.31046 #SRS019872.14624
0.0005966676141740538978283647786327 1:0.012820513 2:5.8399091 3:0.012820513 4:105.5299 #A0KQX8
-0.0005966676141740538978283647786327 1:0.051282052 2:16.405848 3:0.051282052 4:223.87952 #SRS024377.8702
0.0005966676141740538978283647786327 1:0.70512819 2:17.572939 3:0.70512819 4:90.093452 #Q4QKQ9
0.0005966676141740538978283647786327 1:0.1025641 2:17.000975 3:0.1025641 4:112.44243 #P36432
0.0005966676141740538978283647786327 1:0.012820513 2:5.8390794 3:0.012820513 4:105.04554 #B2GGP0
-0.0005966676141740538978283647786327 1:0.16666667 2:13.058937 3:0.16666667 4:26.942831 #SRS022145.672
0.0005966676141740538978283647786327 1:0.089743592 2:15.799063 3:0.089743592 4:61.890968 #Q5LYV4
-0.0005966676141740538978283647786327 1:0.14102565 2:13.087197 3:0.14102565 4:27.441715 #SRS045049.7461
-0.0005966676141740538978283647786327 1:0.12820514 2:14.88371 3:0.12820514 4:41.517929 #SRS018329.9461
0.0005966676141740538978283647786327 1:0.03846154 2:7.040657 3:0.03846154 4:11.893476 #Q9K1A2
-0.0005966676141740538978283647786327 1:0.051282052 2:16.422203 3:0.051282052 4:232.48354 #SRS055118.2237
0.0005966676141740538978283647786327 1:0.03846154 2:14.786593 3:0.03846154 4:90.870522 #B8F892
-9.5350212926323396622763084451435e-07 1:0.11538462 2:13.153692 3:0.11538462 4:28.393169 #SRS042457.4105
0.0005966676141740538978283647786327 1:0.37179488 2:18.583155 3:0.37179488 4:387.10895 #Q03727
0.0005966676141740538978283647786327 1:0.012820513 2:5.8385439 3:0.012820513 4:104.72596 #Q65TH4
-0.0005966676141740538978283647786327 1:0.089743592 2:17.539871 3:0.089743592 4:327.17865 #SRS049283.525
-0.0005966676141740538978283647786327 1:0.051282052 2:16.42502 3:0.051282052 4:234.19185 #SRS017537.1116
0.0005966676141740538978283647786327 1:0.012820513 2:5.833797 3:0.012820513 4:101.75332 #Q8A8R5
0.0005966676141740538978283647786327 1:0.88461536 2:18.256704 3:0.88461536 4:151.99631 #P44505
-0.0005966676141740538978283647786327 1:0.03846154 2:15.459929 3:0.03846154 4:229.34625 #SRS020858.1044
0.0005966676141740538978283647786327 1:0.012820513 2:5.8271651 3:0.012820513 4:97.614098 #Q3K1W9
-0.0005966676141740538978283647786327 1:0.07692308 2:17.316225 3:0.07692308 4:316.04324 #SRS019872.14653
0.0005966676141740538978283647786327 1:0.75641024 2:18.715464 3:0.75641024 4:376.15427 #Q8CWR0
-0.0005966676141740538978283647786327 1:0.15384616 2:14.794399 3:0.15384616 4:39.350391 #SRS017127.27837
0.0005966676141740538978283647786327 1:0.012820513 2:5.8255873 3:0.012820513 4:96.685226 #Q3K1V5
-0.0005966676141740538978283647786327 1:0.03846154 2:15.56509 3:0.03846154 4:357.95108 #SRS024377.4334
-0.0005966676141740538978283647786327 1:0.11538462 2:1.5872289 3:0.11538462 4:4.6348557 #SRS018149.78036
0.0005966676141740538978283647786327 1:0.051282052 2:15.744739 3:0.051282052 4:97.272575 #Q9CM80
-0.0005966676141740538978283647786327 1:0.12820514 2:11.250403 3:0.12820514 4:20.444498 #SRS063272.35101
-0.00058609811688108614732839463101755 1:0.07692308 2:3.7690413 3:0.07692308 4:7.0886774 #SRS021473.25938
-0.0005966676141740538978283647786327 1:0.051282052 2:16.486618 3:0.051282052 4:276.79749 #SRS056892.32105
0.0005966676141740538978283647786327 1:0.03846154 2:7.1684151 3:0.03846154 4:12.132103 #A7ZAW7
-0.00016951711371637756542440911289304 1:0.064102568 2:1.6284826 3:0.064102568 4:4.6846924 #SRS013945.16037
-0.0005966676141740538978283647786327 1:0.15384616 2:12.02552 3:0.15384616 4:22.741291 #SRS023987.35507
0.0005966676141740538978283647786327 1:0.025641026 2:8.2038879 3:0.025641026 4:17.165712 #Q48QS8
0.0005966676141740538978283647786327 1:0.012820513 2:4.7730389 3:0.012820513 4:17.840389 #B9DSR1
-0.0005966676141740538978283647786327 1:0.051282052 2:16.504848 3:0.051282052 4:297.24045 #SRS021473.3911
0.0005966676141740538978283647786327 1:0.012820513 2:4.8491201 3:0.012820513 4:18.845749 #A6VL58
-0.0005966676141740538978283647786327 1:0.14102565 2:11.876556 3:0.14102565 4:22.336857 #SRS052874.14056
-0.0005966676141740538978283647786327 1:0.07692308 2:1.7147765 3:0.07692308 4:4.7700257 #SRS045262.29937
0.0005966676141740538978283647786327 1:0.012820513 2:5.4410267 3:0.012820513 4:34.282455 #Q5LGW6
-0.0005966676141740538978283647786327 1:0.14102565 2:11.767076 3:0.14102565 4:21.967793 #SRS019329.31994
0.0005966676141740538978283647786327 1:0.012820513 2:5.4311461 3:0.012820513 4:33.747921 #Q8A624
-0.0005966676141740538978283647786327 1:0.025641026 2:12.711582 3:0.025641026 4:277.69824 #SRS020858.2996
0.0005966676141740538978283647786327 1:0.012820513 2:5.4284444 3:0.012820513 4:33.612713 #A6KZH6
-0.0005966676141740538978283647786327 1:0.12820514 2:15.095448 3:0.12820514 4:44.011272 #SRS019329.2561
0.0005966676141740538978283647786327 1:0.012820513 2:5.4162259 3:0.012820513 4:33.037876 #A6L1L8
-0.0005966676141740538978283647786327 1:0.1025641 2:7.5484266 3:0.1025641 4:12.058009 #SRS019587.38416
0.0005966676141740538978283647786327 1:0.025641026 2:7.7643294 3:0.025641026 4:15.604343 #A7ZDK1
-0.0005966676141740538978283647786327 1:0.07692308 2:2.0207307 3:0.07692308 4:5.1044097 #SRS011310.5240
-0.0005966676141740538978283647786327 1:0.089743592 2:1.7407976 3:0.089743592 4:4.7968502 #SRS017127.34453
-0.0005966676141740538978283647786327 1:0.11538462 2:6.4943523 3:0.11538462 4:10.436571 #SRS050029.29856
0.0005966676141740538978283647786327 1:0.012820513 2:5.8203964 3:0.012820513 4:93.794724 #Q8FRZ3
-0.0005966676141740538978283647786327 1:0.03846154 2:15.461253 3:0.03846154 4:230.29414 #SRS015646.1078
0.0005966676141740538978283647786327 1:0.012820513 2:4.8942766 3:0.012820513 4:19.474375 #P0A2V6
0.0005966676141740538978283647786327 1:0.07692308 2:17.337206 3:0.07692308 4:360.51331 #P0C0C6
0.0005966676141740538978283647786327 1:0.012820513 2:4.9271083 3:0.012820513 4:19.97665 #Q99YS1
-0.0005966676141740538978283647786327 1:0.03846154 2:15.469583 3:0.03846154 4:235.06822 #SRS020858.2006
0.0005966676141740538978283647786327 1:0.12820514 2:7.6081066 3:0.12820514 4:12.086962 #P44401
-0.0005966676141740538978283647786327 1:0.11538462 2:9.3169231 3:0.11538462 4:15.40818 #SRS063287.23772
0.0005966676141740538978283647786327 1:0.48717949 2:17.642044 3:0.48717949 4:98.033394 #P44834
0.0005966676141740538978283647786327 1:0.012820513 2:4.9919229 3:0.012820513 4:21.037409 #Q65SB0
-0.0005966676141740538978283647786327 1:0.03846154 2:15.48093 3:0.03846154 4:242.77718 #SRS021473.2486
-0.0005966676141740538978283647786327 1:0.11538462 2:10.454365 3:0.11538462 4:18.225801 #SRS045049.9648
0.0005966676141740538978283647786327 1:0.012820513 2:5.033638 3:0.012820513 4:21.751602 #Q99ZI9
-0.0005966676141740538978283647786327 1:0.03846154 2:15.525246 3:0.03846154 4:280.36102 #SRS023591.131
0.0005966676141740538978283647786327 1:0.012820513 2:5.0577312 3:0.012820513 4:22.183472 #C1C727
-0.0005966676141740538978283647786327 1:0.07692308 2:2.0823023 3:0.07692308 4:5.17099 #SRS050029.35359
0.0005966676141740538978283647786327 1:0.83333331 2:18.719145 3:0.83333331 4:367.61139 #Q97PT4
-0.0005966676141740538978283647786327 1:0.07692308 2:2.8625038 3:0.07692308 4:6.0348563 #SRS050628.62942
0.0005966676141740538978283647786327 1:0.03846154 2:7.4480481 3:0.03846154 4:12.67651 #Q7MVQ5
-0.0005966676141740538978283647786327 1:0.1025641 2:7.4448266 3:0.1025641 4:11.882873 #SRS018661.16238
-0.0005966676141740538978283647786327 1:0.089743592 2:1.8754337 3:0.089743592 4:4.9433913 #SRS018149.35979
-0.0005966676141740538978283647786327 1:0.07692308 2:2.0857935 3:0.07692308 4:5.1750636 #SRS018149.68416
-0.0005966676141740538978283647786327 1:0.03846154 2:15.529786 3:0.03846154 4:285.83411 #SRS019221.2600
-0.0005966676141740538978283647786327 1:0.03846154 2:15.558101 3:0.03846154 4:338.46921 #SRS017537.251
0.0005966676141740538978283647786327 1:0.012820513 2:5.8188138 3:0.012820513 4:92.928276 #Q8E064
0.0005966676141740538978283647786327 1:0.012820513 2:5.1389852 3:0.012820513 4:23.851915 #Q8DUP4
0.0005966676141740538978283647786327 1:0.91025639 2:18.720884 3:0.91025639 4:366.97186 #P0A2U8
0.0005966676141740538978283647786327 1:0.03846154 2:7.5722208 3:0.03846154 4:12.918777 #A7ZC67
-0.0005966676141740538978283647786327 1:0.1025641 2:7.3579259 3:0.1025641 4:11.745128 #SRS011247.36415
-0.0005966676141740538978283647786327 1:0.15384616 2:9.7520266 3:0.15384616 4:16.214605 #SRS015745.1774
0.0005966676141740538978283647786327 1:0.52564102 2:16.68708 3:0.52564102 4:62.228386 #P45256
0.0005966676141740538978283647786327 1:0.11538462 2:7.7335258 3:0.11538462 4:12.333176 #Q8RG14
0.0005966676141740538978283647786327 1:0.73076922 2:18.704351 3:0.73076922 4:355.39816 #P35594
0.0005966676141740538978283647786327 1:0.012820513 2:5.1595116 3:0.012820513 4:24.332172 #Q8A525
-0.0005966676141740538978283647786327 1:0.14102565 2:10.730951 3:0.14102565 4:18.798935 #SRS017127.2601
-0.0005966676141740538978283647786327 1:0.11538462 2:9.1295404 3:0.11538462 4:14.997865 #SRS045262.42163
0.0005966676141740538978283647786327 1:0.012820513 2:5.199017 3:0.012820513 4:25.325388 #Q99XZ9
0.0005966676141740538978283647786327 1:0.58974361 2:18.663263 3:0.58974361 4:352.25763 #Q04JM8
-0.0005966676141740538978283647786327 1:0.089743592 2:4.5303273 3:0.089743592 4:7.9711742 #SRS018149.76590
-0.0005966676141740538978283647786327 1:0.025641026 2:12.675751 3:0.025641026 4:235.12283 #SRS055118.404
-0.0005966676141740538978283647786327 1:0.03846154 2:15.567532 3:0.03846154 4:366.24854 #SRS011310.8777
0.0005966676141740538978283647786327 1:0.025641026 2:12.678824 3:0.025641026 4:238.07257 #Q8DQ32
0.0005966676141740538978283647786327 1:0.012820513 2:5.8187551 3:0.012820513 4:92.899063 #Q831U2
0.0005966676141740538978283647786327 1:0.012820513 2:5.8172531 3:0.012820513 4:92.126205 #Q834E2
-0.0005966676141740538978283647786327 1:0.025641026 2:12.677072 3:0.025641026 4:236.28789 #SRS015895.7339
-0.0005966676141740538978283647786327 1:0.089743592 2:6.217885 3:0.089743592 4:10.096263 #SRS015436.1999
0.0005966676141740538978283647786327 1:0.012820513 2:5.206224 3:0.012820513 4:25.519352 #Q5F556
-0.0005966676141740538978283647786327 1:0.14102565 2:12.132071 3:0.14102565 4:23.25099 #SRS018149.74117
-0.0005966676141740538978283647786327 1:0.025641026 2:12.677884 3:0.025641026 4:237.17116 #SRS021473.245
0.0005966676141740538978283647786327 1:0.012820513 2:5.7956157 3:0.012820513 4:82.521194 #Q3K051
0.0005966676141740538978283647786327 1:0.66666669 2:18.684587 3:0.66666669 4:343.13583 #Q04ML5
-0.0005966676141740538978283647786327 1:0.025641026 2:12.683851 3:0.025641026 4:243.2437 #SRS045262.2425
0.0005966676141740538978283647786327 1:0.37179488 2:18.55764 3:0.37179488 4:329.12122 #Q04HZ0
-0.0005966676141740538978283647786327 1:0.07692308 2:2.1071784 3:0.07692308 4:5.1969385 #SRS011310.38248
0.0005966676141740538978283647786327 1:0.012820513 2:5.2672086 3:0.012820513 4:27.231436 #Q9CEW0
-0.0005966676141740538978283647786327 1:0.12820514 2:9.9823341 3:0.12820514 4:16.895121 #SRS019329.12564
-0.0005966676141740538978283647786327 1:0.025641026 2:12.680373 3:0.025641026 4:239.69223 #SRS015895.1259
-0.0005966676141740538978283647786327 1:0.025641026 2:12.681415 3:0.025641026 4:240.63242 #SRS023837.192
0.0005966676141740538978283647786327 1:0.012820513 2:5.278801 3:0.012820513 4:27.597805 #Q8A334
-0.0005966676141740538978283647786327 1:0.025641026 2:12.682302 3:0.025641026 4:241.53513 #SRS019391.210
0.0005966676141740538978283647786327 1:0.012820513 2:5.7809501 3:0.012820513 4:77.510429 #P57266
0.0005966676141740538978283647786327 1:0.012820513 2:5.3169603 3:0.012820513 4:28.90349 #P36724
-0.0005956488973149608873169924549984 1:0.07692308 2:4.6961031 3:0.07692308 4:8.19137 #SRS015154.6793
-0.0005966676141740538978283647786327 1:0.025641026 2:12.682506 3:0.025641026 4:241.65276 #SRS016196.497
0.0005966676141740538978283647786327 1:0.012820513 2:5.3188272 3:0.012820513 4:28.975899 #A1R783
0.0005966676141740538978283647786327 1:0.42307693 2:18.585415 3:0.42307693 4:328.73065 #Q97SE6
0.0005966676141740538978283647786327 1:0.012820513 2:5.3680677 3:0.012820513 4:30.878664 #Q8A9B8
0.0005966676141740538978283647786327 1:0.025641026 2:7.3457627 3:0.025641026 4:14.29639 #A6VLT3
0.0005966676141740538978283647786327 1:0.82051283 2:18.210356 3:0.82051283 4:145.19716 #Q4QM77
-9.1116186276191113435629631567281e-05 1:0.07692308 2:3.3835485 3:0.07692308 4:6.6345696 #SRS018149.27645
0.0005966676141740538978283647786327 1:0.53846157 2:18.63084 3:0.53846157 4:328.7424 #P0A3R1
-0.0005966676141740538978283647786327 1:0.07692308 2:1.3646222 3:0.07692308 4:4.3894162 #SRS050628.42086
0.0005966676141740538978283647786327 1:0.012820513 2:5.3429027 3:0.012820513 4:29.8591 #P0A0C2
0.0005966676141740538978283647786327 1:0.75641024 2:18.692068 3:0.75641024 4:327.04977 #Q04I74
-0.0005966676141740538978283647786327 1:0.089743592 2:5.2018456 3:0.089743592 4:8.7914772 #SRS050628.72483
-0.0005966676141740538978283647786327 1:0.07692308 2:2.1431105 3:0.07692308 4:5.2394161 #SRS015436.41710
-0.0005966676141740538978283647786327 1:0.025641026 2:12.68479 3:0.025641026 4:244.16649 #SRS052874.11393
-1.4835725782432669333349949114531e-06 1:0.1025641 2:8.705451 3:0.1025641 4:14.17284 #SRS022532.12894
-0.0005966676141740538978283647786327 1:0.025641026 2:12.686287 3:0.025641026 4:245.50797 #SRS020858.1043
-0.0005966676141740538978283647786327 1:0.025641026 2:12.688468 3:0.025641026 4:247.70741 #SRS016600.3402
-0.0005966676141740538978283647786327 1:0.12820514 2:11.751323 3:0.12820514 4:22.048443 #SRS023987.35235
0.0005966676141740538978283647786327 1:0.012820513 2:5.7766542 3:0.012820513 4:76.132164 #Q1QZX3
-0.0005966676141740538978283647786327 1:0.025641026 2:12.689584 3:0.025641026 4:248.70639 #SRS022532.10117
0.0005966676141740538978283647786327 1:0.012820513 2:5.7745891 3:0.012820513 4:75.498955 #A6KZM1
-0.0005966676141740538978283647786327 1:0.025641026 2:12.690269 3:0.025641026 4:249.36752 #SRS019391.662
-0.0005966676141740538978283647786327 1:0.17948718 2:14.23955 3:0.17948718 4:33.942043 #SRS045254.19897
0.0005966676141740538978283647786327 1:0.85897434 2:18.697227 3:0.85897434 4:322.67416 #P0CC08
-0.0005966676141740538978283647786327 1:0.025641026 2:12.692614 3:0.025641026 4:252.20766 #SRS024017.9283
-0.0005966676141740538978283647786327 1:0.089743592 2:5.3266993 3:0.089743592 4:8.9435282 #SRS013945.62021
0.0005966676141740538978283647786327 1:0.21794872 2:18.334459 3:0.21794872 4:310.14236 #Q97TC5
-0.0005966676141740538978283647786327 1:0.07692308 2:2.1945131 3:0.07692308 4:5.2984309 #SRS019587.18972
0.0005966676141740538978283647786327 1:0.03846154 2:7.6377206 3:0.03846154 4:13.051102 #P00552
-0.0005966676141740538978283647786327 1:0.025641026 2:12.691384 3:0.025641026 4:250.55203 #SRS015895.1340
0.0005966676141740538978283647786327 1:0.025641026 2:7.8162098 3:0.025641026 4:15.77074 #A7ZDQ0
0.0005966676141740538978283647786327 1:0.78205127 2:18.691429 3:0.78205127 4:319.20844 #Q97R83
-0.0005966676141740538978283647786327 1:0.025641026 2:12.693361 3:0.025641026 4:252.96031 #SRS011090.1257
0.0005966676141740538978283647786327 1:0.11538462 2:7.9024229 3:0.11538462 4:12.625799 #Q9JRV8
-0.0005966676141740538978283647786327 1:0.089743592 2:5.5968432 3:0.089743592 4:9.2839794 #SRS013945.24237
0.0005966676141740538978283647786327 1:0.025641026 2:12.581303 3:0.025641026 4:174.58978 #Q3K1M7
-0.0005966676141740538978283647786327 1:0.089743592 2:2.9158683 3:0.089743592 4:6.0895481 #SRS018149.25952
0.0005966676141740538978283647786327 1:0.064102568 2:7.9375844 3:0.064102568 4:12.983347 #Q8DSG6
-0.0005966676141740538978283647786327 1:0.025641026 2:12.692614 3:0.025641026 4:252.20766 #SRS022625.12717
0.0005966676141740538978283647786327 1:0.14102565 2:7.9412594 3:0.14102565 4:12.62483 #A3CMQ4
-0.0005966676141740538978283647786327 1:0.12820514 2:11.751515 3:0.12820514 4:22.048569 #SRS019329.38152
0.0005966676141740538978283647786327 1:0.025641026 2:11.919105 3:0.025641026 4:68.357933 #Q7VNH1
-0.0005966676141740538978283647786327 1:0.025641026 2:12.694539 3:0.025641026 4:253.53616 #SRS022625.12687
0.0005966676141740538978283647786327 1:0.064102568 2:7.9725728 3:0.064102568 4:13.048179 #Q8R635
0.0005966676141740538978283647786327 1:0.025641026 2:8.1285353 3:0.025641026 4:16.88307 #Q9JWE5
-0.0005966676141740538978283647786327 1:0.07692308 2:2.2333579 3:0.07692308 4:5.338809 #SRS013239.29646
0.0005966676141740538978283647786327 1:0.03846154 2:8.1021347 3:0.03846154 4:14.056361 #P57923
0.0005966676141740538978283647786327 1:0.025641026 2:11.897569 3:0.025641026 4:67.267731 #A6VKZ6
0.0005966676141740538978283647786327 1:0.025641026 2:8.2329855 3:0.025641026 4:17.275375 #B2RJ90
-2.7496770371726597659289836883545e-07 1:0.1025641 2:8.8219881 3:0.1025641 4:14.417035 #SRS018329.28669
0.0005966676141740538978283647786327 1:0.051282052 2:8.1734247 3:0.051282052 4:13.663072 #A7ZEH3
-0.0005966676141740538978283647786327 1:0.07692308 2:2.3653371 3:0.07692308 4:5.4797492 #SRS015745.26390
-0.0005966676141740538978283647786327 1:0.025641026 2:12.694539 3:0.025641026 4:253.53616 #SRS024017.9312
-9.3994235614194843186908201460028e-05 1:0.07692308 2:3.7463262 3:0.07692308 4:7.0635366 #SRS050029.40222
0.0005966676141740538978283647786327 1:0.025641026 2:11.514971 3:0.025641026 4:51.509399 #Q5XCJ9
-0.0005966676141740538978283647786327 1:0.089743592 2:4.8134527 3:0.089743592 4:8.3145971 #SRS011310.44741
0.0005966676141740538978283647786327 1:0.025641026 2:11.505961 3:0.025641026 4:51.214077 #Q9CKF7
-0.0005966676141740538978283647786327 1:0.14102565 2:15.033454 3:0.14102565 4:42.503754 #SRS013506.4245
0.0005966676141740538978283647786327 1:0.025641026 2:8.355154 3:0.025641026 4:17.761162 #Q5M575
-0.0005966676141740538978283647786327 1:0.11538462 2:10.951605 3:0.11538462 4:19.636351 #SRS017127.36276
0.0005966676141740538978283647786327 1:0.025641026 2:11.293439 3:0.025641026 4:45.463482 #P57849
-0.0005966676141740538978283647786327 1:0.089743592 2:6.1086922 3:0.089743592 4:9.9454012 #SRS013945.65386
0.0005966676141740538978283647786327 1:0.025641026 2:8.4857025 3:0.025641026 4:18.306282 #Q8DUP3
0.0005966676141740538978283647786327 1:0.03846154 2:8.4298553 3:0.03846154 4:14.840088 #P0DH59
-0.0005966676141740538978283647786327 1:0.07692308 2:2.3761444 3:0.07692308 4:5.4919605 #SRS013945.785
0.0005966676141740538978283647786327 1:0.17948718 2:8.4311934 3:0.17948718 4:13.404638 #A3CQ50
0.0005966676141740538978283647786327 1:0.025641026 2:8.508337 3:0.025641026 4:18.395868 #P44578
-0.0005966676141740538978283647786327 1:0.025641026 2:12.719085 3:0.025641026 4:291.52197 #SRS014126.4144
0.0005966676141740538978283647786327 1:0.025641026 2:11.244085 3:0.025641026 4:44.314526 #Q5LZL6
-3.7056867189917686022937459711102e-05 1:0.11538462 2:14.967781 3:0.11538462 4:43.367771 #SRS024017.15359
0.0005966676141740538978283647786327 1:0.025641026 2:8.5154619 3:0.025641026 4:18.428423 #P57462
-0.0005966676141740538978283647786327 1:0.12820514 2:8.811451 3:0.12820514 4:14.270584 #SRS045049.48574
0.0005966676141740538978283647786327 1:0.025641026 2:8.5163794 3:0.025641026 4:18.43214 #Q9K085
-0.0005966676141740538978283647786327 1:0.025641026 2:12.719893 3:0.025641026 4:293.43686 #SRS017687.784
0.0005966676141740538978283647786327 1:0.025641026 2:8.591629 3:0.025641026 4:18.76405 #A7ZC05
-0.0005966676141740538978283647786327 1:0.025641026 2:12.694539 3:0.025641026 4:253.53616 #SRS024017.9307
-0.0005966676141740538978283647786327 1:0.089743592 2:2.1080339 3:0.089743592 4:5.1945686 #SRS013945.14239
-0.00054676798793829028966229088837281 1:0.064102568 2:0.89715421 3:0.064102568 4:3.8308041 #SRS050628.59450
0.0005966676141740538978283647786327 1:0.03846154 2:8.5092573 3:0.03846154 4:15.039793 #B0UU42
-0.0005966676141740538978283647786327 1:0.14102565 2:11.189764 3:0.14102565 4:20.132828 #SRS063272.8515
-0.0005966676141740538978283647786327 1:0.1025641 2:7.6690474 3:0.1025641 4:12.264398 #SRS045049.24308
0.0005966676141740538978283647786327 1:0.025641026 2:9.0739117 3:0.025641026 4:21.043573 #A7ZE62
-0.0005966676141740538978283647786327 1:0.1025641 2:5.1264057 3:0.1025641 4:8.6814032 #SRS018359.29990
-0.0005966676141740538978283647786327 1:0.62820512 2:16.712517 3:0.62820512 4:62.09285 #SRS022532.20092
-0.0005966676141740538978283647786327 1:0.43589744 2:18.214638 3:0.43589744 4:163.30479 #SRS049283.1525
0.0005966676141740538978283647786327 1:0.16666667 2:8.4836445 3:0.16666667 4:13.526176 #Q8RED7
-0.0005966676141740538978283647786327 1:0.46153846 2:13.711802 3:0.46153846 4:29.178774 #SRS015154.5173
-0.0005966676141740538978283647786327 1:0.24358974 2:18.053165 3:0.24358974 4:166.45897 #SRS045049.55366
0.0005966676141740538978283647786327 1:0.23076923 2:8.4866161 3:0.23076923 4:13.448249 #A3CQ51
-0.0005966676141740538978283647786327 1:0.42307693 2:18.07476 3:0.42307693 4:140.79535 #SRS017810.48305
-0.0005966676141740538978283647786327 1:0.57692307 2:15.382077 3:0.57692307 4:41.692638 #SRS023987.4839
0.0005966676141740538978283647786327 1:0.03846154 2:8.5668755 3:0.03846154 4:15.182897 #A8Z6P6
-0.0005966676141740538978283647786327 1:0.21794872 2:17.996679 3:0.21794872 4:166.67821 #SRS050029.451
0.0005966676141740538978283647786327 1:0.11538462 2:8.63097 3:0.11538462 4:13.951865 #A8AY22
-0.0005966676141740538978283647786327 1:0.30769232 2:18.035524 3:0.30769232 4:146.97551 #SRS019221.8918
-0.0005966676141740538978283647786327 1:0.14102565 2:11.271914 3:0.14102565 4:20.392633 #SRS052874.23133
-0.0005966676141740538978283647786327 1:0.47435898 2:14.488233 3:0.47435898 4:34.072559 #SRS022532.15149
0.0005966676141740538978283647786327 1:0.051282052 2:8.6540813 3:0.051282052 4:14.724508 #Q9JV95
-0.0005966676141740538978283647786327 1:0.32051283 2:13.122197 3:0.32051283 4:26.439453 #SRS011247.10161
-0.0005966676141740538978283647786327 1:0.42307693 2:17.998693 3:0.42307693 4:130.85533 #SRS014686.25788
0.0005966676141740538978283647786327 1:0.03846154 2:8.6563644 3:0.03846154 4:15.412105 #Q9JXS7
-0.0005966676141740538978283647786327 1:0.35897437 2:18.027052 3:0.35897437 4:139.0706 #SRS022625.12637
0.0005966676141740538978283647786327 1:0.16666667 2:8.6413183 3:0.16666667 4:13.814144 #Q9HCC0
-0.0005966676141740538978283647786327 1:0.58974361 2:16.076981 3:0.58974361 4:50.388985 #SRS019329.32726
-0.0005966676141740538978283647786327 1:0.23076923 2:17.981695 3:0.23076923 4:158.02281 #SRS023837.3498
-0.0005966676141740538978283647786327 1:0.33333334 2:12.489318 3:0.33333334 4:23.766615 #SRS015154.10265
-0.0005966676141740538978283647786327 1:0.30769232 2:17.890707 3:0.30769232 4:127.78554 #SRS019221.2602
-0.0005966676141740538978283647786327 1:0.58974361 2:17.544352 3:0.58974361 4:90.206551 #SRS015374.435
0.0005966676141740538978283647786327 1:0.20512821 2:8.639308 3:0.20512821 4:13.758655 #Q8RGC8
-0.0005966676141740538978283647786327 1:0.25641027 2:9.8830309 3:0.25641027 4:16.303904 #SRS015745.4411
-0.0005966676141740538978283647786327 1:0.44871795 2:17.713917 3:0.44871795 4:103.74609 #SRS019221.10892
0.0005966676141740538978283647786327 1:0.17948718 2:8.7712708 3:0.17948718 4:14.05585 #A8AYF8
-0.0005966676141740538978283647786327 1:0.34615386 2:11.834297 3:0.34615386 4:21.510735 #SRS022721.8133
0.0005966676141740538978283647786327 1:0.16666667 2:8.7773056 3:0.16666667 4:14.092451 #Q8RE97
0.0005966676141740538978283647786327 1:0.20512821 2:8.7828808 3:0.20512821 4:14.039737 #Q8RFY0
0.0005966676141740538978283647786327 1:0.57692307 2:18.636438 3:0.57692307 4:314.03146 #Q97S25
0.0005966676141740538978283647786327 1:0.11538462 2:8.8279037 3:0.11538462 4:14.364756 #A8AXJ8
-0.0005966676141740538978283647786327 1:0.57692307 2:16.186333 3:0.57692307 4:52.23558 #SRS017080.40725
0.0005966676141740538978283647786327 1:0.26923078 2:18.434666 3:0.26923078 4:302.40674 #Q8DNK7
-0.0005966676141740538978283647786327 1:0.58974361 2:16.91865 3:0.58974361 4:67.449432 #SRS019329.12085
0.0005966676141740538978283647786327 1:0.025641026 2:12.556363 3:0.025641026 4:163.96307 #Q8DT53
-0.0005966676141740538978283647786327 1:0.58974361 2:16.429735 3:0.58974361 4:56.369637 #SRS014126.6368
0.0005966676141740538978283647786327 1:0.25641027 2:9.368247 3:0.25641027 4:15.175466 #Q8R6G5
0.0005966676141740538978283647786327 1:0.03846154 2:8.8899584 3:0.03846154 4:16.015909 #A8Z6J5
-0.0005966676141740538978283647786327 1:0.44871795 2:14.312201 3:0.44871795 4:32.891567 #SRS019221.10972
-0.0005966676141740538978283647786327 1:0.58974361 2:16.763498 3:0.58974361 4:63.470818 #SRS017687.40741
0.0005966676141740538978283647786327 1:0.1025641 2:8.9681625 3:0.1025641 4:14.726483 #A8AWF1
-0.0005966676141740538978283647786327 1:0.24358974 2:10.337169 3:0.24358974 4:17.411598 #SRS022532.4160
-0.0005966676141740538978283647786327 1:0.43589744 2:16.778631 3:0.43589744 4:65.088821 #SRS019391.9577
0.0005966676141740538978283647786327 1:0.32051283 2:8.9340525 3:0.32051283 4:14.24157 #Q8RH57
0.0005966676141740538978283647786327 1:0.17948718 2:8.9927874 3:0.17948718 4:14.501464 #Q9JZ80
-0.0005966676141740538978283647786327 1:0.58974361 2:16.698814 3:0.58974361 4:62.038376 #SRS024377.1131
0.0005966676141740538978283647786327 1:0.064102568 2:9.0237188 3:0.064102568 4:15.25427 #A7ZC35
0.0005966676141740538978283647786327 1:0.26923078 2:9.0089741 3:0.26923078 4:14.426574 #Q8RHI9
0.0005966676141740538978283647786327 1:0.6025641 2:18.634315 3:0.6025641 4:298.71872 #P63384
0.0005966676141740538978283647786327 1:0.24358974 2:9.0501661 3:0.24358974 4:14.528329 #Q8RHM2
0.0005966676141740538978283647786327 1:0.20512821 2:9.0631838 3:0.20512821 4:14.604688 #A3CRB9
0.0005966676141740538978283647786327 1:0.65384614 2:18.649157 3:0.65384614 4:296.33749 #P35597
0.0005966676141740538978283647786327 1:0.12820514 2:9.1280222 3:0.12820514 4:14.932976 #Q8REV1
0.0005966676141740538978283647786327 1:0.25641027 2:18.400074 3:0.25641027 4:290.02982 #P68897
0.0005966676141740538978283647786327 1:0.11538462 2:9.2351837 3:0.11538462 4:15.225314 #Q8REA7
0.0005966676141740538978283647786327 1:0.03846154 2:9.1620026 3:0.03846154 4:16.793484 #Q9JYZ9
0.0005966676141740538978283647786327 1:0.064102568 2:9.1741133 3:0.064102568 4:15.610014 #A3MYB6
0.0005966676141740538978283647786327 1:0.051282052 2:9.175909 3:0.051282052 4:15.964378 #Q8RGM4
0.0005966676141740538978283647786327 1:0.1923077 2:9.3032398 3:0.1923077 4:15.129096 #A8B000
0.0005966676141740538978283647786327 1:0.025641026 2:12.50631 3:0.025641026 4:145.78934 #C0M858
0.0005966676141740538978283647786327 1:0.025641026 2:12.436693 3:0.025641026 4:127.12464 #P57877
0.0005966676141740538978283647786327 1:0.16666667 2:9.335741 3:0.16666667 4:15.246311 #Q9AET6
0.0005966676141740538978283647786327 1:0.03846154 2:9.2254591 3:0.03846154 4:16.975222 #Q5F5M1
0.0005966676141740538978283647786327 1:0.025641026 2:9.283411 3:0.025641026 4:22.134418 #Q48VJ7
0.0005966676141740538978283647786327 1:0.15384616 2:9.3792458 3:0.15384616 4:15.378124 #Q8R605
0.0005966676141740538978283647786327 1:0.20512821 2:9.39221 3:0.20512821 4:15.291101 #Q8RFN7
0.0005966676141740538978283647786327 1:0.025641026 2:9.4823408 3:0.025641026 4:23.276268 #A7ZF21
0.0005966676141740538978283647786327 1:0.025641026 2:9.5657721 3:0.025641026 4:23.824903 #P57860
0.0005966676141740538978283647786327 1:0.089743592 2:9.4610271 3:0.089743592 4:15.915693 #Q8RG42
-0.0005966676141740538978283647786327 1:0.53846157 2:17.027483 3:0.53846157 4:70.846466 #SRS019391.3042
0.0005966676141740538978283647786327 1:0.1025641 2:9.4705477 3:0.1025641 4:15.830184 #A8AWT5
-0.0005966676141740538978283647786327 1:0.47435898 2:17.411266 3:0.47435898 4:85.538811 #SRS050628.166
0.0005966676141740538978283647786327 1:0.025641026 2:9.5000677 3:0.025641026 4:23.395498 #Q65VV2
-0.0005966676141740538978283647786327 1:0.42307693 2:17.727949 3:0.42307693 4:105.50507 #SRS015646.18069
-0.0005966676141740538978283647786327 1:0.53846157 2:15.560288 3:0.53846157 4:43.760494 #SRS024377.4648
-0.0005966287524020951436865001227261 1:0.089743592 2:16.800175 3:0.089743592 4:107.57485 #SRS014575.359
-0.0005966676141740538978283647786327 1:0.57692307 2:16.474796 3:0.57692307 4:57.271336 #SRS015895.29426
0.0005966676141740538978283647786327 1:0.17948718 2:9.4990244 3:0.17948718 4:15.572413 #A8AVZ4
-0.0005966676141740538978283647786327 1:0.51282054 2:16.972525 3:0.51282054 4:69.501305 #SRS022145.3581
-0.0005966676141740538978283647786327 1:0.33333334 2:16.763155 3:0.33333334 4:66.015152 #SRS050628.11623
-0.0005966676141740538978283647786327 1:0.23076923 2:16.768364 3:0.23076923 4:69.444252 #SRS017537.3838
0.0005966676141740538978283647786327 1:0.03846154 2:9.5508528 3:0.03846154 4:17.979713 #A3MYR6
0.0005966676141740538978283647786327 1:0.1025641 2:9.5410089 3:0.1025641 4:15.99061 #P10640
0.0005966676141740538978283647786327 1:0.17948718 2:9.5732069 3:0.17948718 4:15.737058 #P42361
0.0005966676141740538978283647786327 1:0.025641026 2:12.221142 3:0.025641026 4:91.774979 #B9DW16
0.0005966676141740538978283647786327 1:0.025641026 2:12.168509 3:0.025641026 4:86.196175 #P61521
0.0005966676141740538978283647786327 1:0.025641026 2:12.130218 3:0.025641026 4:82.635483 #Q8DU81
0.0005966676141740538978283647786327 1:0.1025641 2:9.5757551 3:0.1025641 4:16.076109 #A3CPJ9
0.0005966676141740538978283647786327 1:0.07692308 2:9.5974588 3:0.07692308 4:16.407713 #Q70WY6
-0.0005966676141740538978283647786327 1:0.46153846 2:17.1661 3:0.46153846 4:75.893089 #SRS017080.37010
-0.0005966676141740538978283647786327 1:0.25641027 2:13.368414 3:0.25641027 4:27.823822 #SRS022532.27230
-0.0005966676141740538978283647786327 1:0.16666667 2:18.001652 3:0.16666667 4:211.96027 #SRS013711.1004
-0.0005966676141740538978283647786327 1:0.30769232 2:13.953107 3:0.30769232 4:30.914284 #SRS015436.21222
-0.0005966676141740538978283647786327 1:0.29487181 2:12.249474 3:0.29487181 4:22.967617 #SRS020858.8612
-0.0005966676141740538978283647786327 1:0.32051283 2:14.230779 3:0.32051283 4:32.666126 #SRS014126.4448
-0.0005966676141740538978283647786327 1:0.14102565 2:17.653854 3:0.14102565 4:158.05995 #SRS013239.4337
0.0005966676141740538978283647786327 1:0.14102565 2:9.6299057 3:0.14102565 4:15.977869 #Q8RI93
-0.0005966676141740538978283647786327 1:0.23076923 2:17.692898 3:0.23076923 4:119.08408 #SRS019587.37704
-0.0005966676141740538978283647786327 1:0.20512821 2:10.135154 3:0.20512821 4:16.988146 #SRS019976.22039
0.0005966676141740538978283647786327 1:0.6025641 2:18.637995 3:0.6025641 4:302.45197 #P65239
0.0005966676141740538978283647786327 1:0.20512821 2:9.7661152 3:0.20512821 4:16.112009 #Q8RFS6
-0.0005966676141740538978283647786327 1:0.51282054 2:16.438961 3:0.51282054 4:56.92255 #SRS017127.35030
0.0005966676141740538978283647786327 1:0.051282052 2:9.695734 3:0.051282052 4:17.35709 #Q9K089
0.0005966676141740538978283647786327 1:0.24358974 2:18.375185 3:0.24358974 4:289.42831 #Q07296
-0.0005966676141740538978283647786327 1:0.46153846 2:16.464867 3:0.46153846 4:57.72604 #SRS011090.5884
-0.0005966676141740538978283647786327 1:0.15384616 2:13.173207 3:0.15384616 4:27.68219 #SRS023987.35419
-0.0005966676141740538978283647786327 1:0.37179488 2:17.417839 3:0.37179488 4:87.953339 #SRS022721.22689
-0.0005966676141740538978283647786327 1:0.20512821 2:7.4329267 3:0.20512821 4:11.705053 #SRS050029.15065
-0.0005966676141740538978283647786327 1:0.2820513 2:11.370198 3:0.2820513 4:20.173542 #SRS019976.15595
0.0005966676141740538978283647786327 1:0.03846154 2:9.8220997 3:0.03846154 4:18.866467 #A7ZEY4
-0.0005966676141740538978283647786327 1:0.5 2:15.279094 3:0.5 4:40.810978 #SRS019329.35699
-0.0005966676141740538978283647786327 1:0.24358974 2:16.743608 3:0.24358974 4:68.11525 #SRS016600.2195
0.0005966676141740538978283647786327 1:0.24358974 2:9.8179951 3:0.24358974 4:16.175419 #Q8RGA3
-0.0005966676141740538978283647786327 1:0.38461539 2:16.578882 3:0.38461539 4:60.830822 #SRS014126.5071
0.0005966676141740538978283647786327 1:0.14102565 2:9.8276987 3:0.14102565 4:16.44908 #Q8RFK2
-0.0005966676141740538978283647786327 1:0.33333334 2:16.570259 3:0.33333334 4:61.309147 #SRS020858.8342
0.0005966676141740538978283647786327 1:0.20512821 2:9.9174109 3:0.20512821 4:16.469379 #O86224
-0.0005966676141740538978283647786327 1:0.37179488 2:16.520639 3:0.37179488 4:59.658218 #SRS013825.2647
-0.0005966676141740538978283647786327 1:0.46153846 2:15.192922 3:0.46153846 4:40.061256 #SRS014126.12518
0.0005966676141740538978283647786327 1:0.17948718 2:9.9563427 3:0.17948718 4:16.617998 #A8AY29
-0.0005966676141740538978283647786327 1:0.1923077 2:6.8658996 3:0.1923077 4:10.87437 #SRS017810.24207
-0.0005966676141740538978283647786327 1:0.32051283 2:14.505489 3:0.32051283 4:34.611046 #SRS011247.57268
-0.0005966676141740538978283647786327 1:0.24358974 2:16.480745 3:0.24358974 4:61.484295 #SRS023354.1194
0.0005966676141740538978283647786327 1:0.20512821 2:9.958559 3:0.20512821 4:16.566334 #A3CPL6
-0.0005966676141740538978283647786327 1:0.15384616 2:14.214693 3:0.15384616 4:34.297928 #SRS023987.9895
0.0005966676141740538978283647786327 1:0.025641026 2:10.036772 3:0.025641026 4:27.332798 #Q89YW6
-0.0005966676141740538978283647786327 1:0.51282054 2:15.659289 3:0.51282054 4:45.02916 #SRS011090.8226
0.0005966676141740538978283647786327 1:0.42307693 2:18.557272 3:0.42307693 4:292.28616 #Q04JB0
0.0005966676141740538978283647786327 1:0.14102565 2:9.9985714 3:0.14102565 4:16.857731 #A8AVE1
-0.0005966676141740538978283647786327 1:0.5 2:15.642899 3:0.5 4:44.871292 #SRS017810.7528
0.0005966676141740538978283647786327 1:0.65384614 2:18.642975 3:0.65384614 4:290.78781 #P0A3R3
-0.0005966676141740538978283647786327 1:0.48717949 2:15.651309 3:0.48717949 4:45.013039 #SRS016039.10370
0.0005966676141740538978283647786327 1:0.51282054 2:18.585272 3:0.51282054 4:285.41763 #Q04IM6
-0.0005966676141740538978283647786327 1:0.53846157 2:16.337978 3:0.53846157 4:55.013237 #SRS019329.36550
0.0005966676141740538978283647786327 1:0.53846157 2:18.591867 3:0.53846157 4:282.65259 #Q04IQ3
-0.0005966676141740538978283647786327 1:0.35897437 2:15.772431 3:0.35897437 4:47.120911 #SRS011090.9362
-0.0005966676141740538978283647786327 1:0.3974359 2:16.026539 3:0.3974359 4:50.508904 #SRS023987.20765
-0.0005966676141740538978283647786327 1:0.12820514 2:16.333344 3:0.12820514 4:67.485382 #SRS023837.5815
-0.0005966676141740538978283647786327 1:0.14102565 2:16.398001 3:0.14102565 4:67.100029 #SRS017687.14347
0.0005966676141740538978283647786327 1:0.1923077 2:10.02947 3:0.1923077 4:16.760296 #Q8RHZ9
-0.0005966676141740538978283647786327 1:0.32051283 2:16.460913 3:0.32051283 4:59.049137 #SRS015154.30194
-0.0005966676141740538978283647786327 1:0.14102565 2:6.182292 3:0.14102565 4:9.9650755 #SRS011247.718
0.0005966676141740538978283647786327 1:0.03846154 2:9.9894056 3:0.03846154 4:19.429224 #A7ZC36
0.0005966676141740538978283647786327 1:0.1923077 2:10.0542 3:0.1923077 4:16.824347 #Q8RG99
0.0005966676141740538978283647786327 1:0.051282052 2:9.9992056 3:0.051282052 4:18.249332 #Q8RHK9
0.0005966676141740538978283647786327 1:0.03846154 2:10.028339 3:0.03846154 4:19.562948 #A8Z6G1
-0.0005966676141740538978283647786327 1:0.1923077 2:8.9182148 3:0.1923077 4:14.329844 #SRS063272.41430
0.0005966676141740538978283647786327 1:0.25641027 2:10.122539 3:0.25641027 4:16.869408 #A3CRB8
0.0005966676141740538978283647786327 1:0.62820512 2:18.625668 3:0.62820512 4:282.44409 #P18766
0.0005966676141740538978283647786327 1:0.11538462 2:10.076108 3:0.11538462 4:17.215439 #Q8R680
-0.0005966676141740538978283647786327 1:0.25641027 2:12.76727 3:0.25641027 4:25.080753 #SRS015436.6078
0.0005966676141740538978283647786327 1:0.21794872 2:10.140023 3:0.21794872 4:16.974405 #Q8RH47
-0.0005966676141740538978283647786327 1:0.20512821 2:8.6390123 3:0.20512821 4:13.758585 #SRS017013.49270
0.0005966676141740538978283647786327 1:0.025641026 2:10.251151 3:0.025641026 4:29.352482 #A7ZD35
0.0005966676141740538978283647786327 1:0.16666667 2:10.182208 3:0.16666667 4:17.209352 #A3CMR4
0.0005966676141740538978283647786327 1:0.1923077 2:10.233983 3:0.1923077 4:17.258451 #Q8RI80
0.0005966676141740538978283647786327 1:0.25641027 2:10.339917 3:0.25641027 4:17.399952 #Q8RHJ9
0.0005966676141740538978283647786327 1:0.14102565 2:10.343467 3:0.14102565 4:17.736506 #P42360
0.0005966676141740538978283647786327 1:0.1923077 2:10.487138 3:0.1923077 4:17.919039 #Q8RGE2
0.0005966676141740538978283647786327 1:0.07692308 2:10.101767 3:0.07692308 4:17.726717 #Q8R5N8
0.0005966676141740538978283647786327 1:0.089743592 2:10.200264 3:0.089743592 4:17.797504 #Q8RHD0
0.0005966676141740538978283647786327 1:0.07692308 2:10.166838 3:0.07692308 4:17.915203 #Q8RH44
0.0005966676141740538978283647786327 1:0.025641026 2:10.535501 3:0.025641026 4:32.507957 #C7N914
-0.0005966676141740538978283647786327 1:0.15384616 2:14.888354 3:0.15384616 4:40.288319 #SRS052874.1613
0.0005966676141740538978283647786327 1:0.16666667 2:10.468718 3:0.16666667 4:17.951056 #Q8RE31
0.0005966676141740538978283647786327 1:0.064102568 2:16.599379 3:0.064102568 4:143.54369 #B8F772
0.0005966676141740538978283647786327 1:0.03846154 2:10.176583 3:0.03846154 4:20.113468 #A7ZD16
-0.0005966676141740538978283647786327 1:0.07692308 2:16.932762 3:0.07692308 4:150.48933 #SRS056892.8372
0.0005966676141740538978283647786327 1:0.025641026 2:12.045057 3:0.025641026 4:76.060638 #Q8DYV1
-0.0005966676141740538978283647786327 1:0.12820514 2:12.483672 3:0.12820514 4:24.875122 #SRS017215.53636
-0.0005966676141740538978283647786327 1:0.14102565 2:13.611592 3:0.14102565 4:30.442432 #SRS063272.7425
-0.0005966676141740538978283647786327 1:0.12820514 2:17.609268 3:0.12820514 4:167.3257 #SRS011247.7300
0.0005966676141740538978283647786327 1:0.69230771 2:17.417164 3:0.69230771 4:82.779984 #P45031
0.0005966676141740538978283647786327 1:0.051282052 2:15.645661 3:0.051282052 4:90.016739 #B0US05
0.0005966676141740538978283647786327 1:0.064102568 2:16.555574 3:0.064102568 4:136.04552 #A7FPE0
0.0005966676141740538978283647786327 1:0.69230771 2:18.640144 3:0.69230771 4:280.198 #B2IPX4
0.0005966676141740538978283647786327 1:0.21794872 2:17.163237 3:0.21794872 4:84.535744 #Q5M1Y6
0.0005966676141740538978283647786327 1:0.46153846 2:18.307323 3:0.46153846 4:180.78207 #P67580
0.0005966676141740538978283647786327 1:0.064102568 2:16.162136 3:0.064102568 4:95.237366 #A6VMK8
-0.0005966676141740538978283647786327 1:0.17948718 2:17.639099 3:0.17948718 4:128.36342 #SRS013881.9564
-0.0005966676141740538978283647786327 1:0.17948718 2:7.5392098 3:0.17948718 4:11.890944 #SRS017215.24315
0.0005966676141740538978283647786327 1:0.064102568 2:16.185343 3:0.064102568 4:96.925606 #Q3K1K4
-0.0005966676141740538978283647786327 1:0.14102565 2:6.4109311 3:0.14102565 4:10.282063 #SRS018149.74548
-0.0005966676141740538978283647786327 1:0.32051283 2:17.285324 3:0.32051283 4:83.325172 #SRS013881.1850
-0.0005966676141740538978283647786327 1:0.2820513 2:14.06479 3:0.2820513 4:31.749146 #SRS018149.29563
-0.0005966676141740538978283647786327 1:0.025641026 2:12.754145 3:0.025641026 4:725.4043 #SRS019872.14764
-0.0005966676141740538978283647786327 1:0.26923078 2:13.597647 3:0.26923078 4:29.004618 #SRS014126.4902
-0.0005966676141740538978283647786327 1:0.12820514 2:17.557055 3:0.12820514 4:157.13535 #SRS011310.14287
-0.0005966676141740538978283647786327 1:0.17948718 2:8.4717836 3:0.17948718 4:13.484353 #SRS022145.16836
-0.0005966676141740538978283647786327 1:0.15384616 2:17.567688 3:0.15384616 4:132.29074 #SRS019221.483
0.0005966676141740538978283647786327 1:0.11538462 2:16.7589 3:0.11538462 4:86.946526 #Q8E290
0.0005966676141740538978283647786327 1:0.66666669 2:17.457323 3:0.66666669 4:84.812958 #Q4QJM0
-0.0005966676141740538978283647786327 1:0.41025642 2:17.247034 3:0.41025642 4:79.58503 #SRS015374.2450
0.0005966676141740538978283647786327 1:0.12820514 2:17.799854 3:0.12820514 4:222.69321 #Q8KY50
0.0005966676141740538978283647786327 1:0.11538462 2:16.899124 3:0.11538462 4:95.247917 #O66200
-0.0005966676141740538978283647786327 1:0.11538462 2:17.531891 3:0.11538462 4:173.39928 #SRS019221.6721
-0.0005966676141740538978283647786327 1:0.2820513 2:14.326344 3:0.2820513 4:33.496548 #SRS018329.9415
0.0005966676141740538978283647786327 1:0.76923078 2:18.652245 3:0.76923078 4:279.85471 #Q04L36
-0.0005966676141740538978283647786327 1:0.37179488 2:15.015555 3:0.37179488 4:38.650612 #SRS021473.7895
0.0005966676141740538978283647786327 1:0.11538462 2:17.062792 3:0.11538462 4:107.21114 #Q5M355
-0.0005966676141740538978283647786327 1:0.11538462 2:17.474577 3:0.11538462 4:161.27185 #SRS045049.55345
0.0005966676141740538978283647786327 1:0.14102565 2:17.251362 3:0.14102565 4:107.46446 #Q9CIW1
0.0005966676141740538978283647786327 1:0.66666669 2:17.452682 3:0.66666669 4:84.543007 #P44516
-0.0005966676141740538978283647786327 1:0.29487181 2:14.63998 3:0.29487181 4:35.796658 #SRS045262.3740
0.0005966676141740538978283647786327 1:0.24358974 2:17.229378 3:0.24358974 4:85.262817 #Q5M2S3
-0.0005966676141740538978283647786327 1:0.07692308 2:2.8651135 3:0.07692308 4:6.0376382 #SRS050628.68848
-0.0005966676141740538978283647786327 1:0.12820514 2:17.438938 3:0.12820514 4:137.06409 #SRS015040.1074
0.0005966676141740538978283647786327 1:0.34615386 2:17.35738 3:0.34615386 4:85.798264 #A8AXB9
-0.0005966676141740538978283647786327 1:0.14102565 2:17.42754 3:0.14102565 4:124.86601 #SRS014472.526
-0.0005966676141740538978283647786327 1:0.42307693 2:17.126055 3:0.42307693 4:75.074387 #SRS020858.22468
-0.0005966676141740538978283647786327 1:0.14102565 2:17.394121 3:0.14102565 4:121.27454 #SRS050628.2200
0.0005966676141740538978283647786327 1:0.33333334 2:17.432177 3:0.33333334 4:90.020134 #D2NQQ7
0.0005966676141740538978283647786327 1:0.15384616 2:17.812807 3:0.15384616 4:175.67343 #Q97R95
0.0005966676141740538978283647786327 1:0.61538464 2:17.451826 3:0.61538464 4:85.255699 #P43830
0.0005966676141740538978283647786327 1:0.66666669 2:18.627087 3:0.66666669 4:274.28427 #Q04JW0
-0.0005966676141740538978283647786327 1:0.025641026 2:12.749234 3:0.025641026 4:439.95834 #SRS050007.1728
0.0005966676141740538978283647786327 1:0.1025641 2:10.427217 3:0.1025641 4:18.270407 #B8F3B8
-0.0005966676141740538978283647786327 1:0.1025641 2:17.331419 3:0.1025641 4:157.32349 #SRS011144.2956
0.0005966676141740538978283647786327 1:0.1923077 2:10.557348 3:0.1923077 4:18.105181 #Q9K0X1
0.0005966676141740538978283647786327 1:0.025641026 2:12.072713 3:0.025641026 4:78.087227 #Q8FQ20
0.0005966676141740538978283647786327 1:0.79487181 2:18.184866 3:0.79487181 4:141.52116 #Q4QNM1
0.0005966676141740538978283647786327 1:0.025641026 2:10.57085 3:0.025641026 4:32.948109 #P57906
0.0005966676141740538978283647786327 1:0.025641026 2:10.712186 3:0.025641026 4:34.801006 #Q836G5
0.0005966676141740538978283647786327 1:0.025641026 2:11.926702 3:0.025641026 4:68.787743 #Q99YM5
0.0005966676141740538978283647786327 1:0.025641026 2:10.852603 3:0.025641026 4:36.926876 #Q8REG7
0.0005966676141740538978283647786327 1:0.03846154 2:10.624225 3:0.03846154 4:21.836248 #Q5MK06
-0.0005966676141740538978283647786327 1:0.48717949 2:16.363361 3:0.48717949 4:55.738918 #SRS018329.9448
-0.0005966676141740538978283647786327 1:0.17948718 2:9.4507513 3:0.17948718 4:15.465124 #SRS013506.16386
0.0005966676141740538978283647786327 1:0.07692308 2:10.587631 3:0.07692308 4:19.115505 #A3N1A1
-0.0005966676141740538978283647786327 1:0.38461539 2:16.302071 3:0.38461539 4:55.283314 #SRS011090.4006
-0.0005966676141740538978283647786327 1:0.24358974 2:10.992033 3:0.24358974 4:19.143423 #SRS052874.11342
-0.0005966676141740538978283647786327 1:0.15384616 2:17.392303 3:0.15384616 4:113.57386 #SRS017080.24874
0.0005966676141740538978283647786327 1:0.07692308 2:10.590825 3:0.07692308 4:19.126553 #Q9K081
-0.0005966676141740538978283647786327 1:0.14102565 2:7.0314946 3:0.14102565 4:11.165642 #SRS015646.15494
-0.0005966676141740538978283647786327 1:0.2820513 2:12.249505 3:0.2820513 4:22.99542 #SRS014126.12218
-0.0005966676141740538978283647786327 1:0.20512821 2:16.471447 3:0.20512821 4:63.129757 #SRS018149.7063
0.0005966676141740538978283647786327 1:0.07692308 2:10.620187 3:0.07692308 4:19.218096 #Q8RGH4
-0.0005966676141740538978283647786327 1:0.012820513 2:5.9184346 3:0.012820513 4:238.9489 #SRS015274.9713
-0.0005966676141740538978283647786327 1:0.23076923 2:16.424561 3:0.23076923 4:60.72776 #SRS016039.31823
0.0005966676141740538978283647786327 1:0.051282052 2:10.721165 3:0.051282052 4:20.603151 #P77866
-0.0005966676141740538978283647786327 1:0.21794872 2:16.400766 3:0.21794872 4:60.764622 #SRS017080.38279
0.0005966676141740538978283647786327 1:0.1923077 2:10.719301 3:0.1923077 4:18.538633 #A8AU71
0.0005966676141740538978283647786327 1:0.23076923 2:10.74046 3:0.23076923 4:18.493088 #A8AX76
-0.0005966676141740538978283647786327 1:0.16666667 2:8.5604944 3:0.16666667 4:13.66681 #SRS019329.12123
-0.0005966676141740538978283647786327 1:0.23076923 2:14.155909 3:0.23076923 4:32.715466 #SRS017810.15245
-0.0005966676141740538978283647786327 1:0.26923078 2:13.713907 3:0.26923078 4:29.663435 #SRS015040.22866
0.0005966676141740538978283647786327 1:0.24358974 2:10.780342 3:0.24358974 4:18.574718 #A3CNU0
-0.0005966676141740538978283647786327 1:0.21794872 2:13.173265 3:0.21794872 4:27.060202 #SRS045262.21807
-0.0005966676141740538978283647786327 1:0.23076923 2:14.148846 3:0.23076923 4:32.6637 #SRS045262.13310
0.0005966676141740538978283647786327 1:0.25641027 2:10.823874 3:0.25641027 4:18.671043 #Q8RDZ8
-0.0005966676141740538978283647786327 1:0.12820514 2:9.2038937 3:0.12820514 4:15.101378 #SRS023987.20128
-0.0005966676141740538978283647786327 1:0.25641027 2:14.127295 3:0.25641027 4:32.308952 #SRS016503.5311
0.0005966676141740538978283647786327 1:0.12820514 2:10.839808 3:0.12820514 4:19.189739 #A3CP33
-0.0005966676141740538978283647786327 1:0.20512821 2:14.065857 3:0.20512821 4:32.376457 #SRS013711.45401
0.0005966676141740538978283647786327 1:0.29487181 2:10.896443 3:0.29487181 4:18.819738 #Q8RH45
-0.0005966676141740538978283647786327 1:0.24358974 2:14.06335 3:0.24358974 4:31.979921 #SRS013825.15757
0.0005966676141740538978283647786327 1:0.1923077 2:10.900957 3:0.1923077 4:19.024242 #A3CM59
0.0005966676141740538978283647786327 1:0.03846154 2:10.925368 3:0.03846154 4:23.123024 #A7ZE39
0.0005966676141740538978283647786327 1:0.30769232 2:10.960646 3:0.30769232 4:18.9604 #A3CJX7
0.0005966676141740538978283647786327 1:0.88461536 2:18.185005 3:0.88461536 4:140.94112 #P43835
0.0005966676141740538978283647786327 1:0.70512819 2:18.168165 3:0.70512819 4:140.71896 #P44551
0.0005966676141740538978283647786327 1:0.1923077 2:10.92775 3:0.1923077 4:19.09716 #Q8RE57
0.0005966676141740538978283647786327 1:0.64102566 2:18.143034 3:0.64102566 4:139.33913 #P43803
0.0005966676141740538978283647786327 1:0.70512819 2:18.145332 3:0.70512819 4:137.57381 #P45125
0.0005966676141740538978283647786327 1:0.03846154 2:14.438713 3:0.03846154 4:71.583084 #Q65UE1
-0.0005966676141740538978283647786327 1:0.30769232 2:17.086586 3:0.30769232 4:76.101715 #SRS024017.7021
-0.0005966676141740538978283647786327 1:0.32051283 2:15.561187 3:0.32051283 4:44.74213 #SRS019587.1315
-0.0005966676141740538978283647786327 1:0.07692308 2:17.172394 3:0.07692308 4:214.3354 #SRS018329.3720
-0.0005966676141740538978283647786327 1:0.25641027 2:11.83115 3:0.25641027 4:21.641523 #SRS023837.6563
-0.0005966676141740538978283647786327 1:0.14102565 2:17.340158 3:0.14102565 4:115.5926 #SRS012281.3636
-0.0005966676141740538978283647786327 1:0.17948718 2:9.2815952 3:0.17948718 4:15.1101 #SRS022625.12352
-0.0005966676141740538978283647786327 1:0.20512821 2:17.284935 3:0.20512821 4:92.568703 #SRS019976.2106
-0.0005966676141740538978283647786327 1:0.25641027 2:13.666351 3:0.25641027 4:29.449251 #SRS016600.1533
0.0005966676141740538978283647786327 1:0.12820514 2:11.017209 3:0.12820514 4:19.715143 #Q7VNG7
-0.0005966676141740538978283647786327 1:0.14102565 2:7.2423429 3:0.14102565 4:11.480303 #SRS017127.36436
-0.0005966676141740538978283647786327 1:0.14102565 2:7.6186538 3:0.14102565 4:12.076243 #SRS063272.3595
-0.0005966676141740538978283647786327 1:0.24358974 2:12.462263 3:0.24358974 4:23.880913 #SRS045262.46760
0.0005966676141740538978283647786327 1:0.29487181 2:11.034009 3:0.29487181 4:19.181742 #Q8RHB4
-0.0005966676141740538978283647786327 1:0.24358974 2:11.37203 3:0.24358974 4:20.260818 #SRS052874.12640
-3.2357461901212376115255509034796e-05 1:0.11538462 2:12.047085 3:0.11538462 4:23.272192 #SRS011310.44309
0.0005966676141740538978283647786327 1:0.089743592 2:11.068526 3:0.089743592 4:20.36817 #Q9JXQ1
-0.0005966676141740538978283647786327 1:0.24358974 2:10.616163 3:0.24358974 4:18.141333 #SRS052874.10794
-0.0005966676141740538978283647786327 1:0.16666667 2:13.367009 3:0.16666667 4:28.557201 #SRS018329.22277
-0.0005966676141740538978283647786327 1:0.24358974 2:14.006069 3:0.24358974 4:31.617853 #SRS050029.44337
-0.0005966676141740538978283647786327 1:0.30769232 2:16.087572 3:0.30769232 4:52.396015 #SRS015374.3183
0.0005966676141740538978283647786327 1:0.21794872 2:11.064435 3:0.21794872 4:19.41012 #Q8REV3
-0.0005966676141740538978283647786327 1:0.29487181 2:16.07358 3:0.29487181 4:52.358246 #SRS017127.6561
0.0005966676141740538978283647786327 1:0.1025641 2:11.083447 3:0.1025641 4:20.203545 #Q5F7J4
-0.0005966676141740538978283647786327 1:0.24358974 2:16.011812 3:0.24358974 4:52.347553 #SRS013945.38
0.0005966676141740538978283647786327 1:0.1923077 2:11.077476 3:0.1923077 4:19.524584 #A8AX96
-0.0005966676141740538978283647786327 1:0.26923078 2:15.953332 3:0.26923078 4:50.775028 #SRS013881.7895
0.0005966676141740538978283647786327 1:0.15384616 2:11.149586 3:0.15384616 4:19.914427 #Q9JVQ5
-0.0005966676141740538978283647786327 1:0.16666667 2:15.888633 3:0.16666667 4:53.235222 #SRS050029.14332
0.0005966676141740538978283647786327 1:0.051282052 2:11.311743 3:0.051282052 4:22.780453 #Q8RHN5
-0.0005966676141740538978283647786327 1:0.33333334 2:15.77948 3:0.33333334 4:47.436363 #SRS022625.11677
0.0005966676141740538978283647786327 1:0.15384616 2:11.324305 3:0.15384616 4:20.460808 #A3MZ70
-0.0005966676141740538978283647786327 1:0.20512821 2:15.845135 3:0.20512821 4:50.736752 #SRS022145.2578
0.0005966676141740538978283647786327 1:0.03846154 2:11.447381 3:0.03846154 4:25.800852 #Q8R5Z6
-0.0005966676141740538978283647786327 1:0.20512821 2:15.844734 3:0.20512821 4:50.7318 #SRS016503.7687
0.0005966676141740538978283647786327 1:0.11538462 2:11.391192 3:0.11538462 4:21.027561 #A8AWE1
-0.0005966676141740538978283647786327 1:0.23076923 2:15.783514 3:0.23076923 4:49.079258 #SRS018359.5871
0.0005966676141740538978283647786327 1:0.24358974 2:11.36416 3:0.24358974 4:20.235085 #P57000
-0.0005966676141740538978283647786327 1:0.2820513 2:15.724111 3:0.2820513 4:47.2281 #SRS013945.8454
0.0005966676141740538978283647786327 1:0.20512821 2:11.459054 3:0.20512821 4:20.639769 #Q5F5F5
-0.0005966676141740538978283647786327 1:0.2820513 2:15.647458 3:0.2820513 4:46.219864 #SRS015895.3500
0.0005966676141740538978283647786327 1:0.14102565 2:11.545782 3:0.14102565 4:21.250439 #Q8RDQ2
0.0005966676141740538978283647786327 1:0.21794872 2:17.535686 3:0.21794872 4:107.49149 #Q5M6I1
0.0005966676141740538978283647786327 1:0.30769232 2:11.583776 3:0.30769232 4:20.794132 #Q8RIK9
0.0005966676141740538978283647786327 1:0.71794873 2:18.635471 3:0.71794873 4:272.6814 #Q04HT8
-0.0005966676141740538978283647786327 1:0.11538462 2:6.293242 3:0.11538462 4:10.148476 #SRS050628.82707
0.0005966676141740538978283647786327 1:0.1923077 2:11.512005 3:0.1923077 4:20.857351 #P45211
-0.0005966676141740538978283647786327 1:0.17948718 2:9.0742702 3:0.17948718 4:14.672874 #SRS063287.13931
-0.0005966676141740538978283647786327 1:0.17948718 2:9.2346897 3:0.17948718 4:15.006379 #SRS050628.2622
0.0005966676141740538978283647786327 1:0.62820512 2:18.61211 3:0.62820512 4:272.0831 #Q97QL2
0.0005966676141740538978283647786327 1:0.82051283 2:18.636848 3:0.82051283 4:265.40881 #Q04JQ8
-0.0005966676141740538978283647786327 1:0.17948718 2:15.818295 3:0.17948718 4:51.313972 #SRS024377.4073
0.0005966676141740538978283647786327 1:0.15384616 2:11.551996 3:0.15384616 4:21.167606 #A8AUW9
-0.0005966676141740538978283647786327 1:0.1923077 2:15.802517 3:0.1923077 4:50.543926 #SRS043646.9183
0.0005966676141740538978283647786327 1:0.21794872 2:11.570672 3:0.21794872 4:20.941656 #Q8REE1
-0.0005966676141740538978283647786327 1:0.16666667 2:15.744447 3:0.16666667 4:50.752216 #SRS011090.6586
0.0005966676141740538978283647786327 1:0.24358974 2:11.606483 3:0.24358974 4:20.98122 #Q8RGR2
0.0005966676141740538978283647786327 1:0.064102568 2:11.780414 3:0.064102568 4:23.759123 #A7ZAZ7
-0.0005966676141740538978283647786327 1:0.2820513 2:15.589048 3:0.2820513 4:45.467533 #SRS018359.9095
0.0005966676141740538978283647786327 1:0.089743592 2:11.790447 3:0.089743592 4:22.823048 #Q8NZ00
-0.0005966676141740538978283647786327 1:0.33333334 2:15.116732 3:0.33333334 4:39.792297 #SRS056892.48067
0.0005966676141740538978283647786327 1:0.03846154 2:12.065098 3:0.03846154 4:29.800348 #Q9A1K1
0.0005966676141740538978283647786327 1:0.29487181 2:17.641863 3:0.29487181 4:105.79866 #A8AVM1
0.0005966676141740538978283647786327 1:0.66666669 2:17.587139 3:0.66666669 4:91.266197 #P43734
-0.0005966676141740538978283647786327 1:0.12820514 2:5.4940891 3:0.12820514 4:9.108758 #SRS019587.26463
0.0005966676141740538978283647786327 1:0.26923078 2:12.085369 3:0.26923078 4:22.443562 #Q8RIE2
-0.0005966676141740538978283647786327 1:0.14102565 2:15.663142 3:0.14102565 4:51.125278 #SRS013945.25782
0.0005966676141740538978283647786327 1:0.20512821 2:11.704434 3:0.20512821 4:21.398653 #A8AVT9
0.0005966676141740538978283647786327 1:0.2820513 2:11.823204 3:0.2820513 4:21.562387 #Q8RH11
0.0005966676141740538978283647786327 1:0.23076923 2:11.87006 3:0.23076923 4:21.837133 #P0A0U7
0.0005966676141740538978283647786327 1:0.15384616 2:11.821111 3:0.15384616 4:22.034512 #P43848
0.0005966676141740538978283647786327 1:0.37179488 2:11.922391 3:0.37179488 4:21.7701 #P65234
0.0005966676141740538978283647786327 1:0.23076923 2:11.994952 3:0.23076923 4:22.239132 #Q9JYJ3
0.0005966676141740538978283647786327 1:0.051282052 2:12.022453 3:0.051282052 4:26.09981 #A6VQC3
0.0005966676141740538978283647786327 1:0.24358974 2:12.038302 3:0.24358974 4:22.346104 #Q5F5D6
0.0005966676141740538978283647786327 1:0.29487181 2:12.087857 3:0.29487181 4:22.396927 #Q8RG52
0.0005966676141740538978283647786327 1:0.3974359 2:18.500671 3:0.3974359 4:258.20694 #Q04IK0
0.0005966676141740538978283647786327 1:0.29487181 2:12.13688 3:0.29487181 4:22.566822 #A8AUN6
0.0005966676141740538978283647786327 1:0.03846154 2:12.387946 3:0.03846154 4:32.432346 #A4VYM0
-0.0005966676141740538978283647786327 1:0.29487181 2:17.084995 3:0.29487181 4:76.50808 #SRS015040.1234
0.0005966676141740538978283647786327 1:0.1923077 2:12.110161 3:0.1923077 4:22.79958 #Q5F8M6
0.0005966676141740538978283647786327 1:0.83333331 2:18.247139 3:0.83333331 4:150.66589 #P45127
-0.0005966676141740538978283647786327 1:0.1923077 2:17.173252 3:0.1923077 4:88.382339 #SRS015646.12153
0.0005966676141740538978283647786327 1:0.16666667 2:12.162208 3:0.16666667 4:23.142693 #Q9JYK8
-0.0005966676141740538978283647786327 1:0.21794872 2:10.415677 3:0.21794872 4:17.663841 #SRS063287.19086
-0.0005966676141740538978283647786327 1:0.14102565 2:17.257107 3:0.14102565 4:107.89299 #SRS016039.12097
0.0005966676141740538978283647786327 1:0.32051283 2:12.182232 3:0.32051283 4:22.676264 #Q9K0Y9
-0.0005966676141740538978283647786327 1:0.25641027 2:16.303204 3:0.25641027 4:57.204948 #SRS016039.27306
-0.0005966676141740538978283647786327 1:0.12820514 2:8.2484961 3:0.12820514 4:13.186465 #SRS056892.51481
0.0005966676141740538978283647786327 1:0.1025641 2:12.299404 3:0.1025641 4:24.577612 #A3N1S5
-0.0005966676141740538978283647786327 1:0.23076923 2:16.269732 3:0.23076923 4:57.348579 #SRS011310.10394
0.0005966676141740538978283647786327 1:0.03846154 2:12.425275 3:0.03846154 4:32.764278 #Q65UP5
-0.0005966676141740538978283647786327 1:0.20512821 2:16.281061 3:0.20512821 4:58.687813 #SRS018149.82113
-0.0005966676141740538978283647786327 1:0.1025641 2:5.8654933 3:0.1025641 4:9.5954885 #SRS018149.30029
0.0005966676141740538978283647786327 1:0.24358974 2:12.265665 3:0.24358974 4:23.143673 #A8AW14
-0.0005966676141740538978283647786327 1:0.1923077 2:16.230015 3:0.1923077 4:58.272167 #SRS042457.6594
-0.0005966676141740538978283647786327 1:0.21794872 2:16.193953 3:0.21794872 4:56.3908 #SRS045262.47411
0.0005966676141740538978283647786327 1:0.24358974 2:12.278165 3:0.24358974 4:23.189529 #P45221
-0.0005966676141740538978283647786327 1:0.24358974 2:16.153828 3:0.24358974 4:54.814804 #SRS017687.40653
0.0005966676141740538978283647786327 1:0.064102568 2:12.493977 3:0.064102568 4:27.190434 #A1TEP3
0.0005966676141740538978283647786327 1:0.12820514 2:12.467845 3:0.12820514 4:24.806433 #P44735
-0.0005966676141740538978283647786327 1:0.1923077 2:16.159594 3:0.1923077 4:56.831879 #SRS014126.2719
0.0005966676141740538978283647786327 1:0.03846154 2:12.707844 3:0.03846154 4:35.476974 #Q9JX94
-0.0005966676141740538978283647786327 1:0.16666667 2:16.110567 3:0.16666667 4:57.354965 #SRS022532.27390
-0.0005966676141740538978283647786327 1:0.1923077 2:15.994957 3:0.1923077 4:53.827217 #SRS022532.27994
0.0005966676141740538978283647786327 1:0.064102568 2:12.621137 3:0.064102568 4:27.908785 #Q57233
-0.0005966676141740538978283647786327 1:0.16666667 2:12.236509 3:0.16666667 4:23.408218 #SRS016600.17344
0.0005966676141740538978283647786327 1:0.17948718 2:17.490282 3:0.17948718 4:113.22713 #Q97QZ1
0.0005966676141740538978283647786327 1:0.32051283 2:12.484075 3:0.32051283 4:23.766907 #Q8RHF4
0.0005966676141740538978283647786327 1:0.76923078 2:18.631893 3:0.76923078 4:264.81927 #P0A4L9
-0.0005966676141740538978283647786327 1:0.12820514 2:4.6052437 3:0.12820514 4:8.0299978 #SRS018149.9791
-0.0005966676141740538978283647786327 1:0.12820514 2:7.2186422 3:0.12820514 4:11.466682 #SRS013506.30258
-0.0005966676141740538978283647786327 1:0.12820514 2:8.0204153 3:0.12820514 4:12.786685 #SRS018359.8792
-0.0005966676141740538978283647786327 1:0.17948718 2:9.1939096 3:0.17948718 4:14.918324 #SRS018149.10198
-0.0005966676141740538978283647786327 1:0.20512821 2:11.078522 3:0.20512821 4:19.488621 #SRS063287.38452
-0.0005966676141740538978283647786327 1:0.21794872 2:11.776116 3:0.21794872 4:21.575235 #SRS013945.63802
-0.0005966676141740538978283647786327 1:0.21794872 2:12.178731 3:0.21794872 4:22.93536 #SRS013711.44252
-0.0005966676141740538978283647786327 1:0.21794872 2:12.524258 3:0.21794872 4:24.236158 #SRS042457.14175
-0.0005966676141740538978283647786327 1:0.21794872 2:12.830123 3:0.21794872 4:25.526941 #SRS011310.41040
-0.0005966676141740538978283647786327 1:0.15384616 2:16.095112 3:0.15384616 4:58.035671 #SRS015040.8321
0.0005966676141740538978283647786327 1:0.6025641 2:16.826199 3:0.6025641 4:64.971664 #P45082
-0.0005966676141740538978283647786327 1:0.30769232 2:15.189033 3:0.30769232 4:40.673409 #SRS015154.3555
-0.00031123674584915793361883373790988 1:0.1025641 2:15.792767 3:0.1025641 4:58.540371 #SRS015154.5066
0.0005966676141740538978283647786327 1:0.21794872 2:12.446772 3:0.21794872 4:23.928509 #Q9JUB0
0.0005966676141740538978283647786327 1:0.11538462 2:12.495702 3:0.11538462 4:25.157078 #P44656
0.0005966676141740538978283647786327 1:0.69230771 2:18.609219 3:0.69230771 4:258.16299 #P0A4I5
-0.0005966676141740538978283647786327 1:0.14102565 2:16.030729 3:0.14102565 4:57.987446 #SRS015436.56412
0.0005966676141740538978283647786327 1:0.11538462 2:12.571859 3:0.11538462 4:25.499741 #Q8E2D9
-0.0005966676141740538978283647786327 1:0.15384616 2:16.016954 3:0.15384616 4:56.465046 #SRS022625.59485
0.0005966676141740538978283647786327 1:0.07692308 2:12.709579 3:0.07692308 4:27.454332 #Q8RGA0
-0.0005966676141740538978283647786327 1:0.14102565 2:15.980806 3:0.14102565 4:56.922916 #SRS019587.8456
0.0005966676141740538978283647786327 1:0.14102565 2:12.805346 3:0.14102565 4:26.107107 #P44697
-0.0005966676141740538978283647786327 1:0.26923078 2:15.545179 3:0.26923078 4:45.09042 #SRS019329.4152
0.0005966676141740538978283647786327 1:0.03846154 2:13.180686 3:0.03846154 4:41.185688 #Q65TL9
0.0005966676141740538978283647786327 1:0.32051283 2:12.815191 3:0.32051283 4:25.108118 #Q8RIQ3
-0.0005966676141740538978283647786327 1:0.12820514 2:7.0282745 3:0.12820514 4:11.183095 #SRS019587.38227
-0.0005966676141740538978283647786327 1:0.12820514 2:7.2785826 3:0.12820514 4:11.561926 #SRS018359.25074
-0.0005966676141740538978283647786327 1:0.12820514 2:15.947849 3:0.12820514 4:57.811966 #SRS019329.3769
-0.0005966676141740538978283647786327 1:0.15384616 2:15.927913 3:0.15384616 4:54.799595 #SRS017080.45791
0.0005966676141740538978283647786327 1:0.07692308 2:12.945866 3:0.07692308 4:28.82766 #Q5F9K3
-0.0005966676141740538978283647786327 1:0.32051283 2:15.355628 3:0.32051283 4:42.385307 #SRS017215.15353
0.0005966676141740538978283647786327 1:0.064102568 2:13.120913 3:0.064102568 4:31.140263 #Q03K84
0.0005966676141740538978283647786327 1:0.089743592 2:16.19273 3:0.089743592 4:73.613922 #A3N1Q1
0.0005966676141740538978283647786327 1:0.29487181 2:12.90497 3:0.29487181 4:25.553787 #A8AUJ9
-0.0005966676141740538978283647786327 1:0.14102565 2:15.966713 3:0.14102565 4:56.664185 #SRS019329.8975
0.0005966676141740538978283647786327 1:0.14102565 2:12.818997 3:0.14102565 4:26.160507 #A3MZX4
-3.3777217883903463664999056170757e-06 1:0.11538462 2:11.946386 3:0.11538462 4:22.921381 #SRS063272.3121
-0.0005966676141740538978283647786327 1:0.089743592 2:6.3339415 3:0.089743592 4:10.260659 #SRS011310.13987
-0.0005966676141740538978283647786327 1:0.14102565 2:15.936022 3:0.14102565 4:56.098324 #SRS011090.3500
0.0005966676141740538978283647786327 1:0.07692308 2:13.091001 3:0.07692308 4:29.727657 #Q3JYG1
-0.0005966676141740538978283647786327 1:0.26923078 2:15.503501 3:0.26923078 4:44.594112 #SRS045254.19438
0.0005966676141740538978283647786327 1:0.12820514 2:12.9903 3:0.12820514 4:27.210762 #A3N0S3
0.0005966676141740538978283647786327 1:0.051282052 2:13.261831 3:0.051282052 4:34.6917 #Q7VNZ3
-0.0005966676141740538978283647786327 1:0.07692308 2:0.79090375 3:0.07692308 4:3.6860347 #SRS017127.19802
0.0005966676141740538978283647786327 1:0.051282052 2:15.475179 3:0.051282052 4:80.287354 #Q9A1P0
0.0005966676141740538978283647786327 1:0.32051283 2:12.946571 3:0.32051283 4:25.672499 #A3CRC5
-0.0005966676141740538978283647786327 1:0.089743592 2:1.9494183 3:0.089743592 4:5.0264912 #SRS013945.61969
0.0005966676141740538978283647786327 1:0.25641027 2:12.936974 3:0.25641027 4:25.821913 #Q9JY95
-0.0005966676141740538978283647786327 1:0.14102565 2:15.899053 3:0.14102565 4:55.433517 #SRS018149.29669
0.0005966676141740538978283647786327 1:0.1025641 2:13.112935 3:0.1025641 4:28.573072 #Q59619
-0.0005966676141740538978283647786327 1:0.20512821 2:15.534988 3:0.20512821 4:46.252865 #SRS017687.18844
-0.0005966676141740538978283647786327 1:0.12820514 2:7.9518938 3:0.12820514 4:12.672905 #SRS017127.16925
0.0005966676141740538978283647786327 1:0.43589744 2:18.505043 3:0.43589744 4:251.35658 #Q97PK6
-0.0005966676141740538978283647786327 1:0.15384616 2:11.845729 3:0.15384616 4:22.11713 #SRS045049.10598
-0.0005966676141740538978283647786327 1:0.12820514 2:15.795465 3:0.12820514 4:54.846386 #SRS022625.2191
0.0005966676141740538978283647786327 1:0.064102568 2:13.227593 3:0.064102568 4:31.925386 #B0BTA2
-0.0005966676141740538978283647786327 1:0.24358974 2:15.41524 3:0.24358974 4:43.904987 #SRS013945.1408
0.0005966676141740538978283647786327 1:0.03846154 2:13.551999 3:0.03846154 4:47.092678 #Q03MA3
0.0005966676141740538978283647786327 1:0.35897437 2:13.122036 3:0.35897437 4:26.36709 #Q9JYZ7
-0.0005966676141740538978283647786327 1:0.17948718 2:10.868467 3:0.17948718 4:18.975986 #SRS015040.9338
0.0005966676141740538978283647786327 1:0.064102568 2:13.34025 3:0.064102568 4:32.770092 #P96051
-0.0005966676141740538978283647786327 1:0.2820513 2:15.051139 3:0.2820513 4:39.547554 #SRS024377.5695
0.0005966676141740538978283647786327 1:0.38461539 2:13.213908 3:0.38461539 4:26.733143 #Q7DDS7
0.0005966676141740538978283647786327 1:0.42307693 2:18.404457 3:0.42307693 4:211.93175 #Q04KZ0
0.0005966676141740538978283647786327 1:0.33333334 2:18.436701 3:0.33333334 4:248.55611 #B2ISI9
-0.0005966676141740538978283647786327 1:0.15384616 2:13.986765 3:0.15384616 4:32.625366 #SRS011310.20758
0.0005966676141740538978283647786327 1:0.03846154 2:13.94688 3:0.03846154 4:55.605545 #Q5M067
0.0005966676141740538978283647786327 1:0.34615386 2:13.23726 3:0.34615386 4:26.902676 #Q9JXY2
-0.0005966676141740538978283647786327 1:0.16666667 2:12.276999 3:0.16666667 4:23.571877 #SRS014126.10977
-0.0005966676141740538978283647786327 1:0.2820513 2:15.034371 3:0.2820513 4:39.383011 #SRS017537.2413
0.0005966676141740538978283647786327 1:0.21794872 2:13.233237 3:0.21794872 4:27.361343 #P48371
-0.0005966676141740538978283647786327 1:0.16666667 2:12.465126 3:0.16666667 4:24.319944 #SRS048719.20032
-0.0005966676141740538978283647786327 1:0.24358974 2:15.313682 3:0.24358974 4:42.751007 #SRS023987.27995
0.0005966676141740538978283647786327 1:0.12820514 2:13.135033 3:0.12820514 4:27.962095 #P45046
-0.0005966676141740538978283647786327 1:0.2820513 2:14.916834 3:0.2820513 4:38.261578 #SRS015374.12083
0.0005966676141740538978283647786327 1:0.03846154 2:14.426557 3:0.03846154 4:71.076401 #Q03MK4
0.0005966676141740538978283647786327 1:0.35897437 2:13.337032 3:0.35897437 4:27.352875 #Q8RH05
0.0005966676141740538978283647786327 1:0.15384616 2:13.204729 3:0.15384616 4:27.840923 #Q5M5J8
-0.0005966676141740538978283647786327 1:0.16666667 2:12.740033 3:0.16666667 4:25.495783 #SRS017013.49843
-0.0005966676141740538978283647786327 1:0.14102565 2:12.983987 3:0.14102565 4:26.92844 #SRS023987.10005
0.0005966676141740538978283647786327 1:0.21794872 2:13.303811 3:0.21794872 4:27.724667 #Q59599
0.0005966676141740538978283647786327 1:0.03846154 2:13.98289 3:0.03846154 4:56.474617 #Q5LXJ3
-0.0005966676141740538978283647786327 1:0.15384616 2:14.886497 3:0.15384616 4:40.273079 #SRS022145.5277
-0.0005966676141740538978283647786327 1:0.26923078 2:14.501307 3:0.26923078 4:34.887825 #SRS050029.14503
0.0005966676141740538978283647786327 1:0.03846154 2:14.381805 3:0.03846154 4:69.291725 #Q65VQ5
0.0005966676141740538978283647786327 1:0.26923078 2:13.376939 3:0.26923078 4:27.81057 #A3N3D3
-0.0005965200846996775163599835423156 1:0.1025641 2:16.344654 3:0.1025641 4:74.094727 #SRS015154.1554
0.0005966676141740538978283647786327 1:0.1923077 2:17.971815 3:0.1923077 4:177.26184 #Q8DVV2
-0.0005966676141740538978283647786327 1:0.26923078 2:15.008168 3:0.26923078 4:39.240852 #SRS050029.13352
-0.0005966676141740538978283647786327 1:0.12820514 2:8.066741 3:0.12820514 4:12.870091 #SRS045262.35942
0.0005966676141740538978283647786327 1:0.20512821 2:13.33734 3:0.20512821 4:27.992304 #Q9JXC1
-0.0005966676141740538978283647786327 1:0.14102565 2:10.178089 3:0.14102565 4:17.304798 #SRS019329.38876
-0.0005966676141740538978283647786327 1:0.23076923 2:15.374122 3:0.23076923 4:43.648712 #SRS019976.5590
0.0005966676141740538978283647786327 1:0.089743592 2:13.367461 3:0.089743592 4:30.691557 #P45288
-0.0005966676141740538978283647786327 1:0.11538462 2:10.458786 3:0.11538462 4:18.236937 #SRS050628.89531
0.0005966676141740538978283647786327 1:0.051282052 2:13.676086 3:0.051282052 4:38.894714 #Q8RDQ1
0.0005966676141740538978283647786327 1:0.43589744 2:14.857293 3:0.43589744 4:37.076141 #D1BLD0
0.0005966676141740538978283647786327 1:0.17948718 2:13.486002 3:0.17948718 4:29.071728 #A8AZV0
-0.0005966676141740538978283647786327 1:0.14102565 2:9.9040346 3:0.14102565 4:16.626835 #SRS015154.29052
-0.0005966676141740538978283647786327 1:0.26923078 2:14.638479 3:0.26923078 4:35.954525 #SRS022532.2442
0.0005966676141740538978283647786327 1:0.03846154 2:14.042204 3:0.03846154 4:58.041626 #Q03H14
0.0005966676141740538978283647786327 1:0.30769232 2:13.758613 3:0.30769232 4:29.759062 #Q9JWJ3
-0.0005966676141740538978283647786327 1:0.025641026 2:12.733824 3:0.025641026 4:333.25674 #SRS018661.22313
0.0005966676141740538978283647786327 1:0.23076923 2:13.699718 3:0.23076923 4:29.809818 #A3CKV4
-0.0005966676141740538978283647786327 1:0.26923078 2:14.663536 3:0.26923078 4:36.167664 #SRS019329.6372
0.0005966676141740538978283647786327 1:0.16666667 2:13.663209 3:0.16666667 4:30.273489 #A8AZK4
-0.0005966676141740538978283647786327 1:0.12820514 2:12.069986 3:0.12820514 4:23.191086 #SRS013945.3412
0.0005966676141740538978283647786327 1:0.089743592 2:13.669896 3:0.089743592 4:32.825516 #A6VR01
-0.0005966676141740538978283647786327 1:0.15384616 2:12.295715 3:0.15384616 4:23.751135 #SRS011310.24001
-0.0005966676141740538978283647786327 1:0.17948718 2:15.539978 3:0.17948718 4:47.1455 #SRS015436.43355
0.0005966676141740538978283647786327 1:0.07692308 2:13.80307 3:0.07692308 4:34.959091 #Q5M1B4
-0.0005966676141740538978283647786327 1:0.23076923 2:15.304689 3:0.23076923 4:42.868851 #SRS011247.7839
0.0005966676141740538978283647786327 1:0.051282052 2:14.01292 3:0.051282052 4:43.090542 #P43893
-0.0005966676141740538978283647786327 1:0.20512821 2:15.384764 3:0.20512821 4:44.349861 #SRS014575.13836
0.0005966676141740538978283647786327 1:0.051282052 2:14.03663 3:0.051282052 4:43.41037 #Q5M079
-0.0005966676141740538978283647786327 1:0.11538462 2:5.0721793 3:0.11538462 4:8.6000042 #SRS045262.37040
0.0005966676141740538978283647786327 1:0.48717949 2:18.524881 3:0.48717949 4:251.20592 #Q04LU1
-0.0005966676141740538978283647786327 1:0.025641026 2:12.724081 3:0.025641026 4:301.25754 #SRS014126.4164
